{"learner":{"attributes":{},"feature_names":["deal_id","age","mileage","has_service_book","is_newly_serviced","has_timing_belt_replaced","has_brakes_replaced","has_authorized_service","winter_tires_included","seller_type_Företag","seller_type_Privat","location_region_Blekinge","location_region_Dalarna","location_region_Gotland","location_region_Gävleborg","location_region_Göteborg","location_region_Halland","location_region_Jämtland","location_region_Jönköping","location_region_Kalmar","location_region_Kronoberg","location_region_Norrbotten","location_region_Skaraborg","location_region_Skåne","location_region_Stockholm","location_region_Södermanland","location_region_Uppsala","location_region_Värmland","location_region_Västerbotten","location_region_Västernorrland","location_region_Västmanland","location_region_Älvsborg","location_region_Örebro","location_region_Östergötland","fuel_Bensin","fuel_Diesel","fuel_Miljöbränsle/Hybrid","gearbox_Automat","gearbox_Manuell","model_Bel Air","model_Camaro","model_Corvette","model_Cruze","model_Impala","model_Silverado","model_Silverado 1500"],"feature_types":["int","int","float","i","i","i","i","i","i","i","i","i","i","i","i","i","i","i","i","i","i","i","i","i","i","i","i","i","i","i","i","i","i","i","i","i","i","i","i","i","i","i","i","i","i","i"],"gradient_booster":{"model":{"gbtree_model_param":{"num_parallel_tree":"1","num_trees":"100"},"iteration_indptr":[0,1,2,3,4,5,6,7,8,9,10,11,12,13,14,15,16,17,18,19,20,21,22,23,24,25,26,27,28,29,30,31,32,33,34,35,36,37,38,39,40,41,42,43,44,45,46,47,48,49,50,51,52,53,54,55,56,57,58,59,60,61,62,63,64,65,66,67,68,69,70,71,72,73,74,75,76,77,78,79,80,81,82,83,84,85,86,87,88,89,90,91,92,93,94,95,96,97,98,99,100],"tree_info":[0,0,0,0,0,0,0,0,0,0,0,0,0,0,0,0,0,0,0,0,0,0,0,0,0,0,0,0,0,0,0,0,0,0,0,0,0,0,0,0,0,0,0,0,0,0,0,0,0,0,0,0,0,0,0,0,0,0,0,0,0,0,0,0,0,0,0,0,0,0,0,0,0,0,0,0,0,0,0,0,0,0,0,0,0,0,0,0,0,0,0,0,0,0,0,0,0,0,0,0],"trees":[{"base_weights":[-7.864239E-3,7.448418E5,-1.998737E5,4.8262912E5,1.0529841E6,-1.24903984E5,-3.164935E5,6.1096756E5,1.882285E5,1.2154875E6,7.528491E5,5.4563286E3,-2.2810605E5,-3.4783734E5,-7.923772E4,1.6396889E4,6.1686406E5,2.3334234E5,-2.08498E4,1.242064E5,5.0912516E4,7.761292E5,1.2034388E4,1.604541E5,-7.299606E4,-9.534395E4,-2.5376217E5,-1.1039143E5,-3.69263E5,-1.838368E4,-2.4859355E4,5.0284918E4,6.939978E4,-2.9206125E3,2.4955094E4,-5.523419E3,5.8343877E3,2.2074389E4,7.920645E4,7.0463945E3,5.5660176E4,1.5508823E4,-1.6234705E4,-1.2075254E4,2.9534389E4,-1.7874834E3,-2.571495E4,-3.766123E3,-3.009842E4,-3.3943652E4,-4.5118086E4,-6.340409E3,1.11350205E4],"categories":[],"categories_nodes":[],"categories_segments":[],"categories_sizes":[],"default_left":[0,0,0,0,0,0,0,0,0,0,0,0,0,0,0,0,0,0,0,0,0,0,0,0,0,0,0,0,0,0,0,0,0,0,0,0,0,0,0,0,0,0,0,0,0,0,0,0,0,0,0,0,0],"id":0,"left_children":[1,3,5,7,9,11,13,15,17,19,21,23,25,27,29,-1,31,33,35,-1,-1,37,-1,39,41,43,45,47,49,51,-1,-1,-1,-1,-1,-1,-1,-1,-1,-1,-1,-1,-1,-1,-1,-1,-1,-1,-1,-1,-1,-1,-1],"loss_changes":[9.006894E13,9.834049E12,4.1308568E12,2.567584E12,1.9137519E12,3.9296529E12,1.3556263E12,2.800327E10,2.2180862E11,4.3448795E10,2.4526717E11,1.5925054E12,5.3100937E11,7.93577E11,2.3246761E11,0E0,7.315705E10,8.814369E10,1.6837706E10,0E0,0E0,1.9861078E10,0E0,1.529353E12,1.7981994E12,3.136146E11,1.0407064E11,1.965923E11,2.1335166E11,1.1219217E11,0E0,0E0,0E0,0E0,0E0,0E0,0E0,0E0,0E0,0E0,0E0,0E0,0E0,0E0,0E0,0E0,0E0,0E0,0E0,0E0,0E0,0E0,0E0],"parents":[2147483647,0,0,1,1,2,2,3,3,4,4,5,5,6,6,7,7,8,8,9,9,10,10,11,11,12,12,13,13,14,14,16,16,17,17,18,18,21,21,23,23,24,24,25,25,26,26,27,27,28,28,29,29],"right_children":[2,4,6,8,10,12,14,16,18,20,22,24,26,28,30,-1,32,34,36,-1,-1,38,-1,40,42,44,46,48,50,52,-1,-1,-1,-1,-1,-1,-1,-1,-1,-1,-1,-1,-1,-1,-1,-1,-1,-1,-1,-1,-1,-1,-1],"split_conditions":[7E0,1E0,1.0174E4,1.051E3,2E0,1.0029174E9,4.5E1,1.03068936E8,1.0029162E9,1E0,1.4019981E9,1E0,1E0,1E1,1.4020876E9,1.6396889E4,1E0,1.8E3,1.4022036E9,1.242064E5,5.0912516E4,1.00175974E9,1.2034388E4,5.5E1,1.2E1,1E0,8E0,2.2E4,1E0,1.6E4,-2.4859355E4,5.0284918E4,6.939978E4,-2.9206125E3,2.4955094E4,-5.523419E3,5.8343877E3,2.2074389E4,7.920645E4,7.0463945E3,5.5660176E4,1.5508823E4,-1.6234705E4,-1.2075254E4,2.9534389E4,-1.7874834E3,-2.571495E4,-3.766123E3,-3.009842E4,-3.3943652E4,-4.5118086E4,-6.340409E3,1.11350205E4],"split_indices":[1,41,2,2,1,0,1,0,0,32,0,37,37,1,0,0,35,2,0,0,0,0,0,1,1,22,1,2,42,2,0,0,0,0,0,0,0,0,0,0,0,0,0,0,0,0,0,0,0,0,0,0,0],"split_type":[0,0,0,0,0,0,0,0,0,0,0,0,0,0,0,0,0,0,0,0,0,0,0,0,0,0,0,0,0,0,0,0,0,0,0,0,0,0,0,0,0,0,0,0,0,0,0,0,0,0,0,0,0],"sum_hessian":[6.03E2,1.27E2,4.76E2,7E1,5.7E1,2.91E2,1.85E2,4.8E1,2.2E1,3.5E1,2.2E1,1.29E2,1.62E2,1.63E2,2.2E1,1E0,4.7E1,1.8E1,4E0,3.3E1,2E0,2.1E1,1E0,4.3E1,8.6E1,2.7E1,1.35E2,1.4E1,1.49E2,1.7E1,5E0,2.2E1,2.5E1,1E0,1.7E1,3E0,1E0,1E0,2E1,3.6E1,7E0,2.4E1,6.2E1,2.6E1,1E0,2E0,1.33E2,1.1E1,3E0,1.13E2,3.6E1,1.3E1,4E0],"tree_param":{"num_deleted":"0","num_feature":"46","num_nodes":"53","size_leaf_vector":"1"}},{"base_weights":[6.056363E2,6.7384875E5,-1.8005625E5,4.3659756E5,9.5265875E5,-1.1223572E5,-2.8555916E5,5.52648E5,1.7037717E5,1.0988033E5,6.82491E5,5.387477E3,-2.0535706E5,-3.137422E5,-7.218633E4,5.6538356E5,2.6802713E4,2.111678E5,-1.870263E4,7.0312E4,1.1432669E4,-3.1146232E4,2.8755566E5,-8.518602E4,-2.2858819E5,-1.2540649E5,-3.361027E5,-1.6278949E4,-2.2787742E4,1.5577044E4,5.710245E4,-2.7745813E3,2.259822E4,-5.1091636E3,5.542669E3,1.1927014E4,-1.5958016E4,4.20695E4,-6.2862026E3,-1.0912452E4,2.805767E4,-1.4832386E4,-2.411482E4,-8.424358E3,-3.1686082E4,-3.0910504E4,-4.0728215E4,-5.751657E3,1.0244218E4],"categories":[],"categories_nodes":[],"categories_segments":[],"categories_sizes":[],"default_left":[0,0,0,0,0,0,0,0,0,0,0,0,0,0,0,0,0,0,0,0,0,0,0,0,0,0,0,0,0,0,0,0,0,0,0,0,0,0,0,0,0,0,0,0,0,0,0,0,0],"id":1,"left_children":[1,3,5,7,9,11,13,15,17,-1,19,21,23,25,27,29,-1,31,33,-1,-1,35,37,39,41,43,45,47,-1,-1,-1,-1,-1,-1,-1,-1,-1,-1,-1,-1,-1,-1,-1,-1,-1,-1,-1,-1,-1],"loss_changes":[7.358547E13,8.0510127E12,3.3810106E12,2.0993855E12,1.5401233E12,3.1994494E12,1.09586153E12,2.6077037E10,1.8134113E11,0E0,1.8918932E11,1.3490808E12,4.3557585E11,6.4850126E11,1.9648887E11,1.7340301E10,0E0,7.351796E10,1.4836713E10,0E0,0E0,2.2599867E12,7.262614E11,2.7578047E11,1.0133701E11,1.2304204E11,1.5467125E11,9.40161E10,0E0,0E0,0E0,0E0,0E0,0E0,0E0,0E0,0E0,0E0,0E0,0E0,0E0,0E0,0E0,0E0,0E0,0E0,0E0,0E0,0E0],"parents":[2147483647,0,0,1,1,2,2,3,3,4,4,5,5,6,6,7,7,8,8,10,10,11,11,12,12,13,13,14,14,15,15,17,17,18,18,21,21,22,22,23,23,24,24,25,25,26,26,27,27],"right_children":[2,4,6,8,10,12,14,16,18,-1,20,22,24,26,28,30,-1,32,34,-1,-1,36,38,40,42,44,46,48,-1,-1,-1,-1,-1,-1,-1,-1,-1,-1,-1,-1,-1,-1,-1,-1,-1,-1,-1,-1,-1],"split_conditions":[7E0,1E0,1.0174E4,1.051E3,2E0,1.0029174E9,4.5E1,1E0,1.0029162E9,1.0988033E5,1.4019981E9,6.2E1,1E0,1.1E1,1.4020876E9,1.03068936E8,2.6802713E4,1.8E3,1.4022036E9,7.0312E4,1.1432669E4,1.7E1,1E0,1E0,2E1,1E0,1E0,1.6E4,-2.2787742E4,1.5577044E4,5.710245E4,-2.7745813E3,2.259822E4,-5.1091636E3,5.542669E3,1.1927014E4,-1.5958016E4,4.20695E4,-6.2862026E3,-1.0912452E4,2.805767E4,-1.4832386E4,-2.411482E4,-8.424358E3,-3.1686082E4,-3.0910504E4,-4.0728215E4,-5.751657E3,1.0244218E4],"split_indices":[1,41,2,2,1,0,1,28,0,0,0,1,37,1,0,0,0,2,0,0,0,1,39,22,1,27,42,2,0,0,0,0,0,0,0,0,0,0,0,0,0,0,0,0,0,0,0,0,0],"split_type":[0,0,0,0,0,0,0,0,0,0,0,0,0,0,0,0,0,0,0,0,0,0,0,0,0,0,0,0,0,0,0,0,0,0,0,0,0,0,0,0,0,0,0,0,0,0,0,0,0],"sum_hessian":[6.03E2,1.27E2,4.76E2,7E1,5.7E1,2.91E2,1.85E2,4.8E1,2.2E1,3.5E1,2.2E1,1.29E2,1.62E2,1.63E2,2.2E1,4.5E1,3E0,1.8E1,4E0,2.1E1,1E0,1.15E2,1.4E1,2.7E1,1.35E2,1.8E1,1.45E2,1.7E1,5E0,1E0,4.4E1,1E0,1.7E1,3E0,1E0,5.3E1,6.2E1,1E1,4E0,2.6E1,1E0,2E1,1.15E2,1.6E1,2E0,1.09E2,3.6E1,1.3E1,4E0],"tree_param":{"num_deleted":"0","num_feature":"46","num_nodes":"49","size_leaf_vector":"1"}},{"base_weights":[8.617429E2,6.088964E5,-1.6230239E5,3.9462428E5,8.6069675E5,-1.0097807E5,-2.577024E5,4.9941347E5,1.5422017E5,9.919751E5,6.17796E5,5.092984E3,-1.8495512E5,-2.8304934E5,-6.576314E4,4.0408293E4,5.621242E5,2.499533E5,7.482365E4,1.0148622E6,4.0192996E4,6.36004E5,1.0861034E4,1.4157766E5,-6.399229E4,-7.60551E4,-2.0601575E5,-1.1497693E5,-3.029831E5,-1.4401469E4,-2.0888764E4,1.479819E4,5.7236113E4,-2.6358516E3,2.8358334E4,1.1241546E4,-4.7259766E3,1.0498237E5,4.9019582E4,1.7455068E4,6.49666E4,6.1800757E3,4.9284863E4,1.2364008E4,-1.4164469E4,-9.861624E3,2.6654785E4,-2.416304E4,-1.7471959E4,-6.9965933E3,-2.662767E4,-2.7847553E4,-3.676547E4,2.1795608E3,-1.4654015E4],"categories":[],"categories_nodes":[],"categories_segments":[],"categories_sizes":[],"default_left":[0,0,0,0,0,0,0,0,0,0,0,0,0,0,0,0,0,0,0,0,0,0,0,0,0,0,0,0,0,0,0,0,0,0,0,0,0,0,0,0,0,0,0,0,0,0,0,0,0,0,0,0,0,0,0],"id":2,"left_children":[1,3,5,7,9,11,13,15,17,19,21,23,25,27,29,-1,31,33,35,37,-1,39,-1,41,43,45,47,49,51,53,-1,-1,-1,-1,-1,-1,-1,-1,-1,-1,-1,-1,-1,-1,-1,-1,-1,-1,-1,-1,-1,-1,-1,-1,-1],"loss_changes":[6.0021333E13,6.5664346E12,2.7645895E12,1.7115948E12,1.2366402E12,2.6019425E12,8.8629104E11,6.5789755E10,1.5611773E11,7.825313E10,1.441619E11,1.2348403E12,3.5817207E11,5.146149E11,1.660673E11,0E0,2.9769073E10,1.0039866E11,6.9563466E10,1.09043515E11,0E0,2.5296896E10,0E0,1.2025672E12,1.2851121E12,2.4271231E11,1.0936805E11,1.1076259E11,1.2901889E11,8.928854E10,0E0,0E0,0E0,0E0,0E0,0E0,0E0,0E0,0E0,0E0,0E0,0E0,0E0,0E0,0E0,0E0,0E0,0E0,0E0,0E0,0E0,0E0,0E0,0E0,0E0],"parents":[2147483647,0,0,1,1,2,2,3,3,4,4,5,5,6,6,7,7,8,8,9,9,10,10,11,11,12,12,13,13,14,14,16,16,17,17,18,18,19,19,21,21,23,23,24,24,25,25,26,26,27,27,28,28,29,29],"right_children":[2,4,6,8,10,12,14,16,18,20,22,24,26,28,30,-1,32,34,36,38,-1,40,-1,42,44,46,48,50,52,54,-1,-1,-1,-1,-1,-1,-1,-1,-1,-1,-1,-1,-1,-1,-1,-1,-1,-1,-1,-1,-1,-1,-1,-1,-1],"split_conditions":[7E0,1E0,1.0174E4,1.051E3,2E0,1.0029174E9,4.5E1,1E0,4.5E3,1E0,1.4019981E9,1E0,1E0,1.1E1,1.4020876E9,4.0408293E4,1.03068936E8,1.8E3,1E0,1E0,4.0192996E4,1.00175974E9,1.0861034E4,5.5E1,1.3E1,1E0,5.3E1,2.2E4,1E0,1E0,-2.0888764E4,1.479819E4,5.7236113E4,-2.6358516E3,2.8358334E4,1.1241546E4,-4.7259766E3,1.0498237E5,4.9019582E4,1.7455068E4,6.49666E4,6.1800757E3,4.9284863E4,1.2364008E4,-1.4164469E4,-9.861624E3,2.6654785E4,-2.416304E4,-1.7471959E4,-6.9965933E3,-2.662767E4,-2.7847553E4,-3.676547E4,2.1795608E3,-1.4654015E4],"split_indices":[1,41,2,2,1,0,1,35,2,32,0,37,37,1,0,0,0,2,40,33,0,0,0,1,1,22,1,2,42,23,0,0,0,0,0,0,0,0,0,0,0,0,0,0,0,0,0,0,0,0,0,0,0,0,0],"split_type":[0,0,0,0,0,0,0,0,0,0,0,0,0,0,0,0,0,0,0,0,0,0,0,0,0,0,0,0,0,0,0,0,0,0,0,0,0,0,0,0,0,0,0,0,0,0,0,0,0,0,0,0,0,0,0],"sum_hessian":[6.03E2,1.27E2,4.76E2,7E1,5.7E1,2.91E2,1.85E2,4.8E1,2.2E1,3.5E1,2.2E1,1.29E2,1.62E2,1.63E2,2.2E1,2.2E1,2.6E1,9E0,1.3E1,3.3E1,2E0,2.1E1,1E0,4.3E1,8.6E1,2.7E1,1.35E2,1.8E1,1.45E2,1.7E1,5E0,1E0,2.5E1,1E0,8E0,1E1,3E0,3E1,3E0,1E0,2E1,3.6E1,7E0,2.5E1,6.1E1,2.6E1,1E0,6E1,7.5E1,1.5E1,3E0,1.09E2,3.6E1,1.4E1,3E0],"tree_param":{"num_deleted":"0","num_feature":"46","num_nodes":"55","size_leaf_vector":"1"}},{"base_weights":[1.3209033E3,5.51383E5,-1.4628762E5,3.571996E5,7.795836E5,6.711416E4,-1.6867233E5,4.5176688E5,1.4019981E5,8.9817194E5,5.600722E5,-5.998442E4,3.619098E5,-2.1824706E5,-6.800728E4,3.6543152E4,5.085797E5,2.2753023E5,6.7806664E4,2.5080936E4,9.09502E5,5.7615E5,1.0317981E4,-3.3142074E4,-2.4630594E4,3.7583456E5,9.044397E3,-1.1815494E5,-2.6006856E5,7.02605E4,-1.4930895E5,1.4058281E4,5.1732637E4,-2.5040593E3,2.5837594E4,1.0219587E4,-4.371529E3,9.305202E4,3.7513465E4,1.6582316E4,5.877931E4,9.086268E3,-5.028566E3,3.887468E4,1.1044397E4,9.8665704E2,-2.3247555E4,-2.4018256E4,-3.3753324E4,2.2629877E4,-7.548942E2,-1.723968E4,-1.00117725E3],"categories":[],"categories_nodes":[],"categories_segments":[],"categories_sizes":[],"default_left":[0,0,0,0,0,0,0,0,0,0,0,0,0,0,0,0,0,0,0,0,0,0,0,0,0,0,0,0,0,0,0,0,0,0,0,0,0,0,0,0,0,0,0,0,0,0,0,0,0,0,0,0,0],"id":3,"left_children":[1,3,5,7,9,11,13,15,17,19,21,23,25,27,29,-1,31,33,35,-1,37,39,-1,41,-1,43,-1,45,47,49,51,-1,-1,-1,-1,-1,-1,-1,-1,-1,-1,-1,-1,-1,-1,-1,-1,-1,-1,-1,-1,-1,-1],"loss_changes":[4.9121746E13,5.393569E12,2.289919E12,1.3936571E12,1.00678395E12,1.7452419E12,2.1410297E12,5.4492398E10,1.2998076E11,3.5936797E10,1.0950699E11,1.5688004E11,1.8929418E10,1.1790251E12,1.6292525E12,0E0,1.4178845E10,8.437714E10,5.815963E10,0E0,4.4031803E10,7.634682E9,0E0,6.8345684E10,0E0,1.6134963E9,0E0,1.2755818E12,2.3164512E11,6.5733584E11,2.9093632E11,0E0,0E0,0E0,0E0,0E0,0E0,0E0,0E0,0E0,0E0,0E0,0E0,0E0,0E0,0E0,0E0,0E0,0E0,0E0,0E0,0E0,0E0],"parents":[2147483647,0,0,1,1,2,2,3,3,4,4,5,5,6,6,7,7,8,8,9,9,10,10,11,11,12,12,13,13,14,14,16,16,17,17,18,18,20,20,21,21,23,23,25,25,27,27,28,28,29,29,30,30],"right_children":[2,4,6,8,10,12,14,16,18,20,22,24,26,28,30,-1,32,34,36,-1,38,40,-1,42,-1,44,-1,46,48,50,52,-1,-1,-1,-1,-1,-1,-1,-1,-1,-1,-1,-1,-1,-1,-1,-1,-1,-1,-1,-1,-1,-1],"split_conditions":[7E0,1E0,1E1,1.051E3,2E0,1E0,5.3E1,1E0,4.5E3,1.0007361E9,1.4019981E9,2.2E4,7.07E3,6.2E3,1.4019767E9,3.6543152E4,1.03068936E8,1.8E3,1E0,2.5080936E4,1E0,1.00175974E9,1.0317981E4,1.001826E9,-2.4630594E4,1E0,9.044397E3,2E1,1E0,1E0,1E0,1.4058281E4,5.1732637E4,-2.5040593E3,2.5837594E4,1.0219587E4,-4.371529E3,9.305202E4,3.7513465E4,1.6582316E4,5.877931E4,9.086268E3,-5.028566E3,3.887468E4,1.1044397E4,9.8665704E2,-2.3247555E4,-2.4018256E4,-3.3753324E4,2.2629877E4,-7.548942E2,-1.723968E4,-1.00117725E3],"split_indices":[1,41,1,2,1,41,1,35,2,0,0,2,2,2,0,0,0,2,40,0,32,0,0,0,0,31,0,1,42,37,40,0,0,0,0,0,0,0,0,0,0,0,0,0,0,0,0,0,0,0,0,0,0],"split_type":[0,0,0,0,0,0,0,0,0,0,0,0,0,0,0,0,0,0,0,0,0,0,0,0,0,0,0,0,0,0,0,0,0,0,0,0,0,0,0,0,0,0,0,0,0,0,0,0,0,0,0,0,0],"sum_hessian":[6.03E2,1.27E2,4.76E2,7E1,5.7E1,4.5E1,4.31E2,4.8E1,2.2E1,3.5E1,2.2E1,3.2E1,1.3E1,2.88E2,1.43E2,2.2E1,2.6E1,9E0,1.3E1,1E0,3.4E1,2.1E1,1E0,2.9E1,3E0,1.2E1,1E0,8.6E1,2.02E2,5.3E1,9E1,1E0,2.5E1,1E0,8E0,1E1,3E0,3.2E1,2E0,1E0,2E1,3E0,2.6E1,1.1E1,1E0,4.1E1,4.5E1,1.64E2,3.8E1,1.7E1,3.6E1,7.7E1,1.3E1],"tree_param":{"num_deleted":"0","num_feature":"46","num_nodes":"53","size_leaf_vector":"1"}},{"base_weights":[1.7431755E3,4.9915753E5,-1.3173855E5,3.23332E5,7.0578606E5,-7.875954E4,-2.0795044E5,4.0867866E5,1.2744862E5,8.1267825E5,5.0779012E5,1.7985174E4,-1.521809E5,-2.3092647E5,-5.643564E4,3.3047723E4,4.6015844E5,2.071106E5,6.144374E4,8.4005606E5,3.8364215E4,3.31594E5,5.796551E5,-1.6445592E4,2.8722797E5,-6.1843953E4,-1.699216E5,-3.6454195E4,-2.416377E5,-9.226308E4,4.0187402E4,1.3355369E4,4.6758348E4,-2.3788562E3,2.3540922E4,9.290535E3,-4.043664E3,3.497848E4,8.6040305E4,3.4853805E4,9.802081E3,3.7659855E4,7.579201E4,1.0214291E4,-1.245274E4,1.0961635E4,4.491801E4,-9.384366E3,1.5361518E4,-1.0383504E4,-1.806049E4,3.4157349E3,-2.1260025E4,-2.2256037E4,-2.9904182E4,-1.2049288E4,1.0787011E4,9.91776E3,-9.118878E3],"categories":[],"categories_nodes":[],"categories_segments":[],"categories_sizes":[],"default_left":[0,0,0,0,0,0,0,0,0,0,0,0,0,0,0,0,0,0,0,0,0,0,0,0,0,0,0,0,0,0,0,0,0,0,0,0,0,0,0,0,0,0,0,0,0,0,0,0,0,0,0,0,0,0,0,0,0,0,0],"id":4,"left_children":[1,3,5,7,9,11,13,15,17,19,21,23,25,27,29,-1,31,33,35,37,-1,39,41,43,45,47,49,51,53,55,57,-1,-1,-1,-1,-1,-1,-1,-1,-1,-1,-1,-1,-1,-1,-1,-1,-1,-1,-1,-1,-1,-1,-1,-1,-1,-1,-1,-1],"loss_changes":[4.0168774E13,4.422109E12,1.9095717E12,1.1348922E12,8.148568E11,2.0129226E12,6.658033E11,4.5191004E10,1.0821016E11,1.00575216E11,9.902332E10,1.1449627E12,2.4751636E11,3.432241E11,9.7175224E10,0E0,3.029336E9,7.094134E10,4.863127E10,2.8238152E10,0E0,1.4550303E9,2.5753603E11,1.4226181E12,3.534667E11,2.074654E11,7.5853726E10,1.316413E11,1.0866393E11,1.2599199E11,7.104314E10,0E0,0E0,0E0,0E0,0E0,0E0,0E0,0E0,0E0,0E0,0E0,0E0,0E0,0E0,0E0,0E0,0E0,0E0,0E0,0E0,0E0,0E0,0E0,0E0,0E0,0E0,0E0,0E0],"parents":[2147483647,0,0,1,1,2,2,3,3,4,4,5,5,6,6,7,7,8,8,9,9,10,10,11,11,12,12,13,13,14,14,16,16,17,17,18,18,19,19,21,21,22,22,23,23,24,24,25,25,26,26,27,27,28,28,29,29,30,30],"right_children":[2,4,6,8,10,12,14,16,18,20,22,24,26,28,30,-1,32,34,36,38,-1,40,42,44,46,48,50,52,54,56,58,-1,-1,-1,-1,-1,-1,-1,-1,-1,-1,-1,-1,-1,-1,-1,-1,-1,-1,-1,-1,-1,-1,-1,-1,-1,-1,-1,-1],"split_conditions":[7E0,1E0,1E4,1.051E3,2E0,1.0029174E9,5.4E1,1E0,4.5E3,1E0,1E0,6.2E1,1E0,9E0,1E0,3.3047723E4,1.03068936E8,1.8E3,1E0,1.0014411E9,3.8364215E4,1.4019981E9,8.63E2,1.7E1,2E0,6.2E1,2E1,2E4,1E0,1E0,1E0,1.3355369E4,4.6758348E4,-2.3788562E3,2.3540922E4,9.290535E3,-4.043664E3,3.497848E4,8.6040305E4,3.4853805E4,9.802081E3,3.7659855E4,7.579201E4,1.0214291E4,-1.245274E4,1.0961635E4,4.491801E4,-9.384366E3,1.5361518E4,-1.0383504E4,-1.806049E4,3.4157349E3,-2.1260025E4,-2.2256037E4,-2.9904182E4,-1.2049288E4,1.0787011E4,9.91776E3,-9.118878E3],"split_indices":[1,41,2,2,1,0,1,35,2,33,19,1,37,1,41,0,0,2,40,0,0,0,2,1,2,1,1,2,42,15,6,0,0,0,0,0,0,0,0,0,0,0,0,0,0,0,0,0,0,0,0,0,0,0,0,0,0,0,0],"split_type":[0,0,0,0,0,0,0,0,0,0,0,0,0,0,0,0,0,0,0,0,0,0,0,0,0,0,0,0,0,0,0,0,0,0,0,0,0,0,0,0,0,0,0,0,0,0,0,0,0,0,0,0,0,0,0,0,0,0,0],"sum_hessian":[6.03E2,1.27E2,4.76E2,7E1,5.7E1,2.82E2,1.94E2,4.8E1,2.2E1,3.5E1,2.2E1,1.22E2,1.6E2,1.68E2,2.6E1,2.2E1,2.6E1,9E0,1.3E1,3.2E1,3E0,8E0,1.4E1,1.09E2,1.3E1,2.7E1,1.33E2,9E0,1.59E2,1.9E1,7E0,1E0,2.5E1,1E0,8E0,1E1,3E0,2E0,3E1,7E0,1E0,8E0,6E0,5.2E1,5.7E1,7E0,6E0,2.4E1,3E0,2E1,1.13E2,7E0,2E0,1.23E2,3.6E1,1.7E1,2E0,5E0,2E0],"tree_param":{"num_deleted":"0","num_feature":"46","num_nodes":"59","size_leaf_vector":"1"}},{"base_weights":[2.22741E3,4.5265628E5,-1.1864706E5,2.9268288E5,6.4068144E5,6.0100504E4,-1.3740572E5,3.69712E5,1.1585195E5,7.3583775E5,4.6388538E5,-5.2764133E4,3.218457E5,-1.7979438E5,-5.137985E4,2.988663E4,4.1636902E4,1.8851572E5,5.5674117E4,7.597176E5,3.5486902E4,3.0339635E4,5.2925306E5,-2.9822018E4,-2.1163896E4,3.3417004E4,8.0814624E3,-8.6635375E4,-2.0973773E5,7.111983E4,-1.1531252E5,-2.259914E3,2.1448395E4,1.1364414E2,1.1004944E4,7.803996E4,2.9276547E4,3.4312312E4,6.929555E4,-4.277271E3,1.0099175E4,3.7037493E3,-1.9826473E4,-1.9398545E4,-2.770628E4,3.9931042E3,4.198081E4,-1.3423078E4,3.7310043E2],"categories":[],"categories_nodes":[],"categories_segments":[],"categories_sizes":[],"default_left":[0,0,0,0,0,0,0,0,0,0,0,0,0,0,0,0,0,0,0,0,0,0,0,0,0,0,0,0,0,0,0,0,0,0,0,0,0,0,0,0,0,0,0,0,0,0,0,0,0],"id":5,"left_children":[1,3,5,7,9,11,13,15,17,19,21,23,25,27,29,-1,-1,31,33,35,-1,-1,37,39,-1,-1,-1,41,43,45,47,-1,-1,-1,-1,-1,-1,-1,-1,-1,-1,-1,-1,-1,-1,-1,-1,-1,-1],"loss_changes":[3.29387E13,3.6625984E12,1.6076699E12,9.2426836E11,6.3440526E11,1.3759034E12,1.5660593E12,3.7528535E10,9.007776E10,5.7910755E10,8.071466E10,1.1397104E11,1.4582022E10,7.879933E11,1.1359704E12,0E0,0E0,5.966994E10,4.1391993E10,9.022158E10,0E0,0E0,2.1928005E11,5.514354E10,0E0,0E0,0E0,1.00134067E12,1.7744842E11,5.2699474E11,2.1445004E11,0E0,0E0,0E0,0E0,0E0,0E0,0E0,0E0,0E0,0E0,0E0,0E0,0E0,0E0,0E0,0E0,0E0,0E0],"parents":[2147483647,0,0,1,1,2,2,3,3,4,4,5,5,6,6,7,7,8,8,9,9,10,10,11,11,12,12,13,13,14,14,17,17,18,18,19,19,22,22,23,23,27,27,28,28,29,29,30,30],"right_children":[2,4,6,8,10,12,14,16,18,20,22,24,26,28,30,-1,-1,32,34,36,-1,-1,38,40,-1,-1,-1,42,44,46,48,-1,-1,-1,-1,-1,-1,-1,-1,-1,-1,-1,-1,-1,-1,-1,-1,-1,-1],"split_conditions":[7E0,1E0,1E1,1.051E3,2E0,1E0,5.3E1,1E0,4.5E3,1E0,1E0,2.2E4,7.07E3,5.092E3,1.0029174E9,2.988663E4,4.1636902E4,1.8E3,1E0,1E0,3.5486902E4,3.0339635E4,8.63E2,1E0,-2.1163896E4,3.3417004E4,8.0814624E3,2E1,1E0,1E0,1E0,-2.259914E3,2.1448395E4,1.1364414E2,1.1004944E4,7.803996E4,2.9276547E4,3.4312312E4,6.929555E4,-4.277271E3,1.0099175E4,3.7037493E3,-1.9826473E4,-1.9398545E4,-2.770628E4,3.9931042E3,4.198081E4,-1.3423078E4,3.7310043E2],"split_indices":[1,41,1,2,1,41,1,35,2,33,19,2,2,2,0,0,0,2,45,32,0,0,2,44,0,0,0,1,42,31,40,0,0,0,0,0,0,0,0,0,0,0,0,0,0,0,0,0,0],"split_type":[0,0,0,0,0,0,0,0,0,0,0,0,0,0,0,0,0,0,0,0,0,0,0,0,0,0,0,0,0,0,0,0,0,0,0,0,0,0,0,0,0,0,0,0,0,0,0,0,0],"sum_hessian":[6.03E2,1.27E2,4.76E2,7E1,5.7E1,4.5E1,4.31E2,4.8E1,2.2E1,3.5E1,2.2E1,3.2E1,1.3E1,2.88E2,1.43E2,2.2E1,2.6E1,9E0,1.3E1,3.2E1,3E0,8E0,1.4E1,2.9E1,3E0,1.2E1,1E0,7.1E1,2.17E2,4.9E1,9.4E1,1E0,8E0,7E0,6E0,3E1,2E0,8E0,6E0,2.7E1,2E0,3.4E1,3.7E1,1.79E2,3.8E1,4.6E1,3E0,8.1E1,1.3E1],"tree_param":{"num_deleted":"0","num_feature":"46","num_nodes":"49","size_leaf_vector":"1"}},{"base_weights":[2.6245908E3,4.103483E5,-1.06791055E5,2.648488E5,5.813848E5,-6.252223E4,-1.7048995E5,3.342005E5,1.0558446E5,6.662207E5,4.2332062E5,6.585926E4,-1.04224016E5,-1.8940439E5,-5.5689977E4,2.4425074E4,3.6320178E5,1.4216481E5,1.6629733E3,9.505681E4,6.00972E5,2.7642778E5,4.8323494E5,-1.1082687E5,1.546807E5,7.525213E4,-1.3164652E5,-3.024163E4,-1.9827922E5,-7.070591E4,9.801671E4,3.687485E4,8.730716E3,2.1146217E4,5.7071377E3,-4.7051396E3,1.469746E4,6.891332E4,3.7001574E4,2.9149379E4,7.794997E3,3.1262328E4,6.3355926E4,-1.2472536E4,1.0441916E4,8.811383E3,4.6817996E4,2.33525E4,-3.4443782E3,-1.5594835E4,-2.2345786E3,3.131707E3,-1.8431764E4,-2.0129229E4,-3.1953289E3,-1.0861179E4,4.5952594E2,-4.626247E3,1.9328754E4],"categories":[],"categories_nodes":[],"categories_segments":[],"categories_sizes":[],"default_left":[0,0,0,0,0,0,0,0,0,0,0,0,0,0,0,0,0,0,0,0,0,0,0,0,0,0,0,0,0,0,0,0,0,0,0,0,0,0,0,0,0,0,0,0,0,0,0,0,0,0,0,0,0,0,0,0,0,0,0],"id":6,"left_children":[1,3,5,7,9,11,13,15,17,19,21,23,25,27,29,-1,31,33,35,-1,37,39,41,43,45,47,49,51,53,55,57,-1,-1,-1,-1,-1,-1,-1,-1,-1,-1,-1,-1,-1,-1,-1,-1,-1,-1,-1,-1,-1,-1,-1,-1,-1,-1,-1,-1],"loss_changes":[2.698908E13,3.0313934E12,1.3344215E12,7.48926E11,4.957269E11,1.5219716E12,4.128705E11,3.911241E10,8.719771E10,9.665459E10,6.884295E10,1.1156889E12,1.063147E12,2.2989819E11,7.386377E10,0E0,2.1366309E10,8.817633E10,5.646671E10,0E0,3.965746E11,4.1904374E9,1.8664102E11,8.482197E10,9.3957417E11,5.1153817E11,4.9056973E11,1.0061947E11,7.27502E10,7.756671E10,5.0178753E10,0E0,0E0,0E0,0E0,0E0,0E0,0E0,0E0,0E0,0E0,0E0,0E0,0E0,0E0,0E0,0E0,0E0,0E0,0E0,0E0,0E0,0E0,0E0,0E0,0E0,0E0,0E0,0E0],"parents":[2147483647,0,0,1,1,2,2,3,3,4,4,5,5,6,6,7,7,8,8,9,9,10,10,11,11,12,12,13,13,14,14,16,16,17,17,18,18,20,20,21,21,22,22,23,23,24,24,25,25,26,26,27,27,28,28,29,29,30,30],"right_children":[2,4,6,8,10,12,14,16,18,20,22,24,26,28,30,-1,32,34,36,-1,38,40,42,44,46,48,50,52,54,56,58,-1,-1,-1,-1,-1,-1,-1,-1,-1,-1,-1,-1,-1,-1,-1,-1,-1,-1,-1,-1,-1,-1,-1,-1,-1,-1,-1,-1],"split_conditions":[7E0,1E0,1E4,1.051E3,2E0,1E0,4.5E1,1.00251674E9,5E0,1E0,1E0,1E0,1.2E1,9E0,1E0,2.4425074E4,1E0,6.835E3,1E0,9.505681E4,1.0024589E9,1.4019981E9,8.63E2,1E0,5.7E1,1E0,6.5E1,2E4,1E0,1E0,1.0004519E9,3.687485E4,8.730716E3,2.1146217E4,5.7071377E3,-4.7051396E3,1.469746E4,6.891332E4,3.7001574E4,2.9149379E4,7.794997E3,3.1262328E4,6.3355926E4,-1.2472536E4,1.0441916E4,8.811383E3,4.6817996E4,2.33525E4,-3.4443782E3,-1.5594835E4,-2.2345786E3,3.131707E3,-1.8431764E4,-2.0129229E4,-3.1953289E3,-1.0861179E4,4.5952594E2,-4.626247E3,1.9328754E4],"split_indices":[1,41,2,2,1,37,1,0,1,34,19,41,1,1,15,0,28,2,32,0,0,0,2,43,1,40,1,2,29,41,0,0,0,0,0,0,0,0,0,0,0,0,0,0,0,0,0,0,0,0,0,0,0,0,0,0,0,0,0],"split_type":[0,0,0,0,0,0,0,0,0,0,0,0,0,0,0,0,0,0,0,0,0,0,0,0,0,0,0,0,0,0,0,0,0,0,0,0,0,0,0,0,0,0,0,0,0,0,0,0,0,0,0,0,0,0,0,0,0,0,0],"sum_hessian":[6.03E2,1.27E2,4.76E2,7E1,5.7E1,2.82E2,1.94E2,4.8E1,2.2E1,3.5E1,2.2E1,6.9E1,2.13E2,1.66E2,2.8E1,1.4E1,3.4E1,1.6E1,6E0,4E0,3.1E1,8E0,1.4E1,2.3E1,4.6E1,2.8E1,1.85E2,9E0,1.57E2,2.6E1,2E0,3.3E1,1E0,8E0,8E0,5E0,1E0,2.1E1,1E1,7E0,1E0,8E0,6E0,2.2E1,1E0,3.9E1,7E0,1.1E1,1.7E1,1.51E2,3.4E1,7E0,2E0,1.54E2,3E0,1.7E1,9E0,1E0,1E0],"tree_param":{"num_deleted":"0","num_feature":"46","num_nodes":"59","size_leaf_vector":"1"}},{"base_weights":[3.1249849E3,3.7274638E5,-9.606718E4,2.3986923E5,5.289797E5,5.3743445E4,-1.1179686E5,3.0220962E5,9.6628016E4,4.8718903E5,8.7452266E4,-4.1792047E4,2.7509544E5,-1.4667003E5,-3.8784367E4,3.320089E5,2.265869E4,1.2952796E5,2.9241428E3,5.8071425E5,3.7215588E5,-2.176887E4,-1.8151787E4,3.2414825E5,1.55667E4,-6.989907E4,-1.7101772E5,7.3511164E4,-9.5714164E4,1.5641727E4,3.4435418E4,1.9266555E4,5.1998374E3,-4.313046E3,1.3962588E4,4.6828293E4,8.5111055E4,3.2843188E4,7.544899E4,8.223409E3,-3.6370461E3,3.4680934E4,7.142988E3,4.176512E3,-1.6545506E4,-1.9534648E4,-1.37903125E4,2.2103895E4,6.2632886E2,-1.1385395E4,1.607414E3],"categories":[],"categories_nodes":[],"categories_segments":[],"categories_sizes":[],"default_left":[0,0,0,0,0,0,0,0,0,0,0,0,0,0,0,0,0,0,0,0,0,0,0,0,0,0,0,0,0,0,0,0,0,0,0,0,0,0,0,0,0,0,0,0,0,0,0,0,0,0,0],"id":7,"left_children":[1,3,5,7,9,11,13,15,17,19,-1,21,23,25,27,29,-1,31,33,35,37,39,-1,41,-1,43,45,47,49,-1,-1,-1,-1,-1,-1,-1,-1,-1,-1,-1,-1,-1,-1,-1,-1,-1,-1,-1,-1,-1,-1],"loss_changes":[2.2180589E13,2.5303733E12,1.1300462E12,6.048079E11,4.114885E11,9.8425746E11,1.09425983E12,3.519283E10,7.052686E10,3.6484258E11,0E0,8.837448E10,3.1557026E10,5.33851E11,9.084438E11,1.7671913E10,0E0,7.319719E10,5.0092335E10,4.526671E11,2.0356504E11,4.854915E10,0E0,2.6769293E10,0E0,7.7516335E11,1.5110714E11,4.7482018E11,1.924447E11,0E0,0E0,0E0,0E0,0E0,0E0,0E0,0E0,0E0,0E0,0E0,0E0,0E0,0E0,0E0,0E0,0E0,0E0,0E0,0E0,0E0,0E0],"parents":[2147483647,0,0,1,1,2,2,3,3,4,4,5,5,6,6,7,7,8,8,9,9,11,11,12,12,13,13,14,14,15,15,17,17,18,18,19,19,20,20,21,21,23,23,25,25,26,26,27,27,28,28],"right_children":[2,4,6,8,10,12,14,16,18,20,-1,22,24,26,28,30,-1,32,34,36,38,40,-1,42,-1,44,46,48,50,-1,-1,-1,-1,-1,-1,-1,-1,-1,-1,-1,-1,-1,-1,-1,-1,-1,-1,-1,-1,-1,-1],"split_conditions":[7E0,1E0,1E1,1.051E3,1E0,1E0,5.4E1,1E0,5E0,1.0024589E9,8.7452266E4,2.2E4,3.9E3,4.988E3,1.0029174E9,1.0008454E9,2.265869E4,6.835E3,1E0,1.0022776E9,2.2E3,1.001826E9,-1.8151787E4,1.00289664E9,1.55667E4,2E1,1E0,1E0,1E0,1.5641727E4,3.4435418E4,1.9266555E4,5.1998374E3,-4.313046E3,1.3962588E4,4.6828293E4,8.5111055E4,3.2843188E4,7.544899E4,8.223409E3,-3.6370461E3,3.4680934E4,7.142988E3,4.176512E3,-1.6545506E4,-1.9534648E4,-1.37903125E4,2.2103895E4,6.2632886E2,-1.1385395E4,1.607414E3],"split_indices":[1,41,1,2,36,41,1,34,1,0,0,2,2,2,0,0,0,2,32,0,2,0,0,0,0,1,41,37,40,0,0,0,0,0,0,0,0,0,0,0,0,0,0,0,0,0,0,0,0,0,0],"split_type":[0,0,0,0,0,0,0,0,0,0,0,0,0,0,0,0,0,0,0,0,0,0,0,0,0,0,0,0,0,0,0,0,0,0,0,0,0,0,0,0,0,0,0,0,0,0,0,0,0,0,0],"sum_hessian":[6.03E2,1.27E2,4.76E2,7E1,5.7E1,4.5E1,4.31E2,4.8E1,2.2E1,5.3E1,4E0,3.2E1,1.3E1,2.91E2,1.4E2,3.2E1,1.6E1,1.6E1,6E0,2.7E1,2.6E1,2.9E1,3E0,8E0,5E0,7.1E1,2.2E2,4.7E1,9.3E1,3E0,2.9E1,8E0,8E0,5E0,1E0,2.1E1,6E0,2.5E1,1E0,3E0,2.6E1,7E0,1E0,3.3E1,3.8E1,1.24E2,9.6E1,1.4E1,3.3E1,8E1,1.3E1],"tree_param":{"num_deleted":"0","num_feature":"46","num_nodes":"51","size_leaf_vector":"1"}},{"base_weights":[3.5502698E3,3.3886653E5,-8.643722E4,2.1738727E5,4.8173144E5,-4.953169E4,-1.3955428E5,2.7347306E5,8.844852E4,5.607432E5,3.4643375E5,5.9787836E4,-8.505896E4,-1.5370317E5,-4.5824035E4,2.8160203E5,1.1162151E4,1.18014375E5,4.010241E3,5.877948E5,2.041445E4,2.4780452E5,4.4046788E5,-9.519601E4,1.3765644E5,6.281065E4,-1.0765659E5,-6.2360355E4,-1.6485753E5,-2.1124994E4,-1.5027483E4,2.057901E4,3.0230654E4,1.7553973E4,4.737632E3,-3.953625E3,1.326446E4,5.9937715E4,1.1437237E4,2.8551275E4,1.2282715E4,5.6588074E4,1.767963E4,-1.0845592E4,1.0489091E4,7.9334424E3,4.120595E4,1.94078E4,-2.8190398E3,-1.2900664E4,-1.1860472E3,-3.3477546E3,-2.1487043E4,-1.6769914E4,-1.9214047E3,-5.35001E3,7.9521157E3],"categories":[],"categories_nodes":[],"categories_segments":[],"categories_sizes":[],"default_left":[0,0,0,0,0,0,0,0,0,0,0,0,0,0,0,0,0,0,0,0,0,0,0,0,0,0,0,0,0,0,0,0,0,0,0,0,0,0,0,0,0,0,0,0,0,0,0,0,0,0,0,0,0,0,0,0,0],"id":8,"left_children":[1,3,5,7,9,11,13,15,17,19,21,23,25,27,29,31,-1,33,35,37,-1,39,41,43,45,47,49,51,53,55,-1,-1,-1,-1,-1,-1,-1,-1,-1,-1,-1,-1,-1,-1,-1,-1,-1,-1,-1,-1,-1,-1,-1,-1,-1,-1,-1],"loss_changes":[1.825455E13,2.1167342E12,9.281573E11,4.892577E11,4.2576694E11,1.1042078E12,2.5156151E11,3.303565E10,5.6946E10,2.1763405E11,1.1343836E11,8.578907E11,7.218438E11,1.6190852E11,6.648099E10,9.992405E9,0E0,6.076275E10,4.4455293E10,1.0691386E11,0E0,3.0908678E10,2.6370048E11,7.505122E10,7.1948534E11,3.5188965E11,3.788868E11,8.090505E10,5.8857095E10,7.919827E10,0E0,0E0,0E0,0E0,0E0,0E0,0E0,0E0,0E0,0E0,0E0,0E0,0E0,0E0,0E0,0E0,0E0,0E0,0E0,0E0,0E0,0E0,0E0,0E0,0E0,0E0,0E0],"parents":[2147483647,0,0,1,1,2,2,3,3,4,4,5,5,6,6,7,7,8,8,9,9,10,10,11,11,12,12,13,13,14,14,15,15,17,17,18,18,19,19,21,21,22,22,23,23,24,24,25,25,26,26,27,27,28,28,29,29],"right_children":[2,4,6,8,10,12,14,16,18,20,22,24,26,28,30,32,-1,34,36,38,-1,40,42,44,46,48,50,52,54,56,-1,-1,-1,-1,-1,-1,-1,-1,-1,-1,-1,-1,-1,-1,-1,-1,-1,-1,-1,-1,-1,-1,-1,-1,-1,-1,-1],"split_conditions":[7E0,1E0,1E4,1.051E3,2E2,1E0,5.4E1,1E0,5E0,1.0026571E9,1.0027293E9,1E0,1.2E1,1.1E1,1E0,1.00251674E9,1.1162151E4,6.835E3,1E0,1E0,2.041445E4,1.051E3,1.0028868E9,1E0,5.7E1,1E0,6.5E1,1E0,1E0,1E0,-1.5027483E4,2.057901E4,3.0230654E4,1.7553973E4,4.737632E3,-3.953625E3,1.326446E4,5.9937715E4,1.1437237E4,2.8551275E4,1.2282715E4,5.6588074E4,1.767963E4,-1.0845592E4,1.0489091E4,7.9334424E3,4.120595E4,1.94078E4,-2.8190398E3,-1.2900664E4,-1.1860472E3,-3.3477546E3,-2.1487043E4,-1.6769914E4,-1.9214047E3,-5.35001E3,7.9521157E3],"split_indices":[1,41,2,2,2,37,1,28,1,0,0,41,1,1,6,0,0,2,32,12,0,2,0,43,1,40,1,27,29,41,0,0,0,0,0,0,0,0,0,0,0,0,0,0,0,0,0,0,0,0,0,0,0,0,0,0,0],"split_type":[0,0,0,0,0,0,0,0,0,0,0,0,0,0,0,0,0,0,0,0,0,0,0,0,0,0,0,0,0,0,0,0,0,0,0,0,0,0,0,0,0,0,0,0,0,0,0,0,0,0,0,0,0,0,0,0,0],"sum_hessian":[6.03E2,1.27E2,4.76E2,7E1,5.7E1,2.82E2,1.94E2,4.8E1,2.2E1,3.4E1,2.3E1,6.9E1,2.13E2,1.68E2,2.6E1,4.5E1,3E0,1.6E1,6E0,3.1E1,3E0,1.3E1,1E1,2.3E1,4.6E1,2.8E1,1.85E2,1.9E1,1.49E2,2.2E1,4E0,1.2E1,3.3E1,8E0,8E0,5E0,1E0,3E1,1E0,9E0,4E0,6E0,4E0,2.2E1,1E0,3.9E1,7E0,1.1E1,1.7E1,1.51E2,3.4E1,1.7E1,2E0,1.46E2,3E0,1.7E1,5E0],"tree_param":{"num_deleted":"0","num_feature":"46","num_nodes":"57","size_leaf_vector":"1"}},{"base_weights":[3.684973E3,3.0732728E5,-7.780329E4,1.969665E5,4.3712534E5,-3.5070008E4,-1.18466336E5,2.473905E5,8.097768E4,3.9938644E5,7.5728055E4,6.224507E4,-8.227375E4,-8.755206E4,-1.5595144E5,2.7305825E5,1.8301246E4,1.1295133E5,6.9081836E3,4.8141962E5,2.9952294E5,-3.0836098E4,1.3656125E5,-1.0544653E5,7.392236E4,-8.1759536E3,-1.0279854E5,-1.5960319E5,1.192188E4,2.1454271E4,3.2182213E4,1.6949348E4,5.01415E3,-2.810847E3,1.2601237E4,3.764473E4,7.4255836E4,2.5808371E4,6.884714E4,-6.1466655E3,2.2191738E4,2.2497996E4,4.1935225E3,-8.701209E3,-1.8938467E4,3.48041E4,8.900304E2,1.4810589E4,-5.9815684E3,-1.6994904E4,-8.000529E3,-4.421443E3,-1.6361608E4],"categories":[],"categories_nodes":[],"categories_segments":[],"categories_sizes":[],"default_left":[0,0,0,0,0,0,0,0,0,0,0,0,0,0,0,0,0,0,0,0,0,0,0,0,0,0,0,0,0,0,0,0,0,0,0,0,0,0,0,0,0,0,0,0,0,0,0,0,0,0,0,0,0],"id":9,"left_children":[1,3,5,7,9,11,13,15,17,19,-1,21,23,25,27,29,-1,31,33,35,37,39,41,43,45,47,49,51,-1,-1,-1,-1,-1,-1,-1,-1,-1,-1,-1,-1,-1,-1,-1,-1,-1,-1,-1,-1,-1,-1,-1,-1,-1],"loss_changes":[1.4968854E13,1.7474519E12,8.2471184E11,3.9521904E11,3.983257E11,1.0800319E12,2.6909947E11,3.0996693E10,5.3689975E10,2.9817884E11,0E0,5.368537E11,5.7967575E11,1.6374753E11,1.2855673E11,2.51189E10,0E0,4.8323772E10,3.6907057E10,4.8801146E11,2.574954E11,2.846098E11,3.5033396E11,1.9705587E11,3.712012E11,1.9447718E11,1.6088891E11,4.277456E10,0E0,0E0,0E0,0E0,0E0,0E0,0E0,0E0,0E0,0E0,0E0,0E0,0E0,0E0,0E0,0E0,0E0,0E0,0E0,0E0,0E0,0E0,0E0,0E0,0E0],"parents":[2147483647,0,0,1,1,2,2,3,3,4,4,5,5,6,6,7,7,8,8,9,9,11,11,12,12,13,13,14,14,15,15,17,17,18,18,19,19,20,20,21,21,22,22,23,23,24,24,25,25,26,26,27,27],"right_children":[2,4,6,8,10,12,14,16,18,20,-1,22,24,26,28,30,-1,32,34,36,38,40,42,44,46,48,50,52,-1,-1,-1,-1,-1,-1,-1,-1,-1,-1,-1,-1,-1,-1,-1,-1,-1,-1,-1,-1,-1,-1,-1,-1,-1],"split_conditions":[7E0,1E0,1.4019767E9,1.051E3,1E0,4.835E3,7.95E3,1E0,1E0,1.0024589E9,7.5728055E4,1E0,5.8E1,1.8E1,6.8E1,1E0,1.8301246E4,6.835E3,1E0,1.0022776E9,2.2E3,6.6E1,1E0,1E0,1E0,1E0,5.2E1,9E0,1.192188E4,2.1454271E4,3.2182213E4,1.6949348E4,5.01415E3,-2.810847E3,1.2601237E4,3.764473E4,7.4255836E4,2.5808371E4,6.884714E4,-6.1466655E3,2.2191738E4,2.2497996E4,4.1935225E3,-8.701209E3,-1.8938467E4,3.48041E4,8.900304E2,1.4810589E4,-5.9815684E3,-1.6994904E4,-8.000529E3,-4.421443E3,-1.6361608E4],"split_indices":[1,41,0,2,36,2,2,34,40,0,0,41,1,1,1,2,0,2,32,0,2,1,37,42,37,40,1,1,0,0,0,0,0,0,0,0,0,0,0,0,0,0,0,0,0,0,0,0,0,0,0,0,0],"split_type":[0,0,0,0,0,0,0,0,0,0,0,0,0,0,0,0,0,0,0,0,0,0,0,0,0,0,0,0,0,0,0,0,0,0,0,0,0,0,0,0,0,0,0,0,0,0,0,0,0,0,0,0,0],"sum_hessian":[6.03E2,1.27E2,4.76E2,7E1,5.7E1,2.33E2,2.43E2,4.8E1,2.2E1,5.3E1,4E0,7.6E1,1.57E2,1.35E2,1.08E2,3.2E1,1.6E1,1.5E1,7E0,2.7E1,2.6E1,3.4E1,4.2E1,1.37E2,2E1,2.2E1,1.13E2,1.07E2,1E0,1.7E1,1.5E1,7E0,8E0,6E0,1E0,2.1E1,6E0,2.5E1,1E0,3.1E1,3E0,2.1E1,2.1E1,1.14E2,2.3E1,3E0,1.7E1,5E0,1.7E1,2.7E1,8.6E1,4E0,1.03E2],"tree_param":{"num_deleted":"0","num_feature":"46","num_nodes":"53","size_leaf_vector":"1"}},{"base_weights":[3.9981633E3,2.7961E5,-6.9968945E4,1.787303E5,3.9827978E5,5.0934977E4,-8.268101E4,2.2411958E5,7.426052E4,3.632729E5,6.966981E4,-2.7055096E4,2.311305E5,-1.09953086E5,-2.7373299E4,2.4737781E5,1.6578775E4,1.03028914E5,7.441172E3,4.3727406E5,2.7307638E5,-9.295628E3,-1.5348734E4,2.7312484E5,1.2961723E4,-6.702093E4,-1.4463333E5,7.207238E4,-6.2434633E4,1.9428037E4,2.916513E4,1.5466276E4,4.56845E3,4.939724E3,-7.8951353E3,3.4051367E4,6.7891055E4,2.3326795E4,6.540478E4,6.8269487E3,-2.753943E3,2.9325104E4,5.605772E3,-1.2150982E4,4.731702E3,-1.7008693E4,-1.2569526E4,-2.0676375E3,2.008942E4,-7.243819E3,2.1326639E4],"categories":[],"categories_nodes":[],"categories_segments":[],"categories_sizes":[],"default_left":[0,0,0,0,0,0,0,0,0,0,0,0,0,0,0,0,0,0,0,0,0,0,0,0,0,0,0,0,0,0,0,0,0,0,0,0,0,0,0,0,0,0,0,0,0,0,0,0,0,0,0],"id":10,"left_children":[1,3,5,7,9,11,13,15,17,19,-1,21,23,25,27,29,-1,31,33,35,37,39,-1,41,-1,43,45,47,49,-1,-1,-1,-1,-1,-1,-1,-1,-1,-1,-1,-1,-1,-1,-1,-1,-1,-1,-1,-1,-1,-1],"loss_changes":[1.2332835E13,1.4611508E12,7.3733086E11,3.2002513E11,3.5281646E11,6.527125E11,6.486001E11,2.5465717E10,4.3445903E10,2.4102201E11,0E0,7.267043E10,2.428004E10,4.2059773E11,5.065844E11,2.0914504E10,0E0,4.0308916E10,3.2897505E10,4.2348524E11,2.569103E11,4.433258E10,0E0,2.2879666E10,0E0,8.218989E11,5.526546E10,4.581802E11,3.105535E11,0E0,0E0,0E0,0E0,0E0,0E0,0E0,0E0,0E0,0E0,0E0,0E0,0E0,0E0,0E0,0E0,0E0,0E0,0E0,0E0,0E0,0E0],"parents":[2147483647,0,0,1,1,2,2,3,3,4,4,5,5,6,6,7,7,8,8,9,9,11,11,12,12,13,13,14,14,15,15,17,17,18,18,19,19,20,20,21,21,23,23,25,25,26,26,27,27,28,28],"right_children":[2,4,6,8,10,12,14,16,18,20,-1,22,24,26,28,30,-1,32,34,36,38,40,-1,42,-1,44,46,48,50,-1,-1,-1,-1,-1,-1,-1,-1,-1,-1,-1,-1,-1,-1,-1,-1,-1,-1,-1,-1,-1,-1],"split_conditions":[7E0,1E0,1E1,1.051E3,1E0,1E0,5.3E1,1E0,1E0,1.0024589E9,6.966981E4,2.2E4,3.9E3,2.4E1,1.0028489E9,1E0,1.6578775E4,6.835E3,1E0,1.0022776E9,2.2E3,2.218E3,-1.5348734E4,1.00289664E9,1.2961723E4,1E0,1E0,1.00274726E9,1E0,1.9428037E4,2.916513E4,1.5466276E4,4.56845E3,4.939724E3,-7.8951353E3,3.4051367E4,6.7891055E4,2.3326795E4,6.540478E4,6.8269487E3,-2.753943E3,2.9325104E4,5.605772E3,-1.2150982E4,4.731702E3,-1.7008693E4,-1.2569526E4,-2.0676375E3,2.008942E4,-7.243819E3,2.1326639E4],"split_indices":[1,41,1,2,36,41,1,34,40,0,0,2,2,1,0,2,0,2,33,0,2,2,0,0,0,41,41,0,19,0,0,0,0,0,0,0,0,0,0,0,0,0,0,0,0,0,0,0,0,0,0],"split_type":[0,0,0,0,0,0,0,0,0,0,0,0,0,0,0,0,0,0,0,0,0,0,0,0,0,0,0,0,0,0,0,0,0,0,0,0,0,0,0,0,0,0,0,0,0,0,0,0,0,0,0],"sum_hessian":[6.03E2,1.27E2,4.76E2,7E1,5.7E1,4.5E1,4.31E2,4.8E1,2.2E1,5.3E1,4E0,3.2E1,1.3E1,2.88E2,1.43E2,3.2E1,1.6E1,1.5E1,7E0,2.7E1,2.6E1,2.9E1,3E0,8E0,5E0,1.3E2,1.58E2,3.7E1,1.06E2,1.7E1,1.5E1,7E0,8E0,5E0,2E0,2.1E1,6E0,2.5E1,1E0,5E0,2.4E1,7E0,1E0,8.8E1,4.2E1,6.4E1,9.4E1,2.2E1,1.5E1,1.03E2,3E0],"tree_param":{"num_deleted":"0","num_feature":"46","num_nodes":"51","size_leaf_vector":"1"}},{"base_weights":[4.21808E3,2.5432552E5,-6.2905547E4,1.6201575E5,3.629405E5,4.663749E4,-7.4424234E4,2.0303766E5,6.7577055E4,4.3302303E5,2.4561428E5,-2.469128E4,2.1143833E5,-9.878607E4,-2.3444959E4,1.4389725E5,2.2258247E5,9.251694E4,-2.6450803E3,3.1702084E5,5.1402378E5,1.5232673E5,3.4201534E5,-8.230301E3,-1.419758E4,2.4969356E5,1.1881577E4,-5.6555223E4,-1.2669723E5,7.6302125E4,-5.710015E4,1.678156E4,6.249745E3,1.6763285E4,2.5541307E4,1.4848088E4,3.8494082E3,-4.2166553E3,1.17241875E4,2.0746998E4,5.3844895E4,7.991376E4,3.2096068E4,1.7704475E4,2.679125E2,4.493495E4,1.2334448E4,-2.00108E3,1.0446444E4,2.6759156E4,5.3254844E3,-1.0672498E4,7.053254E3,-1.5421102E4,-1.0777062E4,-1.5915613E3,2.06468E4,-6.642429E3,1.972714E4],"categories":[],"categories_nodes":[],"categories_segments":[],"categories_sizes":[],"default_left":[0,0,0,0,0,0,0,0,0,0,0,0,0,0,0,0,0,0,0,0,0,0,0,0,0,0,0,0,0,0,0,0,0,0,0,0,0,0,0,0,0,0,0,0,0,0,0,0,0,0,0,0,0,0,0,0,0,0,0],"id":11,"left_children":[1,3,5,7,9,11,13,15,17,19,21,23,25,27,29,31,33,35,37,39,41,43,45,47,-1,49,-1,51,53,55,57,-1,-1,-1,-1,-1,-1,-1,-1,-1,-1,-1,-1,-1,-1,-1,-1,-1,-1,-1,-1,-1,-1,-1,-1,-1,-1,-1,-1],"loss_changes":[1.0156022E13,1.2245548E12,6.0534594E11,2.6133725E11,3.7054998E11,5.4595256E11,5.3420543E11,2.4609423E10,4.052534E10,1.6591303E11,1.6373436E11,6.254188E10,1.9938607E10,3.3701888E11,4.7769485E11,1.8716197E10,2.0325466E10,4.5681017E10,3.8110446E10,3.006679E11,7.893628E11,5.1311542E10,2.0275462E11,4.191842E10,0E0,1.7392206E10,0E0,7.59891E11,7.45105E10,4.3541574E11,2.6451391E11,0E0,0E0,0E0,0E0,0E0,0E0,0E0,0E0,0E0,0E0,0E0,0E0,0E0,0E0,0E0,0E0,0E0,0E0,0E0,0E0,0E0,0E0,0E0,0E0,0E0,0E0,0E0,0E0],"parents":[2147483647,0,0,1,1,2,2,3,3,4,4,5,5,6,6,7,7,8,8,9,9,10,10,11,11,12,12,13,13,14,14,15,15,16,16,17,17,18,18,19,19,20,20,21,21,22,22,23,23,25,25,27,27,28,28,29,29,30,30],"right_children":[2,4,6,8,10,12,14,16,18,20,22,24,26,28,30,32,34,36,38,40,42,44,46,48,-1,50,-1,52,54,56,58,-1,-1,-1,-1,-1,-1,-1,-1,-1,-1,-1,-1,-1,-1,-1,-1,-1,-1,-1,-1,-1,-1,-1,-1,-1,-1,-1,-1],"split_conditions":[7E0,1E0,1E1,1.051E3,2E2,1E0,5.4E1,1.00251674E9,5E0,1E0,1.0027293E9,2.2E4,3.9E3,2E1,1.0028489E9,1.00235366E9,1E0,1.00253395E9,1E0,1.0022776E9,1.0024589E9,1E0,1.0028868E9,1E0,-1.419758E4,1.00289664E9,1.1881577E4,1E0,1E0,1.00274726E9,1E0,1.678156E4,6.249745E3,1.6763285E4,2.5541307E4,1.4848088E4,3.8494082E3,-4.2166553E3,1.17241875E4,2.0746998E4,5.3844895E4,7.991376E4,3.2096068E4,1.7704475E4,2.679125E2,4.493495E4,1.2334448E4,-2.00108E3,1.0446444E4,2.6759156E4,5.3254844E3,-1.0672498E4,7.053254E3,-1.5421102E4,-1.0777062E4,-1.5915613E3,2.06468E4,-6.642429E3,1.972714E4],"split_indices":[1,41,1,2,2,41,1,0,1,2,0,2,2,1,0,0,24,0,32,0,0,7,0,44,0,0,0,41,41,0,19,0,0,0,0,0,0,0,0,0,0,0,0,0,0,0,0,0,0,0,0,0,0,0,0,0,0,0,0],"split_type":[0,0,0,0,0,0,0,0,0,0,0,0,0,0,0,0,0,0,0,0,0,0,0,0,0,0,0,0,0,0,0,0,0,0,0,0,0,0,0,0,0,0,0,0,0,0,0,0,0,0,0,0,0,0,0,0,0,0,0],"sum_hessian":[6.03E2,1.27E2,4.76E2,7E1,5.7E1,4.5E1,4.31E2,4.8E1,2.2E1,3.4E1,2.3E1,3.2E1,1.3E1,2.91E2,1.4E2,1.4E1,3.4E1,1.6E1,6E0,1.6E1,1.8E1,1.3E1,1E1,2.9E1,3E0,8E0,5E0,1.17E2,1.74E2,3.5E1,1.05E2,1E1,4E0,1.5E1,1.9E1,7E0,9E0,5E0,1E0,1.2E1,4E0,6E0,1.2E1,1.1E1,2E0,6E0,4E0,2.7E1,2E0,7E0,1E0,8.4E1,3.3E1,6.8E1,1.06E2,2.1E1,1.4E1,1.02E2,3E0],"tree_param":{"num_deleted":"0","num_feature":"46","num_nodes":"59","size_leaf_vector":"1"}},{"base_weights":[4.448458E3,2.3165377E5,-5.6530008E4,1.4710347E5,3.3116097E5,-2.322432E4,-8.823903E4,1.7306533E5,2.903981E4,2.998438E5,6.0315414E4,5.4569918E4,-6.098971E4,-6.347945E4,-1.1832219E5,1.779767E5,-5.344172E3,4.616312E4,-4.9133374E3,3.6636656E5,2.1975192E5,-1.7389889E4,1.1187278E5,-7.886052E4,5.9351324E4,2.789875E3,-7.6292734E4,-1.216437E5,1.2020099E4,1.8492654E4,-8.762542E2,5.9199033E3,-1.2677615E3,4.436434E4,1.5393289E4,1.8213639E4,5.9887793E4,-4.4274272E3,2.0203264E4,1.2890723E4,-3.0178688E4,-6.3461265E3,-1.4936278E4,3.1358344E4,-4.419948E1,1.5113838E4,-3.6396042E3,-1.274799E4,-5.894178E3,-3.1914995E3,-1.2478794E4],"categories":[],"categories_nodes":[],"categories_segments":[],"categories_sizes":[],"default_left":[0,0,0,0,0,0,0,0,0,0,0,0,0,0,0,0,0,0,0,0,0,0,0,0,0,0,0,0,0,0,0,0,0,0,0,0,0,0,0,0,0,0,0,0,0,0,0,0,0,0,0],"id":12,"left_children":[1,3,5,7,9,11,13,15,17,19,-1,21,23,25,27,29,-1,31,-1,33,35,37,39,41,43,45,47,49,-1,-1,-1,-1,-1,-1,-1,-1,-1,-1,-1,-1,-1,-1,-1,-1,-1,-1,-1,-1,-1,-1,-1],"loss_changes":[8.381293E12,1.02819535E12,5.0170613E11,2.1259996E11,3.131955E11,6.908038E11,1.7423152E11,7.4034184E10,2.1008327E10,2.0719862E11,0E0,3.194552E11,3.4447406E11,1.1569424E11,1.00978E11,7.559538E10,0E0,9.955011E9,0E0,3.9136238E11,2.7597026E11,2.1541118E11,3.4190033E11,1.4034534E11,3.193676E11,1.392038E11,9.3734765E10,2.648703E10,0E0,0E0,0E0,0E0,0E0,0E0,0E0,0E0,0E0,0E0,0E0,0E0,0E0,0E0,0E0,0E0,0E0,0E0,0E0,0E0,0E0,0E0,0E0],"parents":[2147483647,0,0,1,1,2,2,3,3,4,4,5,5,6,6,7,7,8,8,9,9,11,11,12,12,13,13,14,14,15,15,17,17,19,19,20,20,21,21,22,22,23,23,24,24,25,25,26,26,27,27],"right_children":[2,4,6,8,10,12,14,16,18,20,-1,22,24,26,28,30,-1,32,-1,34,36,38,40,42,44,46,48,50,-1,-1,-1,-1,-1,-1,-1,-1,-1,-1,-1,-1,-1,-1,-1,-1,-1,-1,-1,-1,-1,-1,-1],"split_conditions":[7E0,1E0,1.4019767E9,4.5E3,1E0,4.835E3,7.95E3,1E0,1E0,1.0024589E9,6.0315414E4,1E0,5.8E1,1.8E1,6.8E1,1E0,-5.344172E3,1E0,-4.9133374E3,2E2,2.2E3,6.6E1,1E0,1E0,1E0,3.129E3,5.2E1,9E0,1.2020099E4,1.8492654E4,-8.762542E2,5.9199033E3,-1.2677615E3,4.436434E4,1.5393289E4,1.8213639E4,5.9887793E4,-4.4274272E3,2.0203264E4,1.2890723E4,-3.0178688E4,-6.3461265E3,-1.4936278E4,3.1358344E4,-4.419948E1,1.5113838E4,-3.6396042E3,-1.274799E4,-5.894178E3,-3.1914995E3,-1.2478794E4],"split_indices":[1,41,0,2,36,2,2,23,4,0,0,41,1,1,1,33,0,40,0,2,2,1,27,42,37,2,1,1,0,0,0,0,0,0,0,0,0,0,0,0,0,0,0,0,0,0,0,0,0,0,0],"split_type":[0,0,0,0,0,0,0,0,0,0,0,0,0,0,0,0,0,0,0,0,0,0,0,0,0,0,0,0,0,0,0,0,0,0,0,0,0,0,0,0,0,0,0,0,0,0,0,0,0,0,0],"sum_hessian":[6.03E2,1.27E2,4.76E2,7E1,5.7E1,2.33E2,2.43E2,5.7E1,1.3E1,5.3E1,4E0,7.6E1,1.57E2,1.35E2,1.08E2,5.6E1,1E0,1.1E1,2E0,2.7E1,2.6E1,3.4E1,4.2E1,1.37E2,2E1,2.2E1,1.13E2,1.07E2,1E0,5.4E1,2E0,9E0,2E0,1.9E1,8E0,2.5E1,1E0,3.1E1,3E0,4.1E1,1E0,1.14E2,2.3E1,3E0,1.7E1,4E0,1.8E1,2.7E1,8.6E1,4E0,1.03E2],"tree_param":{"num_deleted":"0","num_feature":"46","num_nodes":"51","size_leaf_vector":"1"}},{"base_weights":[4.3477993E3,2.1013048E5,-5.088183E4,1.3256231E5,3.014617E5,4.366467E4,-6.0831496E4,1.710668E5,6.347846E4,2.7241238E5,5.5490184E4,-1.8368955E4,1.8676789E5,-8.129349E4,-1.802487E4,1.9647914E5,1.12726984E5,1.0161692E5,1.4589582E4,3.318641E5,2.0066939E5,-3.4293833E3,-1.2582351E4,2.1683072E5,1.1054568E4,2.9126725E4,-8.357469E4,8.05684E4,-4.3168055E4,2.1033662E4,1.2089928E4,5.8264043E3,1.3218614E4,1.1612808E4,-5.0769624E3,2.9748914E3,-4.5857827E3,2.4316912E4,5.6321062E4,1.6462328E4,5.6893406E4,8.965122E3,-1.7092089E3,2.3289787E4,4.414672E3,-5.249272E3,-1.0800112E4,-3.6877974E3,1.7829844E4,6.142816E3,-6.6322383E3],"categories":[],"categories_nodes":[],"categories_segments":[],"categories_sizes":[],"default_left":[0,0,0,0,0,0,0,0,0,0,0,0,0,0,0,0,0,0,0,0,0,0,0,0,0,0,0,0,0,0,0,0,0,0,0,0,0,0,0,0,0,0,0,0,0,0,0,0,0,0,0],"id":13,"left_children":[1,3,5,7,9,11,13,15,17,19,-1,21,23,25,27,29,31,33,35,37,39,41,-1,43,-1,-1,45,47,49,-1,-1,-1,-1,-1,-1,-1,-1,-1,-1,-1,-1,-1,-1,-1,-1,-1,-1,-1,-1,-1,-1],"loss_changes":[6.8753335E12,8.668405E11,4.5137317E11,1.7800364E11,2.7584836E11,4.1178248E11,3.7692742E11,4.4566315E10,4.88602E10,1.6372859E11,0E0,5.2544225E10,8.11067E9,2.7250878E11,3.5300973E11,5.990908E9,9.255141E9,3.9065354E10,1.3276668E10,4.3758387E11,2.6475194E11,3.968431E10,0E0,1.4689174E10,0E0,0E0,2.1526413E11,3.394384E11,2.7774367E11,0E0,0E0,0E0,0E0,0E0,0E0,0E0,0E0,0E0,0E0,0E0,0E0,0E0,0E0,0E0,0E0,0E0,0E0,0E0,0E0,0E0,0E0],"parents":[2147483647,0,0,1,1,2,2,3,3,4,4,5,5,6,6,7,7,8,8,9,9,11,11,12,12,13,13,14,14,15,15,16,16,17,17,18,18,19,19,20,20,21,21,23,23,26,26,27,27,28,28],"right_children":[2,4,6,8,10,12,14,16,18,20,-1,22,24,26,28,30,32,34,36,38,40,42,-1,44,-1,-1,46,48,50,-1,-1,-1,-1,-1,-1,-1,-1,-1,-1,-1,-1,-1,-1,-1,-1,-1,-1,-1,-1,-1,-1],"split_conditions":[7E0,1E0,1E1,2E0,1E0,1E0,5.4E1,1E0,4.5E3,1.0024589E9,5.5490184E4,2.2E4,3.9E3,1.0005777E9,1E0,1.00283654E9,1E0,1E0,1E0,1.0022776E9,2.2E3,1.001826E9,-1.2582351E4,1.00289664E9,1.1054568E4,2.9126725E4,2.4E1,5.8E1,1.0027868E9,2.1033662E4,1.2089928E4,5.8264043E3,1.3218614E4,1.1612808E4,-5.0769624E3,2.9748914E3,-4.5857827E3,2.4316912E4,5.6321062E4,1.6462328E4,5.6893406E4,8.965122E3,-1.7092089E3,2.3289787E4,4.414672E3,-5.249272E3,-1.0800112E4,-3.6877974E3,1.7829844E4,6.142816E3,-6.6322383E3],"split_indices":[1,41,1,1,36,41,1,34,2,0,0,2,2,0,37,0,24,23,4,0,2,0,0,0,0,0,1,1,0,0,0,0,0,0,0,0,0,0,0,0,0,0,0,0,0,0,0,0,0,0,0],"split_type":[0,0,0,0,0,0,0,0,0,0,0,0,0,0,0,0,0,0,0,0,0,0,0,0,0,0,0,0,0,0,0,0,0,0,0,0,0,0,0,0,0,0,0,0,0,0,0,0,0,0,0],"sum_hessian":[6.03E2,1.27E2,4.76E2,7E1,5.7E1,4.5E1,4.31E2,4.4E1,2.6E1,5.3E1,4E0,3.2E1,1.3E1,2.91E2,1.4E2,2.9E1,1.5E1,1.4E1,1.2E1,2.7E1,2.6E1,2.9E1,3E0,8E0,5E0,1E0,2.9E2,2.8E1,1.12E2,2.3E1,6E0,5E0,1E1,1.3E1,1E0,1E1,2E0,2.1E1,6E0,2.5E1,1E0,3E0,2.6E1,7E0,1E0,1.29E2,1.61E2,1.3E1,1.5E1,2E1,9.2E1],"tree_param":{"num_deleted":"0","num_feature":"46","num_nodes":"51","size_leaf_vector":"1"}},{"base_weights":[4.453984E3,1.9120008E5,-4.566751E4,1.2011022E5,2.749273E5,4.0025004E4,-5.468647E4,1.5511942E5,5.7313023E4,3.3320978E5,1.7847675E5,-1.669346E4,1.708596E5,-7.311935E4,-1.6125547E4,1.7793534E5,1.0264461E5,9.189095E4,1.3006719E4,2.2530075E5,4.122226E5,9.644398E4,2.6665697E5,-2.844574E3,-1.1638675E4,1.7828184E5,3.7185125E3,2.7670389E4,-7.527237E4,4.784367E4,-4.861913E4,1.3723218E4,2.0497361E4,5.340873E3,1.2016921E4,1.0534476E4,-4.8231157E3,2.7044475E3,-4.2800625E3,1.2492081E4,4.4122844E4,6.604664E4,2.4684342E4,1.2117821E4,-3.4640957E3,3.5779227E4,8.573615E3,-1.4069584E3,1.0287038E4,2.1736104E4,1.1373384E4,-9.887357E3,-4.875254E3,2.3414617E3,3.1070963E4,-6.5200464E3,5.0788516E3],"categories":[],"categories_nodes":[],"categories_segments":[],"categories_sizes":[],"default_left":[0,0,0,0,0,0,0,0,0,0,0,0,0,0,0,0,0,0,0,0,0,0,0,0,0,0,0,0,0,0,0,0,0,0,0,0,0,0,0,0,0,0,0,0,0,0,0,0,0,0,0,0,0,0,0,0,0],"id":14,"left_children":[1,3,5,7,9,11,13,15,17,19,21,23,25,27,29,31,33,35,37,39,41,43,45,47,-1,49,-1,-1,51,53,55,-1,-1,-1,-1,-1,-1,-1,-1,-1,-1,-1,-1,-1,-1,-1,-1,-1,-1,-1,-1,-1,-1,-1,-1,-1,-1],"loss_changes":[5.662168E12,7.288547E11,3.708415E11,1.4720172E11,2.6656978E11,3.4420615E11,3.058818E11,3.561272E10,4.016934E10,2.0554292E11,1.4789063E11,4.5230084E10,7.2608973E9,2.4075515E11,2.954072E11,4.8874127E9,7.3873326E9,3.3358529E10,1.1341849E10,3.133531E11,6.1700125E11,4.958973E10,1.5069525E11,3.7046882E10,0E0,8.070988E9,0E0,0E0,1.7731643E11,3.0096006E11,1.5825268E11,0E0,0E0,0E0,0E0,0E0,0E0,0E0,0E0,0E0,0E0,0E0,0E0,0E0,0E0,0E0,0E0,0E0,0E0,0E0,0E0,0E0,0E0,0E0,0E0,0E0,0E0],"parents":[2147483647,0,0,1,1,2,2,3,3,4,4,5,5,6,6,7,7,8,8,9,9,10,10,11,11,12,12,13,13,14,14,15,15,16,16,17,17,18,18,19,19,20,20,21,21,22,22,23,23,25,25,28,28,29,29,30,30],"right_children":[2,4,6,8,10,12,14,16,18,20,22,24,26,28,30,32,34,36,38,40,42,44,46,48,-1,50,-1,-1,52,54,56,-1,-1,-1,-1,-1,-1,-1,-1,-1,-1,-1,-1,-1,-1,-1,-1,-1,-1,-1,-1,-1,-1,-1,-1,-1,-1],"split_conditions":[7E0,1E0,1E1,2E0,2E2,1E0,5.4E1,1E0,4.5E3,1E0,1.0027293E9,2.2E4,7.07E3,1.0005777E9,1.0029174E9,1E0,1E0,1E0,1E0,1.0022776E9,1.0024589E9,1E0,1.0028868E9,1E0,-1.1638675E4,1.002881E9,3.7185125E3,2.7670389E4,1E0,1E0,1E0,1.3723218E4,2.0497361E4,5.340873E3,1.2016921E4,1.0534476E4,-4.8231157E3,2.7044475E3,-4.2800625E3,1.2492081E4,4.4122844E4,6.604664E4,2.4684342E4,1.2117821E4,-3.4640957E3,3.5779227E4,8.573615E3,-1.4069584E3,1.0287038E4,2.1736104E4,1.1373384E4,-9.887357E3,-4.875254E3,2.3414617E3,3.1070963E4,-6.5200464E3,5.0788516E3],"split_indices":[1,41,1,1,2,41,1,34,2,2,0,2,2,0,0,24,24,23,4,0,0,7,0,44,0,0,0,0,41,31,40,0,0,0,0,0,0,0,0,0,0,0,0,0,0,0,0,0,0,0,0,0,0,0,0,0,0],"split_type":[0,0,0,0,0,0,0,0,0,0,0,0,0,0,0,0,0,0,0,0,0,0,0,0,0,0,0,0,0,0,0,0,0,0,0,0,0,0,0,0,0,0,0,0,0,0,0,0,0,0,0,0,0,0,0,0,0],"sum_hessian":[6.03E2,1.27E2,4.76E2,7E1,5.7E1,4.5E1,4.31E2,4.4E1,2.6E1,3.4E1,2.3E1,3.2E1,1.3E1,2.91E2,1.4E2,2.9E1,1.5E1,1.4E1,1.2E1,1.6E1,1.8E1,1.3E1,1E1,2.9E1,3E0,1.2E1,1E0,1E0,2.9E2,4.7E1,9.3E1,1.4E1,1.5E1,5E0,1E1,1.3E1,1E0,1E1,2E0,1.2E1,4E0,6E0,1.2E1,1.1E1,2E0,6E0,4E0,2.7E1,2E0,6E0,6E0,1.52E2,1.38E2,4.4E1,3E0,8E1,1.3E1],"tree_param":{"num_deleted":"0","num_feature":"46","num_nodes":"57","size_leaf_vector":"1"}},{"base_weights":[4.5632407E3,1.7408058E5,-4.0935254E4,1.0888391E5,2.508889E5,-9.25045E3,-6.2248348E4,1.4075367E5,5.1734887E4,2.2500375E5,4.802708E4,-5.1134996E4,5.4512438E4,-6.9180586E4,7.688146E4,1.6128252E5,9.3465E4,7.055906E4,-1.2128335E4,2.7890897E5,1.607686E5,-9.870473E4,-3.7797594E4,-1.5393579E4,1.23020695E5,-5.912838E4,-1.2771998E4,2.2394336E5,-1.0217235E5,1.7335865E4,9.683827E3,4.8958003E3,1.0924472E4,9.539991E3,1.8267704E3,-4.4503E3,9.105981E3,1.9908941E4,4.899263E4,1.2675218E4,5.2259777E4,-1.0155163E4,-1.5189531E3,-5.257328E3,5.717381E3,-3.3465066E3,3.3566145E4,1.4108101E4,-2.816353E4,-8.811759E2,-8.143693E3,5.1479465E4,1.0885108E4,-1.5537976E4,1.0853604E4],"categories":[],"categories_nodes":[],"categories_segments":[],"categories_sizes":[],"default_left":[0,0,0,0,0,0,0,0,0,0,0,0,0,0,0,0,0,0,0,0,0,0,0,0,0,0,0,0,0,0,0,0,0,0,0,0,0,0,0,0,0,0,0,0,0,0,0,0,0,0,0,0,0,0,0],"id":15,"left_children":[1,3,5,7,9,11,13,15,17,19,-1,21,23,25,27,29,31,33,35,37,39,41,43,45,47,49,-1,51,53,-1,-1,-1,-1,-1,-1,-1,-1,-1,-1,-1,-1,-1,-1,-1,-1,-1,-1,-1,-1,-1,-1,-1,-1,-1,-1],"loss_changes":[4.6656473E12,6.1366075E11,3.215428E11,1.2203223E11,2.3631731E11,5.1822864E11,2.8019576E11,2.8610986E10,3.3314415E10,1.421413E11,0E0,7.0500614E10,3.7065753E11,1.525066E11,3.9152878E11,6.5593016E9,5.8885243E9,2.5535463E10,2.7437203E10,3.7407346E11,2.6607917E11,4.4014797E9,1.3350973E11,2.5865227E11,3.247535E11,2.6194523E11,0E0,2.1176189E11,9.5343034E10,0E0,0E0,0E0,0E0,0E0,0E0,0E0,0E0,0E0,0E0,0E0,0E0,0E0,0E0,0E0,0E0,0E0,0E0,0E0,0E0,0E0,0E0,0E0,0E0,0E0,0E0],"parents":[2147483647,0,0,1,1,2,2,3,3,4,4,5,5,6,6,7,7,8,8,9,9,11,11,12,12,13,13,14,14,15,15,16,16,17,17,18,18,19,19,20,20,21,21,22,22,23,23,24,24,25,25,27,27,28,28],"right_children":[2,4,6,8,10,12,14,16,18,20,-1,22,24,26,28,30,32,34,36,38,40,42,44,46,48,50,-1,52,54,-1,-1,-1,-1,-1,-1,-1,-1,-1,-1,-1,-1,-1,-1,-1,-1,-1,-1,-1,-1,-1,-1,-1,-1,-1,-1],"split_conditions":[7E0,1E0,4.93E3,2E0,1E0,1E0,6.2E1,1E0,5E0,1.0024589E9,4.802708E4,5.2E1,1E0,1E0,6.7E1,1.00283654E9,1E0,7.3E3,1E0,1.0022776E9,2.2E3,1E0,1E0,6.6E1,1E0,2E1,-1.2771998E4,1.0027868E9,2.1024E4,1.7335865E4,9.683827E3,4.8958003E3,1.0924472E4,9.539991E3,1.8267704E3,-4.4503E3,9.105981E3,1.9908941E4,4.899263E4,1.2675218E4,5.2259777E4,-1.0155163E4,-1.5189531E3,-5.257328E3,5.717381E3,-3.3465066E3,3.3566145E4,1.4108101E4,-2.816353E4,-8.811759E2,-8.143693E3,5.1479465E4,1.0885108E4,-1.5537976E4,1.0853604E4],"split_indices":[1,41,2,1,36,2,1,34,1,0,0,1,41,42,1,0,24,2,32,0,2,5,40,1,27,1,0,0,2,0,0,0,0,0,0,0,0,0,0,0,0,0,0,0,0,0,0,0,0,0,0,0,0,0,0],"split_type":[0,0,0,0,0,0,0,0,0,0,0,0,0,0,0,0,0,0,0,0,0,0,0,0,0,0,0,0,0,0,0,0,0,0,0,0,0,0,0,0,0,0,0,0,0,0,0,0,0,0,0,0,0,0,0],"sum_hessian":[6.03E2,1.27E2,4.76E2,7E1,5.7E1,1.92E2,2.84E2,4.4E1,2.6E1,5.3E1,4E0,1.16E2,7.6E1,2.71E2,1.3E1,2.9E1,1.5E1,2E1,6E0,2.7E1,2.6E1,2.4E1,9.2E1,3.8E1,3.8E1,2.33E2,3.8E1,7E0,6E0,2.3E1,6E0,5E0,1E1,1.3E1,7E0,5E0,1E0,2.1E1,6E0,2.5E1,1E0,2.3E1,1E0,8E1,1.2E1,3.7E1,1E0,3.7E1,1E0,7.2E1,1.61E2,1E0,6E0,5E0,1E0],"tree_param":{"num_deleted":"0","num_feature":"46","num_nodes":"55","size_leaf_vector":"1"}},{"base_weights":[4.573069E3,1.5855317E5,-3.6756125E4,9.8824555E4,2.2893556E5,-1.1921532E4,-6.062186E4,1.2763029E5,4.7154824E4,2.8233562E5,1.415215E5,7.1806484E4,-3.212978E4,-4.167883E4,-8.391474E4,1.460549E5,8.510724E4,6.404443E4,-1.0250397E4,1.8479247E5,3.5475128E5,3.5505793E4,2.0276389E5,-2.644236E4,1.2508727E5,-2.4745441E4,-2.2164244E4,1.3371459E4,-5.241986E4,-8.6626266E4,1.0310924E4,1.0812749E4,1.686978E4,4.487816E3,9.931336E3,9.374038E3,2.2004849E3,-4.0794402E3,8.650682E3,9.501208E3,3.81263E4,5.7861844E4,2.0691887E4,-2.1466963E3,7.7065464E3,7.627554E3,3.3642547E4,-5.283096E3,1.9788764E4,2.3520482E4,6.6693804E3,-3.7132903E3,6.3581265E3,1.4140067E4,-2.1024202E3,-9.112534E3,-3.9360396E3,-9.982565E3,-6.6222104E3],"categories":[],"categories_nodes":[],"categories_segments":[],"categories_sizes":[],"default_left":[0,0,0,0,0,0,0,0,0,0,0,0,0,0,0,0,0,0,0,0,0,0,0,0,0,0,0,0,0,0,0,0,0,0,0,0,0,0,0,0,0,0,0,0,0,0,0,0,0,0,0,0,0,0,0,0,0,0,0],"id":16,"left_children":[1,3,5,7,9,11,13,15,17,19,21,23,25,27,29,31,33,35,37,39,41,43,45,47,49,51,-1,53,55,57,-1,-1,-1,-1,-1,-1,-1,-1,-1,-1,-1,-1,-1,-1,-1,-1,-1,-1,-1,-1,-1,-1,-1,-1,-1,-1,-1,-1,-1],"loss_changes":[3.8496074E12,5.1546738E11,2.8199328E11,9.9656925E10,2.307824E11,3.9992633E11,1.037233E11,2.2825861E10,2.6834375E10,1.816726E11,1.4862444E11,2.4410731E11,2.6040626E11,8.1117315E10,6.3700926E10,7.522681E9,4.6869873E9,2.4153768E10,2.4216461E10,2.6364189E11,5.0907447E11,2.5332046E10,2.2793847E11,1.11090426E11,1.772176E11,2.0368336E11,0E0,1.04256774E11,5.4037185E10,2.2206808E10,0E0,0E0,0E0,0E0,0E0,0E0,0E0,0E0,0E0,0E0,0E0,0E0,0E0,0E0,0E0,0E0,0E0,0E0,0E0,0E0,0E0,0E0,0E0,0E0,0E0,0E0,0E0,0E0,0E0],"parents":[2147483647,0,0,1,1,2,2,3,3,4,4,5,5,6,6,7,7,8,8,9,9,10,10,11,11,12,12,13,13,14,14,15,15,16,16,17,17,18,18,19,19,20,20,21,21,22,22,23,23,24,24,25,25,27,27,28,28,29,29],"right_children":[2,4,6,8,10,12,14,16,18,20,22,24,26,28,30,32,34,36,38,40,42,44,46,48,50,52,-1,54,56,58,-1,-1,-1,-1,-1,-1,-1,-1,-1,-1,-1,-1,-1,-1,-1,-1,-1,-1,-1,-1,-1,-1,-1,-1,-1,-1,-1,-1,-1],"split_conditions":[7E0,1E0,1.4019981E9,2E0,2E2,2.969E3,7.95E3,1E0,5E0,1E0,1E0,1E0,1E0,1.8E1,6.8E1,1E0,1E0,1.00253395E9,1E0,1.0022776E9,1.0024589E9,1.002305E9,8.63E2,1.4019258E9,1E0,5.8E1,-2.2164244E4,3.129E3,5.2E1,1E0,1.0310924E4,1.0812749E4,1.686978E4,4.487816E3,9.931336E3,9.374038E3,2.2004849E3,-4.0794402E3,8.650682E3,9.501208E3,3.81263E4,5.7861844E4,2.0691887E4,-2.1466963E3,7.7065464E3,7.627554E3,3.3642547E4,-5.283096E3,1.9788764E4,2.3520482E4,6.6693804E3,-3.7132903E3,6.3581265E3,1.4140067E4,-2.1024202E3,-9.112534E3,-3.9360396E3,-9.982565E3,-6.6222104E3],"split_indices":[1,41,0,1,2,2,2,34,1,2,19,2,27,1,1,2,24,0,32,0,0,0,2,0,37,1,0,2,1,41,0,0,0,0,0,0,0,0,0,0,0,0,0,0,0,0,0,0,0,0,0,0,0,0,0,0,0,0,0],"split_type":[0,0,0,0,0,0,0,0,0,0,0,0,0,0,0,0,0,0,0,0,0,0,0,0,0,0,0,0,0,0,0,0,0,0,0,0,0,0,0,0,0,0,0,0,0,0,0,0,0,0,0,0,0,0,0,0,0,0,0],"sum_hessian":[6.03E2,1.27E2,4.76E2,7E1,5.7E1,2.34E2,2.42E2,4.4E1,2.6E1,3.4E1,2.3E1,4.5E1,1.89E2,1.35E2,1.07E2,2.9E1,1.5E1,2E1,6E0,1.6E1,1.8E1,9E0,1.4E1,1.6E1,2.9E1,1.83E2,6E0,2.2E1,1.13E2,1.06E2,1E0,1.3E1,1.6E1,5E0,1E1,1.1E1,9E0,5E0,1E0,1.2E1,4E0,6E0,1.2E1,4E0,5E0,8E0,6E0,1.5E1,1E0,9E0,2E1,1.61E2,2.2E1,4E0,1.8E1,2.7E1,8.6E1,6.2E1,4.4E1],"tree_param":{"num_deleted":"0","num_feature":"46","num_nodes":"59","size_leaf_vector":"1"}},{"base_weights":[4.528229E3,1.4450458E5,-3.304305E4,8.976249E4,2.0902497E5,-5.085132E4,-2.8434739E3,1.15802875E5,4.3037316E4,1.8557694E5,4.2045866E5,-4.1964875E4,-1.0924612E4,1.5723386E5,-3.3772805E4,1.3237219E5,7.7497734E4,6.877092E4,1.003413E4,2.3463897E5,1.2782458E5,4.6213887E4,1.2686894E4,-5.0621332E4,4.5837397E3,1.8162464E5,-1.14694375E5,-5.3344887E4,1.9575156E5,1.43102E4,7.6673945E3,4.1138315E3,9.028489E3,8.1067397E3,-5.1689844E3,2.2343904E3,-3.8446418E3,1.6398186E4,4.2318438E4,9.584502E3,4.7964664E4,-1.0105373E3,-6.707303E3,2.3164076E4,-3.23602E3,2.6405438E4,8.62217E3,-2.564714E4,8.442984E3,-2.210478E3,-7.2931484E3,2.5043385E4,-2.0287678E4],"categories":[],"categories_nodes":[],"categories_segments":[],"categories_sizes":[],"default_left":[0,0,0,0,0,0,0,0,0,0,0,0,0,0,0,0,0,0,0,0,0,0,0,0,0,0,0,0,0,0,0,0,0,0,0,0,0,0,0,0,0,0,0,0,0,0,0,0,0,0,0,0,0],"id":17,"left_children":[1,3,5,7,9,11,13,15,17,19,21,23,-1,25,27,29,31,33,35,37,39,-1,-1,41,43,45,47,49,51,-1,-1,-1,-1,-1,-1,-1,-1,-1,-1,-1,-1,-1,-1,-1,-1,-1,-1,-1,-1,-1,-1,-1,-1],"loss_changes":[3.1812653E12,4.3333085E11,2.5638702E11,8.140482E10,2.0951938E11,1.510922E11,8.866033E11,1.83025E10,2.2240797E10,1.2301343E11,2.553348E9,1.05803874E11,0E0,2.1317491E11,6.842828E11,6.9567447E9,3.7247713E9,2.6409E10,8.617243E9,3.0362357E11,2.5780837E11,0E0,0E0,1.4663116E11,3.5980794E11,1.895619E11,1.0634756E11,8.344024E10,3.1238216E11,0E0,0E0,0E0,0E0,0E0,0E0,0E0,0E0,0E0,0E0,0E0,0E0,0E0,0E0,0E0,0E0,0E0,0E0,0E0,0E0,0E0,0E0,0E0,0E0],"parents":[2147483647,0,0,1,1,2,2,3,3,4,4,5,5,6,6,7,7,8,8,9,9,10,10,11,11,13,13,14,14,15,15,16,16,17,17,18,18,19,19,20,20,23,23,24,24,25,25,26,26,27,27,28,28],"right_children":[2,4,6,8,10,12,14,16,18,20,22,24,-1,26,28,30,32,34,36,38,40,-1,-1,42,44,46,48,50,52,-1,-1,-1,-1,-1,-1,-1,-1,-1,-1,-1,-1,-1,-1,-1,-1,-1,-1,-1,-1,-1,-1,-1,-1],"split_conditions":[7E0,1E0,1E0,2E0,1E0,1E0,1.6E1,1E0,4.5E3,1.0024589E9,1.0026571E9,6.5E1,-1.0924612E4,1E0,5.8E1,1.00283654E9,1E0,1E0,1E0,1.0022776E9,2.2E3,4.6213887E4,1.2686894E4,1.4E1,1.0027868E9,1E0,1.00280326E9,2.8E1,1E0,1.43102E4,7.6673945E3,4.1138315E3,9.028489E3,8.1067397E3,-5.1689844E3,2.2343904E3,-3.8446418E3,1.6398186E4,4.2318438E4,9.584502E3,4.7964664E4,-1.0105373E3,-6.707303E3,2.3164076E4,-3.23602E3,2.6405438E4,8.62217E3,-2.564714E4,8.442984E3,-2.210478E3,-7.2931484E3,2.5043385E4,-2.0287678E4],"split_indices":[1,41,41,1,36,42,1,34,2,0,0,1,0,27,1,0,24,23,4,0,2,0,0,1,0,37,0,1,12,0,0,0,0,0,0,0,0,0,0,0,0,0,0,0,0,0,0,0,0,0,0,0,0],"split_type":[0,0,0,0,0,0,0,0,0,0,0,0,0,0,0,0,0,0,0,0,0,0,0,0,0,0,0,0,0,0,0,0,0,0,0,0,0,0,0,0,0,0,0,0,0,0,0,0,0,0,0,0,0],"sum_hessian":[6.03E2,1.27E2,4.76E2,7E1,5.7E1,2.99E2,1.77E2,4.4E1,2.6E1,5.3E1,4E0,2.61E2,3.8E1,2.8E1,1.49E2,2.9E1,1.5E1,1.4E1,1.2E1,2.7E1,2.6E1,3E0,1E0,2.2E2,4.1E1,2.6E1,2E0,1.38E2,1.1E1,2.3E1,6E0,5E0,1E1,1.3E1,1E0,1E1,2E0,2.1E1,6E0,2.5E1,1E0,6.4E1,1.56E2,5E0,3.6E1,1.3E1,1.3E1,1E0,1E0,5.4E1,8.4E1,1E1,1E0],"tree_param":{"num_deleted":"0","num_feature":"46","num_nodes":"53","size_leaf_vector":"1"}},{"base_weights":[4.449538E3,1.3170734E5,-2.9708637E4,8.129957E4,1.9114261E5,-4.5761902E4,-2.4856685E3,1.0500301E5,3.8782754E4,2.3933633E5,1.12895805E5,-3.772178E4,-9.860163E4,1.4212508E5,-3.0427174E4,1.1986752E5,7.056935E4,2.5613604E4,1.0810197E5,1.5143344E5,3.0538962E5,3.7069586E4,1.9913866E5,-4.3110695E4,3.346858E4,-1.5886981E4,-9.105011E3,1.0448873E5,3.5123008E4,-4.807877E4,1.7657272E5,8.622249E3,1.4052417E4,4.185189E3,8.825495E3,5.483229E3,8.265201E1,1.40529E4,5.0449956E3,7.110496E3,3.3000082E4,5.0700477E4,1.7333615E4,7.6825913E3,-4.9856987E3,1.2791966E4,4.5566434E4,-1.073339E3,-5.384448E3,-1.737137E3,4.7429383E4,1.2681608E4,-1.0895967E4,-1.9934492E3,-6.572414E3,2.2766715E4,-1.9273295E4],"categories":[],"categories_nodes":[],"categories_segments":[],"categories_sizes":[],"default_left":[0,0,0,0,0,0,0,0,0,0,0,0,0,0,0,0,0,0,0,0,0,0,0,0,0,0,0,0,0,0,0,0,0,0,0,0,0,0,0,0,0,0,0,0,0,0,0,0,0,0,0,0,0,0,0,0,0],"id":18,"left_children":[1,3,5,7,9,11,13,15,17,19,21,23,25,27,29,31,33,35,37,39,41,43,45,47,49,-1,-1,51,-1,53,55,-1,-1,-1,-1,-1,-1,-1,-1,-1,-1,-1,-1,-1,-1,-1,-1,-1,-1,-1,-1,-1,-1,-1,-1,-1,-1],"loss_changes":[2.6294372E12,3.6794794E11,2.083436E11,6.748114E10,1.9169817E11,1.2373184E11,7.2355866E11,1.4573765E10,2.1878747E10,1.5697353E11,1.4956528E11,1.0195622E11,3.284435E9,1.9152896E11,5.5657103E11,8.733491E9,4.4325274E9,1.7336584E10,3.8825165E8,2.2038407E11,4.179734E11,5.2212646E10,1.4267607E11,8.4219625E10,4.340582E11,0E0,0E0,1.3772702E11,0E0,6.7719496E10,2.703125E11,0E0,0E0,0E0,0E0,0E0,0E0,0E0,0E0,0E0,0E0,0E0,0E0,0E0,0E0,0E0,0E0,0E0,0E0,0E0,0E0,0E0,0E0,0E0,0E0,0E0,0E0],"parents":[2147483647,0,0,1,1,2,2,3,3,4,4,5,5,6,6,7,7,8,8,9,9,10,10,11,11,12,12,13,13,14,14,15,15,16,16,17,17,18,18,19,19,20,20,21,21,22,22,23,23,24,24,27,27,29,29,30,30],"right_children":[2,4,6,8,10,12,14,16,18,20,22,24,26,28,30,32,34,36,38,40,42,44,46,48,50,-1,-1,52,-1,54,56,-1,-1,-1,-1,-1,-1,-1,-1,-1,-1,-1,-1,-1,-1,-1,-1,-1,-1,-1,-1,-1,-1,-1,-1,-1,-1],"split_conditions":[7E0,1E0,1E0,2E0,2E2,1E0,1.6E1,1E0,1E0,1E0,1.0027293E9,1E0,9.572E3,1.5E1,5.8E1,1E0,1.00251674E9,3.399E3,1.00251674E9,1.0022776E9,1.0024589E9,1.051E3,2.2E3,1.4E1,6.6E1,-1.5886981E4,-9.105011E3,1E0,3.5123008E4,2.8E1,1E0,8.622249E3,1.4052417E4,4.185189E3,8.825495E3,5.483229E3,8.265201E1,1.40529E4,5.0449956E3,7.110496E3,3.3000082E4,5.0700477E4,1.7333615E4,7.6825913E3,-4.9856987E3,1.2791966E4,4.5566434E4,-1.073339E3,-5.384448E3,-1.737137E3,4.7429383E4,1.2681608E4,-1.0895967E4,-1.9934492E3,-6.572414E3,2.2766715E4,-1.9273295E4],"split_indices":[1,41,41,1,2,42,1,34,14,2,0,22,2,1,1,2,0,2,0,0,0,2,2,1,1,0,0,27,0,1,12,0,0,0,0,0,0,0,0,0,0,0,0,0,0,0,0,0,0,0,0,0,0,0,0,0,0],"split_type":[0,0,0,0,0,0,0,0,0,0,0,0,0,0,0,0,0,0,0,0,0,0,0,0,0,0,0,0,0,0,0,0,0,0,0,0,0,0,0,0,0,0,0,0,0,0,0,0,0,0,0,0,0,0,0,0,0],"sum_hessian":[6.03E2,1.27E2,4.76E2,7E1,5.7E1,2.99E2,1.77E2,4.4E1,2.6E1,3.4E1,2.3E1,2.61E2,3.8E1,2.8E1,1.49E2,2.9E1,1.5E1,2.3E1,3E0,1.6E1,1.8E1,1.3E1,1E1,2.43E2,1.8E1,2E0,3.6E1,2.5E1,3E0,1.38E2,1.1E1,1.3E1,1.6E1,7E0,8E0,1E1,1.3E1,1E0,2E0,1.2E1,4E0,6E0,1.2E1,9E0,4E0,9E0,1E0,6.1E1,1.82E2,1.7E1,1E0,2.3E1,2E0,5.4E1,8.4E1,1E1,1E0],"tree_param":{"num_deleted":"0","num_feature":"46","num_nodes":"57","size_leaf_vector":"1"}},{"base_weights":[4.4609185E3,1.2032996E5,-2.6641176E4,7.401961E4,1.7494556E5,-3.1365251E3,-4.2464883E4,9.529573E4,3.5817953E4,1.535933E5,3.70561E4,7.423434E4,-2.2583799E4,-4.755788E4,5.9517984E4,1.0863661E5,6.4325582E4,4.7602125E4,-2.5552824E4,1.6052712E5,-1.0694987E4,1.3919895E5,1.1921863E4,-3.288328E4,1.0289197E5,-4.0383906E4,-8.938229E4,1.8855753E5,-9.645836E4,1.23093955E4,6.7412534E3,1.2314628E4,5.219445E3,7.409272E3,1.1967596E3,4.1539688E3,-8.412772E3,2.1276172E4,1.0234709E4,6.364957E3,3.3800734E4,-1.8147432E3,3.0665389E4,-2.3819986E4,-2.9781768E3,2.5247754E3,2.0654434E4,-1.9698486E2,-5.7444663E3,-1.4827851E4,-8.219119E3,4.5057914E4,8.675743E3,-1.4662275E4,1.02264E4],"categories":[],"categories_nodes":[],"categories_segments":[],"categories_sizes":[],"default_left":[0,0,0,0,0,0,0,0,0,0,0,0,0,0,0,0,0,0,0,0,0,0,0,0,0,0,0,0,0,0,0,0,0,0,0,0,0,0,0,0,0,0,0,0,0,0,0,0,0,0,0,0,0,0,0],"id":19,"left_children":[1,3,5,7,9,11,13,15,17,19,-1,21,23,25,27,29,31,33,35,37,-1,39,41,43,45,47,49,51,53,-1,-1,-1,-1,-1,-1,-1,-1,-1,-1,-1,-1,-1,-1,-1,-1,-1,-1,-1,-1,-1,-1,-1,-1,-1,-1],"loss_changes":[2.179883E12,3.1079688E11,1.7727773E11,5.429425E10,1.8534066E11,2.920744E11,1.5085912E11,1.1604558E10,2.0742873E10,1.1472273E11,0E0,1.5621664E11,2.0369539E11,7.800324E10,2.999676E11,9.581625E9,4.98944E9,2.0824818E10,2.3144327E10,1.3929205E11,0E0,2.6386317E11,1.9167502E11,8.460406E10,9.136129E10,1.5324407E11,4.3304223E9,1.7429951E11,8.477574E10,0E0,0E0,0E0,0E0,0E0,0E0,0E0,0E0,0E0,0E0,0E0,0E0,0E0,0E0,0E0,0E0,0E0,0E0,0E0,0E0,0E0,0E0,0E0,0E0,0E0,0E0],"parents":[2147483647,0,0,1,1,2,2,3,3,4,4,5,5,6,6,7,7,8,8,9,9,11,11,12,12,13,13,14,14,15,15,16,16,17,17,18,18,19,19,21,21,22,22,23,23,24,24,25,25,26,26,27,27,28,28],"right_children":[2,4,6,8,10,12,14,16,18,20,-1,22,24,26,28,30,32,34,36,38,-1,40,42,44,46,48,50,52,54,-1,-1,-1,-1,-1,-1,-1,-1,-1,-1,-1,-1,-1,-1,-1,-1,-1,-1,-1,-1,-1,-1,-1,-1,-1,-1],"split_conditions":[7E0,1E0,4.93E3,2E0,1E0,1.00279354E9,6.2E1,1E0,1E0,1E0,3.70561E4,1.6E1,1E0,1E0,6.7E1,1E0,1.001826E9,4.5E3,1E0,1.0024589E9,-1.0694987E4,1.2E1,6.6E1,1.00280326E9,2.9E3,2E1,9.572E3,1.0027868E9,2.1024E4,1.23093955E4,6.7412534E3,1.2314628E4,5.219445E3,7.409272E3,1.1967596E3,4.1539688E3,-8.412772E3,2.1276172E4,1.0234709E4,6.364957E3,3.3800734E4,-1.8147432E3,3.0665389E4,-2.3819986E4,-2.9781768E3,2.5247754E3,2.0654434E4,-1.9698486E2,-5.7444663E3,-1.4827851E4,-8.219119E3,4.5057914E4,8.675743E3,-1.4662275E4,1.02264E4],"split_indices":[1,41,2,1,36,0,1,34,33,12,0,1,19,42,1,7,0,2,40,0,0,1,1,0,2,1,2,0,2,0,0,0,0,0,0,0,0,0,0,0,0,0,0,0,0,0,0,0,0,0,0,0,0,0,0],"split_type":[0,0,0,0,0,0,0,0,0,0,0,0,0,0,0,0,0,0,0,0,0,0,0,0,0,0,0,0,0,0,0,0,0,0,0,0,0,0,0,0,0,0,0,0,0,0,0,0,0,0,0,0,0,0,0],"sum_hessian":[6.03E2,1.27E2,4.76E2,7E1,5.7E1,1.92E2,2.84E2,4.4E1,2.6E1,5.3E1,4E0,3.8E1,1.54E2,2.71E2,1.3E1,2.9E1,1.5E1,2.2E1,4E0,5.2E1,1E0,1.8E1,2E1,1.43E2,1.1E1,2.33E2,3.8E1,7E0,6E0,2E1,9E0,1E0,1.4E1,1.2E1,1E1,2E0,2E0,2.6E1,2.6E1,1.4E1,4E0,1.9E1,1E0,1E0,1.42E2,7E0,4E0,7.2E1,1.61E2,2E0,3.6E1,1E0,6E0,5E0,1E0],"tree_param":{"num_deleted":"0","num_feature":"46","num_nodes":"55","size_leaf_vector":"1"}},{"base_weights":[4.320313E3,1.0906888E5,-2.3797375E4,6.719417E4,1.5844881E5,-3.7991082E4,2.582975E2,8.657916E4,3.239718E4,1.3861945E5,3.409161E5,-4.5579336E4,9.707696E3,1.2271196E5,-2.34178E4,6.0330254E4,1.0344066E5,1.9844232E4,9.961556E4,1.2628541E5,3.9616184E4,3.783444E4,9.560144E3,6.2128467E3,-5.113924E4,2.0059142E5,-2.1508791E4,8.948078E4,3.080367E4,-3.8948035E4,1.584256E5,6.941922E3,2.755279E3,7.45804E3,1.4215903E4,4.340777E3,-8.741741E0,1.1320744E4,2.9419968E3,1.3262175E4,-1.0160237E4,-4.9182697E2,1.4224538E4,-4.492968E3,-8.1035015E3,-5.879855E3,4.795809E4,-4.860136E3,1.015453E4,1.0864877E4,-9.369003E3,1.0986418E4,-4.1922407E3,2.0559592E4,-1.8022406E4],"categories":[],"categories_nodes":[],"categories_segments":[],"categories_sizes":[],"default_left":[0,0,0,0,0,0,0,0,0,0,0,0,0,0,0,0,0,0,0,0,0,0,0,0,0,0,0,0,0,0,0,0,0,0,0,0,0,0,0,0,0,0,0,0,0,0,0,0,0,0,0,0,0,0,0],"id":20,"left_children":[1,3,5,7,9,11,13,15,17,19,21,23,25,27,29,31,33,35,37,39,-1,-1,-1,41,43,45,47,49,-1,51,53,-1,-1,-1,-1,-1,-1,-1,-1,-1,-1,-1,-1,-1,-1,-1,-1,-1,-1,-1,-1,-1,-1,-1,-1],"loss_changes":[1.7815492E12,2.5402776E11,1.6287626E11,4.508736E10,1.6259849E11,1.0902762E11,5.1893567E11,1.3676184E10,2.0805503E10,1.2150361E11,9.738322E9,7.489923E10,2.5458069E11,1.5103489E11,4.2978102E11,4.0455782E9,1.845071E10,1.1275638E10,4.857979E8,9.000544E10,0E0,0E0,0E0,4.006864E10,3.9798833E10,4.6240104E11,1.2828776E11,1.0146572E11,0E0,6.6130313E10,2.287439E11,0E0,0E0,0E0,0E0,0E0,0E0,0E0,0E0,0E0,0E0,0E0,0E0,0E0,0E0,0E0,0E0,0E0,0E0,0E0,0E0,0E0,0E0,0E0,0E0],"parents":[2147483647,0,0,1,1,2,2,3,3,4,4,5,5,6,6,7,7,8,8,9,9,10,10,11,11,12,12,13,13,14,14,15,15,16,16,17,17,18,18,19,19,23,23,24,24,25,25,26,26,27,27,29,29,30,30],"right_children":[2,4,6,8,10,12,14,16,18,20,22,24,26,28,30,32,34,36,38,40,-1,-1,-1,42,44,46,48,50,-1,52,54,-1,-1,-1,-1,-1,-1,-1,-1,-1,-1,-1,-1,-1,-1,-1,-1,-1,-1,-1,-1,-1,-1,-1,-1],"split_conditions":[7E0,1E0,1E0,2E0,1E0,6.5E1,1.6E1,1E0,1E0,1E0,1.0026571E9,9E0,1.0027868E9,1.5E1,5.8E1,1E0,1.002754E9,3.399E3,1.00253395E9,1E0,3.9616184E4,3.783444E4,9.560144E3,1E0,1E0,1.00274886E9,1.4022048E9,1E0,3.080367E4,1.0007361E9,1E0,6.941922E3,2.755279E3,7.45804E3,1.4215903E4,4.340777E3,-8.741741E0,1.1320744E4,2.9419968E3,1.3262175E4,-1.0160237E4,-4.9182697E2,1.4224538E4,-4.492968E3,-8.1035015E3,-5.879855E3,4.795809E4,-4.860136E3,1.015453E4,1.0864877E4,-9.369003E3,1.0986418E4,-4.1922407E3,2.0559592E4,-1.8022406E4],"split_indices":[1,41,41,1,36,1,1,24,14,6,0,1,0,1,1,34,0,2,0,12,0,0,0,23,42,0,0,27,0,0,12,0,0,0,0,0,0,0,0,0,0,0,0,0,0,0,0,0,0,0,0,0,0,0,0],"split_type":[0,0,0,0,0,0,0,0,0,0,0,0,0,0,0,0,0,0,0,0,0,0,0,0,0,0,0,0,0,0,0,0,0,0,0,0,0,0,0,0,0,0,0,0,0,0,0,0,0,0,0,0,0,0,0],"sum_hessian":[6.03E2,1.27E2,4.76E2,7E1,5.7E1,2.99E2,1.77E2,4.4E1,2.6E1,5.3E1,4E0,2.58E2,4.1E1,2.8E1,1.49E2,1.9E1,2.5E1,2.3E1,3E0,5.2E1,1E0,3E0,1E0,2.5E1,2.33E2,5E0,3.6E1,2.5E1,3E0,1.38E2,1.1E1,1.4E1,5E0,1.6E1,9E0,1E1,1.3E1,2E0,1E0,5.1E1,1E0,2.4E1,1E0,1.95E2,3.8E1,3E0,2E0,3E1,6E0,2.3E1,2E0,2E0,1.36E2,1E1,1E0],"tree_param":{"num_deleted":"0","num_feature":"46","num_nodes":"55","size_leaf_vector":"1"}},{"base_weights":[4.269444E3,9.925638E4,-2.1228664E4,6.1178516E4,1.4415764E5,-3.4030277E4,4.663513E2,7.20353E4,1.1830516E4,1.8609762E5,7.698857E4,-4.1017016E4,9.86484E3,1.1155455E5,-2.1013809E4,7.641275E4,-3.3688895E4,2.2984873E4,-3.6730417E3,1.0744193E5,2.4667917E5,5.427357E3,1.6106752E5,6.11973E3,-4.6079145E4,1.8754533E5,-1.9214828E4,8.0590234E4,2.8493395E4,-3.500435E4,1.4279448E5,7.9901055E3,-5.772197E3,-9.488278E3,4.434944E3,3.1557256E3,-1.3251365E3,3.265996E3,2.8038666E4,4.3232684E4,1.2773972E4,-1.0757138E4,3.3224763E3,9.294773E3,4.211327E4,-4.446128E2,1.351331E4,-5.4916743E3,-2.7346428E3,-5.4388657E3,4.4760887E4,-4.3898022E3,9.284142E3,9.823659E3,-8.744403E3,1.025399E4,-3.7760767E3,2.358624E4,-3.4673083E3],"categories":[],"categories_nodes":[],"categories_segments":[],"categories_sizes":[],"default_left":[0,0,0,0,0,0,0,0,0,0,0,0,0,0,0,0,0,0,0,0,0,0,0,0,0,0,0,0,0,0,0,0,0,0,0,0,0,0,0,0,0,0,0,0,0,0,0,0,0,0,0,0,0,0,0,0,0,0,0],"id":21,"left_children":[1,3,5,7,9,11,13,15,17,19,21,23,25,27,29,31,33,35,-1,37,39,41,43,45,47,49,51,53,-1,55,57,-1,-1,-1,-1,-1,-1,-1,-1,-1,-1,-1,-1,-1,-1,-1,-1,-1,-1,-1,-1,-1,-1,-1,-1,-1,-1,-1,-1],"loss_changes":[1.4649875E12,2.100278E11,1.3249364E11,3.7186814E10,1.4906268E11,9.240969E10,4.270864E11,2.9416784E10,8.427567E9,1.4027417E11,1.4352884E11,6.208258E10,2.20613E11,1.32725735E11,3.4876352E11,3.0814601E10,1.8534404E10,4.1457475E9,0E0,2.1070607E11,3.6431043E11,4.754903E10,1.5572808E11,3.604238E10,3.7237424E10,4.018541E11,1.06414055E11,8.568521E10,0E0,5.657087E10,2.063765E11,0E0,0E0,0E0,0E0,0E0,0E0,0E0,0E0,0E0,0E0,0E0,0E0,0E0,0E0,0E0,0E0,0E0,0E0,0E0,0E0,0E0,0E0,0E0,0E0,0E0,0E0,0E0,0E0],"parents":[2147483647,0,0,1,1,2,2,3,3,4,4,5,5,6,6,7,7,8,8,9,9,10,10,11,11,12,12,13,13,14,14,15,15,16,16,17,17,19,19,20,20,21,21,22,22,23,23,24,24,25,25,26,26,27,27,29,29,30,30],"right_children":[2,4,6,8,10,12,14,16,18,20,22,24,26,28,30,32,34,36,-1,38,40,42,44,46,48,50,52,54,-1,56,58,-1,-1,-1,-1,-1,-1,-1,-1,-1,-1,-1,-1,-1,-1,-1,-1,-1,-1,-1,-1,-1,-1,-1,-1,-1,-1,-1,-1],"split_conditions":[7E0,1E0,1E0,4.5E3,2E2,6.5E1,1.6E1,1E0,1E0,1E0,1.0027293E9,9E0,1.0027868E9,1.5E1,5.8E1,1E0,1.00174394E9,1E0,-3.6730417E3,1.0022776E9,1.0024589E9,6E2,2.2E3,1E0,5.1E1,1.00274886E9,1.4022048E9,1E0,2.8493395E4,1.0007361E9,1E0,7.9901055E3,-5.772197E3,-9.488278E3,4.434944E3,3.1557256E3,-1.3251365E3,3.265996E3,2.8038666E4,4.3232684E4,1.2773972E4,-1.0757138E4,3.3224763E3,9.294773E3,4.211327E4,-4.446128E2,1.351331E4,-5.4916743E3,-2.7346428E3,-5.4388657E3,4.4760887E4,-4.3898022E3,9.284142E3,9.823659E3,-8.744403E3,1.025399E4,-3.7760767E3,2.358624E4,-3.4673083E3],"split_indices":[1,41,41,2,2,1,1,33,4,2,0,1,0,1,1,23,0,40,0,0,0,2,2,23,1,0,0,27,0,0,37,0,0,0,0,0,0,0,0,0,0,0,0,0,0,0,0,0,0,0,0,0,0,0,0,0,0,0,0],"split_type":[0,0,0,0,0,0,0,0,0,0,0,0,0,0,0,0,0,0,0,0,0,0,0,0,0,0,0,0,0,0,0,0,0,0,0,0,0,0,0,0,0,0,0,0,0,0,0,0,0,0,0,0,0,0,0,0,0,0,0],"sum_hessian":[6.03E2,1.27E2,4.76E2,7E1,5.7E1,2.99E2,1.77E2,5.7E1,1.3E1,3.4E1,2.3E1,2.58E2,4.1E1,2.8E1,1.49E2,5.5E1,2E0,1.1E1,2E0,1.6E1,1.8E1,1.3E1,1E1,2.5E1,2.33E2,5E0,3.6E1,2.5E1,3E0,1.38E2,1.1E1,5.4E1,1E0,1E0,1E0,9E0,2E0,1.2E1,4E0,6E0,1.2E1,2E0,1.1E1,9E0,1E0,2.4E1,1E0,1.57E2,7.6E1,3E0,2E0,3E1,6E0,2.3E1,2E0,2E0,1.36E2,7E0,4E0],"tree_param":{"num_deleted":"0","num_feature":"46","num_nodes":"59","size_leaf_vector":"1"}},{"base_weights":[4.2263306E3,9.031985E4,-1.8885193E4,5.4994758E4,1.320054E5,2.5393775E4,-2.4245807E4,6.1349973E4,-1.1874326E4,1.1394207E5,3.006883E5,8.248694E4,-1.286717E4,-3.163392E4,1.6532291E4,6.4022188E4,-5.4835874E3,-3.7317203E4,7.039147E3,1.027056E5,3.5473746E4,3.327734E4,8.6174E3,1.2997189E5,1.7256309E4,1.1317606E4,-2.058392E4,-3.937454E4,2.222847E4,2.2365858E5,-7.9079814E3,7.0887812E3,7.1018085E2,-8.0771323E3,4.6026877E2,1.092245E4,-1.1813856E4,5.939235E3,2.5628287E4,-1.0780205E3,1.3479247E4,-3.0987031E3,3.9709656E3,-1.8901713E3,-4.991379E3,7.2888564E3,-1.61208E3,2.6409254E4,-9.472531E2,1.725994E4,-2.7455913E3],"categories":[],"categories_nodes":[],"categories_segments":[],"categories_sizes":[],"default_left":[0,0,0,0,0,0,0,0,0,0,0,0,0,0,0,0,0,0,0,0,0,0,0,0,0,0,0,0,0,0,0,0,0,0,0,0,0,0,0,0,0,0,0,0,0,0,0,0,0,0,0],"id":22,"left_children":[1,3,5,7,9,11,13,15,17,19,21,23,25,27,29,31,-1,33,-1,35,-1,-1,-1,37,39,-1,41,43,45,47,49,-1,-1,-1,-1,-1,-1,-1,-1,-1,-1,-1,-1,-1,-1,-1,-1,-1,-1,-1,-1],"loss_changes":[1.2035163E12,1.8122624E11,1.1383757E11,3.090119E10,1.4246347E11,1.1465218E11,1.2886532E11,2.3691477E10,1.7278364E10,1.09673775E11,5.7371525E9,6.28041E10,3.3454223E10,1.5138636E11,3.3587538E11,2.45074E10,0E0,1.1301315E10,0E0,8.920557E10,0E0,0E0,0E0,9.175841E10,3.4406134E10,0E0,2.0674945E10,6.7239313E10,9.0542785E10,6.848653E10,2.1645163E11,0E0,0E0,0E0,0E0,0E0,0E0,0E0,0E0,0E0,0E0,0E0,0E0,0E0,0E0,0E0,0E0,0E0,0E0,0E0,0E0],"parents":[2147483647,0,0,1,1,2,2,3,3,4,4,5,5,6,6,7,7,8,8,9,9,10,10,11,11,12,12,13,13,14,14,15,15,17,17,19,19,23,23,24,24,26,26,27,27,28,28,29,29,30,30],"right_children":[2,4,6,8,10,12,14,16,18,20,22,24,26,28,30,32,-1,34,-1,36,-1,-1,-1,38,40,-1,42,44,46,48,50,-1,-1,-1,-1,-1,-1,-1,-1,-1,-1,-1,-1,-1,-1,-1,-1,-1,-1,-1,-1],"split_conditions":[7E0,1E0,1.00244845E9,5E0,1E0,7.07E3,6.2E1,1E0,1E0,1E0,1.0026571E9,1.6E1,1.03068936E8,1E0,1E0,7.3E3,-5.4835874E3,4.93E3,7.039147E3,1E0,3.5473746E4,3.327734E4,8.6174E3,1.2E1,6.3E3,1.1317606E4,1.002298E9,2E1,4.796E3,1.4021824E9,1.0027868E9,7.0887812E3,7.1018085E2,-8.0771323E3,4.6026877E2,1.092245E4,-1.1813856E4,5.939235E3,2.5628287E4,-1.0780205E3,1.3479247E4,-3.0987031E3,3.9709656E3,-1.8901713E3,-4.991379E3,7.2888564E3,-1.61208E3,2.6409254E4,-9.472531E2,1.725994E4,-2.7455913E3],"split_indices":[1,41,0,1,36,2,1,23,32,6,0,1,0,19,37,2,0,2,0,12,0,0,0,1,2,0,0,1,2,0,0,0,0,0,0,0,0,0,0,0,0,0,0,0,0,0,0,0,0,0,0],"split_type":[0,0,0,0,0,0,0,0,0,0,0,0,0,0,0,0,0,0,0,0,0,0,0,0,0,0,0,0,0,0,0,0,0,0,0,0,0,0,0,0,0,0,0,0,0,0,0,0,0,0,0],"sum_hessian":[6.03E2,1.27E2,4.76E2,7E1,5.7E1,5.1E1,4.25E2,6.4E1,6E0,5.3E1,4E0,2E1,3.1E1,3.6E2,6.5E1,6.3E1,1E0,5E0,1E0,5.2E1,1E0,3E0,1E0,1.1E1,9E0,1E0,3E1,3.15E2,4.5E1,6E0,5.9E1,5.6E1,7E0,2E0,3E0,5.1E1,1E0,8E0,3E0,8E0,1E0,2.6E1,4E0,1.08E2,2.07E2,1.9E1,2.6E1,5E0,1E0,5E0,5.4E1],"tree_param":{"num_deleted":"0","num_feature":"46","num_nodes":"51","size_leaf_vector":"1"}},{"base_weights":[4.0903562E3,7.1207234E4,-2.0256283E4,3.8345914E4,1.17926625E5,-3.1054674E4,1.1155951E3,6.048353E4,7.173903E3,1.03034914E5,2.7899844E5,-1.2559158E4,-5.3798688E4,2.1515693E4,-4.696276E4,-2.5342719E4,6.413159E4,3.6802395E4,-2.9069738E4,9.1023086E4,3.0892654E4,3.0781537E4,8.1865312E3,9.1265875E4,-2.5984615E4,-4.576722E4,-7.318308E4,9.314111E3,2.2332305E5,-5.9103445E4,1.4270796E4,-5.2094097E3,1.4080016E3,7.058396E3,1.8207454E3,5.3670815E3,-9.354399E3,-4.0868228E3,4.747828E3,9.637031E3,-1.1223163E4,2.518161E4,-2.2046875E2,-2.0646467E3,-2.103272E4,-1.8594984E3,-5.359417E3,-6.7432446E2,-7.6786978E3,3.899869E3,-2.298378E3,4.0626168E4,3.0288328E3,-1.5339252E4,-3.9667578E3],"categories":[],"categories_nodes":[],"categories_segments":[],"categories_sizes":[],"default_left":[0,0,0,0,0,0,0,0,0,0,0,0,0,0,0,0,0,0,0,0,0,0,0,0,0,0,0,0,0,0,0,0,0,0,0,0,0,0,0,0,0,0,0,0,0,0,0,0,0,0,0,0,0,0,0],"id":23,"left_children":[1,3,5,7,9,11,13,15,17,19,21,23,25,27,29,31,33,35,37,39,-1,-1,-1,41,43,45,47,49,51,53,-1,-1,-1,-1,-1,-1,-1,-1,-1,-1,-1,-1,-1,-1,-1,-1,-1,-1,-1,-1,-1,-1,-1,-1,-1],"loss_changes":[9.884209E11,2.4265504E11,1.0250181E11,6.58132E10,1.2956323E11,1.2341972E11,1.4813092E11,1.9158827E10,4.5097456E10,1.2521492E11,3.2044483E9,2.3097087E11,1.720107E10,2.5893105E11,1.12057475E11,3.897323E9,1.4716109E10,5.5591535E10,1.9100221E10,7.602671E10,0E0,0E0,0E0,2.8568283E11,1.3932845E11,1.9420283E10,8.341586E9,9.773001E10,1.9957603E11,7.2716665E10,0E0,0E0,0E0,0E0,0E0,0E0,0E0,0E0,0E0,0E0,0E0,0E0,0E0,0E0,0E0,0E0,0E0,0E0,0E0,0E0,0E0,0E0,0E0,0E0,0E0],"parents":[2147483647,0,0,1,1,2,2,3,3,4,4,5,5,6,6,7,7,8,8,9,9,10,10,11,11,12,12,13,13,14,14,15,15,16,16,17,17,18,18,19,19,23,23,24,24,25,25,26,26,27,27,28,28,29,29],"right_children":[2,4,6,8,10,12,14,16,18,20,22,24,26,28,30,32,34,36,38,40,-1,-1,-1,42,44,46,48,50,52,54,-1,-1,-1,-1,-1,-1,-1,-1,-1,-1,-1,-1,-1,-1,-1,-1,-1,-1,-1,-1,-1,-1,-1,-1,-1],"split_conditions":[9E0,1E0,5.2E1,2.218E3,1E0,2.6E1,1E0,1E0,1E0,1E0,1.0026571E9,3.129E3,1E0,6.6E1,1E0,1.00253856E9,1E0,2E4,1E0,1E0,3.0892654E4,3.0781537E4,8.1865312E3,1E0,1E0,3E1,1.00124474E9,1E0,1.0027868E9,1.4019258E9,1.4270796E4,-5.2094097E3,1.4080016E3,7.058396E3,1.8207454E3,5.3670815E3,-9.354399E3,-4.0868228E3,4.747828E3,9.637031E3,-1.1223163E4,2.518161E4,-2.2046875E2,-2.0646467E3,-2.103272E4,-1.8594984E3,-5.359417E3,-6.7432446E2,-7.6786978E3,3.899869E3,-2.298378E3,4.0626168E4,3.0288328E3,-1.5339252E4,-3.9667578E3],"split_indices":[1,41,1,2,36,1,39,37,40,6,0,2,40,1,25,0,15,2,32,12,0,0,0,37,27,1,0,43,0,0,0,0,0,0,0,0,0,0,0,0,0,0,0,0,0,0,0,0,0,0,0,0,0,0,0],"split_type":[0,0,0,0,0,0,0,0,0,0,0,0,0,0,0,0,0,0,0,0,0,0,0,0,0,0,0,0,0,0,0,0,0,0,0,0,0,0,0,0,0,0,0,0,0,0,0,0,0,0,0,0,0,0,0],"sum_hessian":[6.03E2,1.6E2,4.43E2,9.5E1,6.5E1,2.94E2,1.49E2,5.5E1,4E1,6.1E1,4E0,1.63E2,1.31E2,1.05E2,4.4E1,2E0,5.3E1,2.2E1,1.8E1,5.9E1,2E0,3E0,1E0,1.8E1,1.45E2,9.5E1,3.6E1,1E2,5E0,4.2E1,2E0,1E0,1E0,4.6E1,7E0,2E1,2E0,1.6E1,2E0,5.8E1,1E0,6E0,1.2E1,1.42E2,3E0,2.2E1,7.3E1,2E0,3.4E1,5.2E1,4.8E1,2E0,3E0,6E0,3.6E1],"tree_param":{"num_deleted":"0","num_feature":"46","num_nodes":"55","size_leaf_vector":"1"}},{"base_weights":[3.841157E3,6.452147E4,-1.8170941E4,3.4529574E4,1.07168445E5,-1.372715E4,-6.396602E4,5.4525867E4,6.375384E3,9.320413E4,2.5889222E5,2.441862E4,-2.3904127E4,-1.2669327E4,-5.7151216E3,-2.4075572E4,5.7882875E4,3.29488E4,-2.6127984E4,8.189437E4,2.8833145E4,2.8472926E4,7.7772065E3,8.986939E3,1.5544667E5,-2.5572705E4,6.7958375E4,-4.9489375E3,1.3376016E3,6.573105E3,2.4936687E3,4.855931E3,-8.730772E3,6.4498003E3,-3.4745984E3,6.223804E3,1.5533317E4,2.0522566E4,-4.3938794E2,-1.1631438E3,2.048449E4,1.00731415E3,-3.0191719E3,1.1150878E4,-7.489683E3],"categories":[],"categories_nodes":[],"categories_segments":[],"categories_sizes":[],"default_left":[0,0,0,0,0,0,0,0,0,0,0,0,0,0,0,0,0,0,0,0,0,0,0,0,0,0,0,0,0,0,0,0,0,0,0,0,0,0,0,0,0,0,0,0,0],"id":24,"left_children":[1,3,5,7,9,11,13,15,17,19,21,23,25,-1,-1,27,29,31,33,35,-1,-1,-1,37,39,41,43,-1,-1,-1,-1,-1,-1,-1,-1,-1,-1,-1,-1,-1,-1,-1,-1,-1,-1],"loss_changes":[8.079358E11,2.0222876E11,8.9477595E10,5.3698396E10,1.1570558E11,1.581964E11,9.430811E9,1.6170041E10,3.6273635E10,1.1321157E11,1.2540641E9,1.7249357E11,5.0940707E10,0E0,0E0,3.517333E9,1.232352E10,4.741672E10,1.7080325E10,7.694464E10,0E0,0E0,0E0,2.0571683E11,7.66629E10,5.23331E10,4.5680067E10,0E0,0E0,0E0,0E0,0E0,0E0,0E0,0E0,0E0,0E0,0E0,0E0,0E0,0E0,0E0,0E0,0E0,0E0],"parents":[2147483647,0,0,1,1,2,2,3,3,4,4,5,5,6,6,7,7,8,8,9,9,10,10,11,11,12,12,15,15,16,16,17,17,18,18,19,19,23,23,24,24,25,25,26,26],"right_children":[2,4,6,8,10,12,14,16,18,20,22,24,26,-1,-1,28,30,32,34,36,-1,-1,-1,38,40,42,44,-1,-1,-1,-1,-1,-1,-1,-1,-1,-1,-1,-1,-1,-1,-1,-1,-1,-1],"split_conditions":[9E0,1E0,1E0,2.218E3,1E0,1E0,9.572E3,1E0,1E0,1E0,1.0026571E9,6.2E1,7E1,-1.2669327E4,-5.7151216E3,1.00253856E9,1E0,2E4,1E0,1E0,2.8833145E4,2.8472926E4,7.7772065E3,1.00174394E9,1.0014411E9,1.4E1,1E0,-4.9489375E3,1.3376016E3,6.573105E3,2.4936687E3,4.855931E3,-8.730772E3,6.4498003E3,-3.4745984E3,6.223804E3,1.5533317E4,2.0522566E4,-4.3938794E2,-1.1631438E3,2.048449E4,1.00731415E3,-3.0191719E3,1.1150878E4,-7.489683E3],"split_indices":[1,41,42,2,36,37,2,37,40,6,0,1,1,0,0,0,45,2,37,24,0,0,0,0,0,1,26,0,0,0,0,0,0,0,0,0,0,0,0,0,0,0,0,0,0],"split_type":[0,0,0,0,0,0,0,0,0,0,0,0,0,0,0,0,0,0,0,0,0,0,0,0,0,0,0,0,0,0,0,0,0,0,0,0,0,0,0,0,0,0,0,0,0],"sum_hessian":[6.03E2,1.6E2,4.43E2,9.5E1,6.5E1,4.05E2,3.8E1,5.5E1,4E1,6.1E1,4E0,8.5E1,3.2E2,2E0,3.6E1,2E0,5.3E1,2.2E1,1.8E1,5.9E1,2E0,3E0,1E0,7.7E1,8E0,3.15E2,5E0,1E0,1E0,4.2E1,1.1E1,2E1,2E0,1E0,1.7E1,4.8E1,1.1E1,4E0,7.3E1,2E0,6E0,3.6E1,2.79E2,4E0,1E0],"tree_param":{"num_deleted":"0","num_feature":"46","num_nodes":"45","size_leaf_vector":"1"}},{"base_weights":[3.6458916E3,5.8637004E4,-1.6302791E4,3.1124064E4,9.776738E4,-2.5777832E4,2.4401418E3,4.549581E4,-2.0103036E3,8.469972E4,2.4025303E4,-2.2804967E4,-1.4483219E5,2.1175299E4,-4.174579E4,4.839855E4,-3.2562209E4,6.576876E3,-8.148721E3,7.406757E4,2.6910936E4,-4.6741523E3,-4.5256562E4,-1.9393984E4,-5.9516484E3,9.934556E3,2.0686527E5,-5.2790957E4,1.30483545E4,5.0917817E3,-2.0638865E3,-8.2319375E3,3.3476062E3,4.6166084E3,-1.798191E3,5.6141294E3,1.4109425E4,-3.1184958E3,4.4243545E3,-5.181776E3,-2.4599211E3,4.0104025E2,1.5259268E4,3.811903E4,2.4405173E3,-1.3802526E4,-3.5238762E3],"categories":[],"categories_nodes":[],"categories_segments":[],"categories_sizes":[],"default_left":[0,0,0,0,0,0,0,0,0,0,0,0,0,0,0,0,0,0,0,0,0,0,0,0,0,0,0,0,0,0,0,0,0,0,0,0,0,0,0,0,0,0,0,0,0,0,0],"id":25,"left_children":[1,3,5,7,9,11,13,15,17,19,-1,21,23,25,27,29,31,33,-1,35,-1,37,39,-1,-1,41,43,45,-1,-1,-1,-1,-1,-1,-1,-1,-1,-1,-1,-1,-1,-1,-1,-1,-1,-1,-1],"loss_changes":[6.635441E11,1.7028835E11,7.891288E10,4.5806535E10,1.0253972E11,1.0110727E11,1.2505853E11,1.6756965E10,2.1010405E10,1.0162926E11,0E0,1.1743045E11,1.7784963E10,2.1919798E11,9.249194E10,1.2355928E10,1.2613361E10,2.8053514E10,0E0,6.4171147E10,0E0,2.1017215E11,1.6209576E10,0E0,0E0,8.474603E10,1.815412E11,5.9466277E10,0E0,0E0,0E0,0E0,0E0,0E0,0E0,0E0,0E0,0E0,0E0,0E0,0E0,0E0,0E0,0E0,0E0,0E0,0E0],"parents":[2147483647,0,0,1,1,2,2,3,3,4,4,5,5,6,6,7,7,8,8,9,9,11,11,12,12,13,13,14,14,15,15,16,16,17,17,19,19,21,21,22,22,25,25,26,26,27,27],"right_children":[2,4,6,8,10,12,14,16,18,20,-1,22,24,26,28,30,32,34,-1,36,-1,38,40,-1,-1,42,44,46,-1,-1,-1,-1,-1,-1,-1,-1,-1,-1,-1,-1,-1,-1,-1,-1,-1,-1,-1],"split_conditions":[9E0,1E0,5.2E1,4.77E3,1E0,1E0,1E0,1E0,2E4,1E0,2.4025303E4,2.6E1,1.00280326E9,6.6E1,1E0,1E0,1.00174394E9,1E0,-8.148721E3,1E0,2.6910936E4,1E0,4.3E1,-1.9393984E4,-5.9516484E3,1E0,1.0027868E9,1.4019258E9,1.30483545E4,5.0917817E3,-2.0638865E3,-8.2319375E3,3.3476062E3,4.6166084E3,-1.798191E3,5.6141294E3,1.4109425E4,-3.1184958E3,4.4243545E3,-5.181776E3,-2.4599211E3,4.0104025E2,1.5259268E4,3.811903E4,2.4405173E3,-1.3802526E4,-3.5238762E3],"split_indices":[1,41,1,2,36,27,39,33,2,6,0,1,0,1,25,19,0,34,0,24,0,41,1,0,0,19,0,0,0,0,0,0,0,0,0,0,0,0,0,0,0,0,0,0,0,0,0],"split_type":[0,0,0,0,0,0,0,0,0,0,0,0,0,0,0,0,0,0,0,0,0,0,0,0,0,0,0,0,0,0,0,0,0,0,0,0,0,0,0,0,0,0,0,0,0,0,0],"sum_hessian":[6.03E2,1.6E2,4.43E2,9.5E1,6.5E1,2.94E2,1.49E2,6.6E1,2.9E1,6.1E1,4E0,2.88E2,6E0,1.05E2,4.4E1,6.4E1,2E0,2.7E1,2E0,5.9E1,2E0,1.6E2,1.28E2,3E0,3E0,1E2,5E0,4.2E1,2E0,6.2E1,2E0,1E0,1E0,1E1,1.7E1,4.8E1,1.1E1,1.04E2,5.6E1,9.6E1,3.2E1,9.7E1,3E0,2E0,3E0,6E0,3.6E1],"tree_param":{"num_deleted":"0","num_feature":"46","num_nodes":"47","size_leaf_vector":"1"}},{"base_weights":[3.419936E3,5.316755E4,-1.4626879E4,2.7936793E4,8.9061266E4,-1.0712428E4,-5.5002277E4,4.091852E4,-1.9869526E3,1.2540105E5,4.653146E4,2.271344E4,-1.9634271E4,-1.1616807E4,-4.8556344E4,2.6951613E4,5.8290613E4,6.0198438E3,-7.6054736E3,1.782841E5,4.3004727E4,-1.4829254E4,1.0154558E5,8.619415E3,1.4233794E5,-2.1121154E4,6.1947266E4,-3.5895325E3,-5.3197817E3,2.0267754E3,1.0040202E4,1.2843031E3,7.2167437E3,-2.2342674E2,1.1444042E4,9.619729E3,5.031037E4,2.4934342E4,-7.9199524E2,-1.0590507E4,1.4334784E3,3.1057E4,6.9070933E3,1.87994E4,-3.616968E2,-1.1123396E3,1.8777309E4,1.1343978E3,-2.533576E3,1.0209273E4,-6.939005E3],"categories":[],"categories_nodes":[],"categories_segments":[],"categories_sizes":[],"default_left":[0,0,0,0,0,0,0,0,0,0,0,0,0,0,0,0,0,0,0,0,0,0,0,0,0,0,0,0,0,0,0,0,0,0,0,0,0,0,0,0,0,0,0,0,0,0,0,0,0,0,0],"id":26,"left_children":[1,3,5,7,9,11,13,15,17,19,21,23,25,-1,27,29,31,33,-1,35,37,39,41,43,45,47,49,-1,-1,-1,-1,-1,-1,-1,-1,-1,-1,-1,-1,-1,-1,-1,-1,-1,-1,-1,-1,-1,-1,-1,-1],"loss_changes":[5.4304037E11,1.4331766E11,6.958391E10,3.737364E10,9.616943E10,1.2152343E11,9.735856E9,1.4685487E10,1.8249208E10,1.4484085E11,1.09528424E11,1.437683E11,4.0246403E10,0E0,2.6479002E8,1.7111433E10,1.7362526E10,2.5313325E10,0E0,5.115343E11,1.5959076E11,4.4016337E10,9.394456E10,1.7188187E11,6.4841515E10,4.352493E10,3.8719816E10,0E0,0E0,0E0,0E0,0E0,0E0,0E0,0E0,0E0,0E0,0E0,0E0,0E0,0E0,0E0,0E0,0E0,0E0,0E0,0E0,0E0,0E0,0E0,0E0],"parents":[2147483647,0,0,1,1,2,2,3,3,4,4,5,5,6,6,7,7,8,8,9,9,10,10,11,11,12,12,14,14,15,15,16,16,17,17,19,19,20,20,21,21,22,22,23,23,24,24,25,25,26,26],"right_children":[2,4,6,8,10,12,14,16,18,20,22,24,26,-1,28,30,32,34,-1,36,38,40,42,44,46,48,50,-1,-1,-1,-1,-1,-1,-1,-1,-1,-1,-1,-1,-1,-1,-1,-1,-1,-1,-1,-1,-1,-1,-1,-1],"split_conditions":[9E0,1E0,1E0,4.77E3,2E2,1E0,9.572E3,1E0,2E4,1.0024589E9,1.0027293E9,6.2E1,7E1,-1.1616807E4,1.56E4,1E0,1.00251674E9,1.9541E4,-7.6054736E3,1.0022776E9,1E0,6.5E2,1.0027574E9,1.00174394E9,1.0014411E9,1.4E1,1E0,-3.5895325E3,-5.3197817E3,2.0267754E3,1.0040202E4,1.2843031E3,7.2167437E3,-2.2342674E2,1.1444042E4,9.619729E3,5.031037E4,2.4934342E4,-7.9199524E2,-1.0590507E4,1.4334784E3,3.1057E4,6.9070933E3,1.87994E4,-3.616968E2,-1.1123396E3,1.8777309E4,1.1343978E3,-2.533576E3,1.0209273E4,-6.939005E3],"split_indices":[1,41,42,2,2,37,2,24,2,0,0,1,1,0,2,14,0,2,0,0,34,2,0,0,0,1,26,0,0,0,0,0,0,0,0,0,0,0,0,0,0,0,0,0,0,0,0,0,0,0,0],"split_type":[0,0,0,0,0,0,0,0,0,0,0,0,0,0,0,0,0,0,0,0,0,0,0,0,0,0,0,0,0,0,0,0,0,0,0,0,0,0,0,0,0,0,0,0,0,0,0,0,0,0,0],"sum_hessian":[6.03E2,1.6E2,4.43E2,9.5E1,6.5E1,4.05E2,3.8E1,6.6E1,2.9E1,3.4E1,3.1E1,8.5E1,3.2E2,2E0,3.6E1,3.8E1,2.8E1,2.7E1,2E0,2E1,1.4E1,1.5E1,1.6E1,7.7E1,8E0,3.15E2,5E0,1.2E1,2.4E1,3.6E1,2E0,7E0,2.1E1,2.6E1,1E0,1.7E1,3E0,2E0,1.2E1,3E0,1.2E1,1E0,1.5E1,4E0,7.3E1,2E0,6E0,3.6E1,2.79E2,4E0,1E0],"tree_param":{"num_deleted":"0","num_feature":"46","num_nodes":"51","size_leaf_vector":"1"}},{"base_weights":[3.3337517E3,4.8702117E4,-1.3124898E4,2.5395031E4,8.186542E4,7.200528E3,-2.0419318E4,3.713366E4,-1.6677433E3,1.15263E5,4.2778527E4,1.5105414E3,3.364645E4,-2.6077832E4,4.683013E3,3.9766324E4,-3.2285271E4,5.818606E3,-7.0984424E3,1.6330947E5,4.0313742E4,-3.4438637E4,8.486555E4,7.487887E4,-1.6268217E4,-2.0599893E4,-7.0324375E4,-1.3224922E4,2.0789688E5,5.4488687E3,2.7871787E3,-7.921678E3,3.0788875E3,-1.2034214E3,5.1954937E3,8.711196E3,4.6537094E4,2.327205E4,-7.188875E2,-9.482452E3,7.6073676E2,-8.0385974E2,1.4265569E4,-3.6482292E3,1.3670364E4,8.589988E3,-2.2898665E3,-2.6023503E3,1.0620319E4,-1.7190648E4,-5.643287E3,-3.1264795E3,3.9371042E3,5.8409907E3,2.3066615E4],"categories":[],"categories_nodes":[],"categories_segments":[],"categories_sizes":[],"default_left":[0,0,0,0,0,0,0,0,0,0,0,0,0,0,0,0,0,0,0,0,0,0,0,0,0,0,0,0,0,0,0,0,0,0,0,0,0,0,0,0,0,0,0,0,0,0,0,0,0,0,0,0,0,0,0],"id":27,"left_children":[1,3,5,7,9,11,13,15,17,19,21,23,-1,25,27,29,31,33,-1,35,37,39,41,43,45,47,49,51,53,-1,-1,-1,-1,-1,-1,-1,-1,-1,-1,-1,-1,-1,-1,-1,-1,-1,-1,-1,-1,-1,-1,-1,-1,-1,-1],"loss_changes":[4.5164724E11,1.22364396E11,6.597545E10,3.0559203E10,8.122614E10,2.2056562E11,4.6569824E10,1.3528564E10,1.5980897E10,1.1945309E11,1.06917536E11,1.5383267E11,0E0,6.3266767E10,2.24737E11,9.863823E9,1.131949E10,2.3687817E10,0E0,4.4280355E11,1.3877037E11,3.118918E10,1.13894556E11,1.6333944E11,6.6321916E10,1.6713143E11,3.1221547E10,5.531393E10,3.5453501E9,0E0,0E0,0E0,0E0,0E0,0E0,0E0,0E0,0E0,0E0,0E0,0E0,0E0,0E0,0E0,0E0,0E0,0E0,0E0,0E0,0E0,0E0,0E0,0E0,0E0,0E0],"parents":[2147483647,0,0,1,1,2,2,3,3,4,4,5,5,6,6,7,7,8,8,9,9,10,10,11,11,13,13,14,14,15,15,16,16,17,17,19,19,20,20,21,21,22,22,23,23,24,24,25,25,26,26,27,27,28,28],"right_children":[2,4,6,8,10,12,14,16,18,20,22,24,-1,26,28,30,32,34,-1,36,38,40,42,44,46,48,50,52,54,-1,-1,-1,-1,-1,-1,-1,-1,-1,-1,-1,-1,-1,-1,-1,-1,-1,-1,-1,-1,-1,-1,-1,-1,-1,-1],"split_conditions":[9E0,1E0,1.0027868E9,4.77E3,2E2,1.00278637E9,6.2E1,1E0,2E4,1.0024589E9,1E0,2.969E3,3.364645E4,5.9E1,1E0,1.00261926E9,1.00174394E9,1.1787E4,-7.0984424E3,1.0022776E9,1E0,1.002305E9,8.63E2,2E0,1.0008454E9,5.7E1,1.0028786E9,1.4022048E9,1.0028217E9,5.4488687E3,2.7871787E3,-7.921678E3,3.0788875E3,-1.2034214E3,5.1954937E3,8.711196E3,4.6537094E4,2.327205E4,-7.188875E2,-9.482452E3,7.6073676E2,-8.0385974E2,1.4265569E4,-3.6482292E3,1.3670364E4,8.589988E3,-2.2898665E3,-2.6023503E3,1.0620319E4,-1.7190648E4,-5.643287E3,-3.1264795E3,3.9371042E3,5.8409907E3,2.3066615E4],"split_indices":[1,41,0,2,2,0,1,33,2,0,19,2,0,1,41,0,0,2,0,0,34,0,2,2,0,1,0,0,0,0,0,0,0,0,0,0,0,0,0,0,0,0,0,0,0,0,0,0,0,0,0,0,0,0,0],"split_type":[0,0,0,0,0,0,0,0,0,0,0,0,0,0,0,0,0,0,0,0,0,0,0,0,0,0,0,0,0,0,0,0,0,0,0,0,0,0,0,0,0,0,0,0,0,0,0,0,0,0,0,0,0,0,0],"sum_hessian":[6.03E2,1.6E2,4.43E2,9.5E1,6.5E1,1.17E2,3.26E2,6.6E1,2.9E1,3.4E1,3.1E1,1.16E2,1E0,2.66E2,6E1,6.4E1,2E0,2.7E1,2E0,2E1,1.4E1,1.1E1,2E1,2.2E1,9.4E1,2.38E2,2.8E1,5.6E1,4E0,2.7E1,3.7E1,1E0,1E0,2E1,7E0,1.7E1,3E0,2E0,1.2E1,4E0,7E0,8E0,1.2E1,8E0,1.4E1,5E0,8.9E1,2.29E2,9E0,2E0,2.6E1,4.2E1,1.4E1,1E0,3E0],"tree_param":{"num_deleted":"0","num_feature":"46","num_nodes":"55","size_leaf_vector":"1"}},{"base_weights":[3.2449092E3,6.722124E4,-6.510046E3,6.0869188E4,2.8451676E4,-1.2196218E4,3.614953E4,3.0701293E4,9.4284055E4,1.4718762E4,-1.7096172E4,8.628043E4,8.368325E3,-1.9438027E4,6.423231E4,3.2214394E5,6.4703953E4,7.533691E3,1.3498155E5,-2.3789844E4,1.6428375E4,1.1995522E4,1.5947484E5,7.914088E2,1.557225E4,9.3479004E2,-1.2252575E4,1.7389807E4,5.830976E2,9.299226E3,3.6753043E4,-1.0542094E3,7.23259E3,-1.51444E2,8.7890625E3,1.5245687E4,4.1277812E3,-9.6998926E2,-3.2196497E3,1.6313247E4,-9.6090996E1,-5.773814E2,1.0372911E4,2.4775785E4,-5.695988E3,-3.5460945E3,1.7594594E3],"categories":[],"categories_nodes":[],"categories_segments":[],"categories_sizes":[],"default_left":[0,0,0,0,0,0,0,0,0,0,0,0,0,0,0,0,0,0,0,0,0,0,0,0,0,0,0,0,0,0,0,0,0,0,0,0,0,0,0,0,0,0,0,0,0,0,0],"id":28,"left_children":[1,3,5,7,-1,9,11,13,15,17,19,21,23,25,27,29,31,33,35,37,39,41,43,45,-1,-1,-1,-1,-1,-1,-1,-1,-1,-1,-1,-1,-1,-1,-1,-1,-1,-1,-1,-1,-1,-1,-1],"loss_changes":[3.7738568E11,9.310352E10,1.2778996E11,7.67418E10,0E0,6.1444964E10,8.562517E10,7.354112E10,2.2854042E11,6.1198053E10,8.858091E10,1.1770631E11,4.565286E10,5.4559924E10,1.6550627E11,7.424082E9,2.0262191E10,5.030163E10,2.569257E8,3.8539084E10,1.6852799E11,2.0159453E10,2.2429483E11,2.4990124E10,0E0,0E0,0E0,0E0,0E0,0E0,0E0,0E0,0E0,0E0,0E0,0E0,0E0,0E0,0E0,0E0,0E0,0E0,0E0,0E0,0E0,0E0,0E0],"parents":[2147483647,0,0,1,1,2,2,3,3,5,5,6,6,7,7,8,8,9,9,10,10,11,11,12,12,13,13,14,14,15,15,16,16,17,17,18,18,19,19,20,20,21,21,22,22,23,23],"right_children":[2,4,6,8,-1,10,12,14,16,18,20,22,24,26,28,30,32,34,36,38,40,42,44,46,-1,-1,-1,-1,-1,-1,-1,-1,-1,-1,-1,-1,-1,-1,-1,-1,-1,-1,-1,-1,-1,-1,-1],"split_conditions":[2E0,1E0,1E0,1E0,2.8451676E4,1.00253395E9,2.218E3,1.0022776E9,1.002269E9,1E0,6.2E1,8.63E2,3.9E1,1E0,1.0026571E9,1E0,1.00237824E9,1E0,1.002305E9,2E1,1E0,1E0,1.0028868E9,1E0,1.557225E4,9.3479004E2,-1.2252575E4,1.7389807E4,5.830976E2,9.299226E3,3.6753043E4,-1.0542094E3,7.23259E3,-1.51444E2,8.7890625E3,1.5245687E4,4.1277812E3,-9.6998926E2,-3.2196497E3,1.6313247E4,-9.6090996E1,-5.773814E2,1.0372911E4,2.4775785E4,-5.695988E3,-3.5460945E3,1.7594594E3],"split_indices":[1,6,19,24,0,0,2,0,0,16,1,2,1,15,0,7,0,14,0,1,37,40,0,41,0,0,0,0,0,0,0,0,0,0,0,0,0,0,0,0,0,0,0,0,0,0,0],"split_type":[0,0,0,0,0,0,0,0,0,0,0,0,0,0,0,0,0,0,0,0,0,0,0,0,0,0,0,0,0,0,0,0,0,0,0,0,0,0,0,0,0,0,0,0,0,0,0],"sum_hessian":[6.03E2,7.9E1,5.24E2,7.8E1,1E0,4.63E2,6.1E1,4.2E1,3.6E1,7.1E1,3.92E2,2.1E1,4E1,1.7E1,2.5E1,3E0,3.3E1,6.8E1,3E0,3.27E2,6.5E1,1.1E1,1E1,3.9E1,1E0,1.4E1,3E0,8E0,1.7E1,1E0,2E0,3E0,3E1,6.2E1,6E0,2E0,1E0,1.23E2,2.04E2,6E0,5.9E1,1E1,1E0,7E0,3E0,1.2E1,2.7E1],"tree_param":{"num_deleted":"0","num_feature":"46","num_nodes":"47","size_leaf_vector":"1"}},{"base_weights":[3.2019397E3,6.1590832E4,-5.7015146E3,5.5527656E4,2.7029094E4,-1.0890302E4,3.322266E4,2.7785945E4,8.626727E4,1.5406415E4,-1.5060126E4,7.896491E4,7.8677324E3,4.4321203E4,-6.3584125E4,3.0144262E5,5.8415254E4,7.880386E3,1.2632676E4,-2.0926111E4,1.5031251E4,1.1612259E4,1.4526189E5,6.676068E2,1.4793638E4,2.2964175E3,1.0821372E4,1.9587594E3,-1.3085981E4,8.834263E3,3.430284E4,4.0639265E3,9.70137E3,1.1328713E3,-9.950963E3,-7.4433777E2,-2.9187393E3,1.23327065E2,1.8311998E4,-1.9606266E3,5.923945E3,2.2607904E4,-5.2687876E3,4.6262764E3,-1.0405995E3],"categories":[],"categories_nodes":[],"categories_segments":[],"categories_sizes":[],"default_left":[0,0,0,0,0,0,0,0,0,0,0,0,0,0,0,0,0,0,0,0,0,0,0,0,0,0,0,0,0,0,0,0,0,0,0,0,0,0,0,0,0,0,0,0,0],"id":29,"left_children":[1,3,5,7,-1,9,11,13,15,17,19,21,23,25,27,29,31,33,-1,35,37,39,41,43,-1,-1,-1,-1,-1,-1,-1,-1,-1,-1,-1,-1,-1,-1,-1,-1,-1,-1,-1,-1,-1],"loss_changes":[3.1434834E11,8.622224E10,1.0639568E11,6.4971784E10,0E0,5.1110875E10,7.12858E10,6.7783713E10,2.0413468E11,5.243104E10,7.109728E10,9.654929E10,4.1250222E10,4.8003473E10,4.1731273E10,5.143724E9,1.9385696E10,2.3716583E10,0E0,3.7207982E10,1.5284696E11,1.9003673E10,1.8788673E11,2.0677513E10,0E0,0E0,0E0,0E0,0E0,0E0,0E0,0E0,0E0,0E0,0E0,0E0,0E0,0E0,0E0,0E0,0E0,0E0,0E0,0E0,0E0],"parents":[2147483647,0,0,1,1,2,2,3,3,5,5,6,6,7,7,8,8,9,9,10,10,11,11,12,12,13,13,14,14,15,15,16,16,17,17,19,19,20,20,21,21,22,22,23,23],"right_children":[2,4,6,8,-1,10,12,14,16,18,20,22,24,26,28,30,32,34,-1,36,38,40,42,44,-1,-1,-1,-1,-1,-1,-1,-1,-1,-1,-1,-1,-1,-1,-1,-1,-1,-1,-1,-1,-1],"split_conditions":[2E0,1E0,1E0,1E0,2.7029094E4,1.00244845E9,2.218E3,1E0,1.002269E9,1E0,6.2E1,8.63E2,3.9E1,1E0,1E0,1E0,1E0,1E0,1.2632676E4,2E1,1E0,1.0028516E9,1.0028868E9,1E1,1.4793638E4,2.2964175E3,1.0821372E4,1.9587594E3,-1.3085981E4,8.834263E3,3.430284E4,4.0639265E3,9.70137E3,1.1328713E3,-9.950963E3,-7.4433777E2,-2.9187393E3,1.23327065E2,1.8311998E4,-1.9606266E3,5.923945E3,2.2607904E4,-5.2687876E3,4.6262764E3,-1.0405995E3],"split_indices":[1,6,19,24,0,0,2,7,0,16,1,2,1,23,34,7,41,7,0,1,41,0,0,1,0,0,0,0,0,0,0,0,0,0,0,0,0,0,0,0,0,0,0,0,0],"split_type":[0,0,0,0,0,0,0,0,0,0,0,0,0,0,0,0,0,0,0,0,0,0,0,0,0,0,0,0,0,0,0,0,0,0,0,0,0,0,0,0,0,0,0,0,0],"sum_hessian":[6.03E2,7.9E1,5.24E2,7.8E1,1E0,4.63E2,6.1E1,4.2E1,3.6E1,6.3E1,4E2,2.1E1,4E1,3.6E1,6E0,3E0,3.3E1,6E1,3E0,3.35E2,6.5E1,1.1E1,1E1,3.9E1,1E0,2.8E1,8E0,3E0,3E0,1E0,2E0,2.4E1,9E0,5.9E1,1E0,1.28E2,2.07E2,6.1E1,4E0,7E0,4E0,7E0,3E0,7E0,3.2E1],"tree_param":{"num_deleted":"0","num_feature":"46","num_nodes":"45","size_leaf_vector":"1"}},{"base_weights":[3.120476E3,3.782995E4,-9.4726455E3,3.4204312E4,2.1737873E4,-7.1744146E3,-6.677677E4,4.9411453E4,9.615541E3,-3.2745571E3,-4.598903E4,-8.772536E4,1.3420036E4,4.0911984E4,1.5405997E5,-8.494861E4,2.3195498E4,2.878211E4,-1.1380974E4,-1.056499E4,-3.990872E4,-1.7654682E4,-5.3647582E4,1.8345989E3,7.5505034E3,2.8160328E4,-1.1998336E3,-1.2798844E4,-9.911672E2,8.652715E3,1.057464E3,9.389589E3,1.2053947E3,-2.6360442E3,7.210661E2,-2.8714338E3,-4.4133447E3,-6.099066E3,1.7234657E3],"categories":[],"categories_nodes":[],"categories_segments":[],"categories_sizes":[],"default_left":[0,0,0,0,0,0,0,0,0,0,0,0,0,0,0,0,0,0,0,0,0,0,0,0,0,0,0,0,0,0,0,0,0,0,0,0,0,0,0],"id":30,"left_children":[1,3,5,7,-1,9,11,13,15,17,19,21,-1,23,25,27,29,31,33,-1,35,-1,37,-1,-1,-1,-1,-1,-1,-1,-1,-1,-1,-1,-1,-1,-1,-1,-1],"loss_changes":[2.6436714E11,9.737226E10,5.799487E10,5.8978943E10,0E0,6.4636396E10,8.334598E10,8.086387E10,8.158941E10,1.016748E11,9.93117E9,3.8958096E10,0E0,7.043244E10,1.5163615E11,2.4568037E10,4.3046494E10,8.491765E10,8.707982E10,0E0,4.8258662E8,0E0,7.817568E9,0E0,0E0,0E0,0E0,0E0,0E0,0E0,0E0,0E0,0E0,0E0,0E0,0E0,0E0,0E0,0E0],"parents":[2147483647,0,0,1,1,2,2,3,3,5,5,6,6,7,7,8,8,9,9,10,10,11,11,13,13,14,14,15,15,16,16,17,17,18,18,20,20,22,22],"right_children":[2,4,6,8,-1,10,12,14,16,18,20,22,-1,24,26,28,30,32,34,-1,36,-1,38,-1,-1,-1,-1,-1,-1,-1,-1,-1,-1,-1,-1,-1,-1,-1,-1],"split_conditions":[9E0,1E0,1E0,1.198E3,2.1737873E4,1E0,1E0,8.63E2,1.959E3,1.8E1,9.572E3,1.00280326E9,1.3420036E4,1E0,1.00276666E9,1.0026514E9,2.218E3,3.129E3,5.2E1,-1.056499E4,1.56E4,-1.7654682E4,6.9E1,1.8345989E3,7.5505034E3,2.8160328E4,-1.1998336E3,-1.2798844E4,-9.911672E2,8.652715E3,1.057464E3,9.389589E3,1.2053947E3,-2.6360442E3,7.210661E2,-2.8714338E3,-4.4133447E3,-6.099066E3,1.7234657E3],"split_indices":[1,6,27,2,0,42,40,2,2,1,2,0,0,24,0,0,2,2,1,0,2,0,1,0,0,0,0,0,0,0,0,0,0,0,0,0,0,0,0],"split_type":[0,0,0,0,0,0,0,0,0,0,0,0,0,0,0,0,0,0,0,0,0,0,0,0,0,0,0,0,0,0,0,0,0,0,0,0,0,0,0],"sum_hessian":[6.03E2,1.6E2,4.43E2,1.58E2,2E0,4.27E2,1.6E1,9.7E1,6.1E1,3.89E2,3.8E1,1.5E1,1E0,9.1E1,6E0,7E0,5.4E1,7.8E1,3.11E2,2E0,3.6E1,3E0,1.2E1,5.6E1,3.5E1,3E0,3E0,4E0,3E0,8E0,4.6E1,1.5E1,6.3E1,1.72E2,1.39E2,1.2E1,2.4E1,1.1E1,1E0],"tree_param":{"num_deleted":"0","num_feature":"46","num_nodes":"39","size_leaf_vector":"1"}},{"base_weights":[2.868401E3,5.1663195E4,-4.57246E3,4.6091652E4,2.4590744E4,-9.075556E3,2.9201879E4,3.604514E4,1.20226195E5,-6.338078E3,-4.3510184E4,6.760053E4,7.885482E3,7.171483E4,1.3842323E4,3.496775E4,1.814394E5,1.8761777E4,-1.1678671E4,-9.860657E3,-3.6985203E4,-6.4928877E3,1.1939543E5,1.0736676E3,1.4017903E4,3.3857712E3,3.632859E4,-9.120179E3,2.084907E3,4.123072E3,4.9579376E2,2.0390193E4,4.5794624E3,1.0544981E4,5.543238E2,4.6258322E2,-1.6969071E3,-2.5544966E3,-4.1024175E3,1.0248872E4,-6.784054E3,2.5019719E4,6.369684E2,-3.0673992E3,1.5775306E3],"categories":[],"categories_nodes":[],"categories_segments":[],"categories_sizes":[],"default_left":[0,0,0,0,0,0,0,0,0,0,0,0,0,0,0,0,0,0,0,0,0,0,0,0,0,0,0,0,0,0,0,0,0,0,0,0,0,0,0,0,0,0,0,0,0],"id":31,"left_children":[1,3,5,7,-1,9,11,13,15,17,19,21,23,25,27,29,31,33,35,-1,37,39,41,43,-1,-1,-1,-1,-1,-1,-1,-1,-1,-1,-1,-1,-1,-1,-1,-1,-1,-1,-1,-1,-1],"loss_changes":[2.1953369E11,7.524488E10,8.01118E10,5.450516E10,0E0,4.3462738E10,5.0215227E10,5.5237E10,4.0625955E10,5.7993847E10,8.5761106E9,8.520377E10,3.6797014E10,2.85727E11,3.502225E10,7.353334E8,5.897011E9,8.650303E10,3.0786118E10,0E0,4.3066163E8,7.381054E10,1.9059787E11,1.9153594E10,0E0,0E0,0E0,0E0,0E0,0E0,0E0,0E0,0E0,0E0,0E0,0E0,0E0,0E0,0E0,0E0,0E0,0E0,0E0,0E0,0E0],"parents":[2147483647,0,0,1,1,2,2,3,3,5,5,6,6,7,7,8,8,9,9,10,10,11,11,12,12,13,13,14,14,15,15,16,16,17,17,18,18,20,20,21,21,22,22,23,23],"right_children":[2,4,6,8,-1,10,12,14,16,18,20,22,24,26,28,30,32,34,36,-1,38,40,42,44,-1,-1,-1,-1,-1,-1,-1,-1,-1,-1,-1,-1,-1,-1,-1,-1,-1,-1,-1,-1,-1],"split_conditions":[2E0,1E0,1E0,1E0,2.4590744E4,1E0,2.218E3,1.0024589E9,1E0,1E0,9.572E3,1.0027293E9,3.9E1,1.00237824E9,1.00249363E9,1E0,1.0026571E9,1.00232634E9,1.4E1,-9.860657E3,1.56E4,1.00229005E9,1.0028868E9,1E0,1.4017903E4,3.3857712E3,3.632859E4,-9.120179E3,2.084907E3,4.123072E3,4.9579376E2,2.0390193E4,4.5794624E3,1.0544981E4,5.543238E2,4.6258322E2,-1.6969071E3,-2.5544966E3,-4.1024175E3,1.0248872E4,-6.784054E3,2.5019719E4,6.369684E2,-3.0673992E3,1.5775306E3],"split_indices":[1,6,19,36,0,42,2,0,41,37,2,0,1,0,0,12,0,0,1,0,2,0,0,41,0,0,0,0,0,0,0,0,0,0,0,0,0,0,0,0,0,0,0,0,0],"split_type":[0,0,0,0,0,0,0,0,0,0,0,0,0,0,0,0,0,0,0,0,0,0,0,0,0,0,0,0,0,0,0,0,0,0,0,0,0,0,0,0,0,0,0,0,0],"sum_hessian":[6.03E2,7.9E1,5.24E2,7.8E1,1E0,4.63E2,6.1E1,7E1,8E0,4.3E2,3.3E1,2.1E1,4E1,2.6E1,4.4E1,4E0,4E0,7.5E1,3.55E2,2E0,3.1E1,9E0,1.2E1,3.9E1,1E0,2.4E1,2E0,2E0,4.2E1,3E0,1E0,3E0,1E0,9E0,6.6E1,8.7E1,2.68E2,1E1,2.1E1,3E0,6E0,5E0,7E0,1.2E1,2.7E1],"tree_param":{"num_deleted":"0","num_feature":"46","num_nodes":"45","size_leaf_vector":"1"}},{"base_weights":[2.7833108E3,4.758262E4,-4.0485525E3,4.2270703E4,2.3361207E4,-8.182337E3,2.6953457E4,3.2900918E4,1.1149116E5,-1.0671626E4,2.6931654E4,6.2164168E4,7.402504E3,6.48478E3,6.145716E4,3.2394738E4,1.6828934E5,1.3228089E4,-1.5070833E4,6.488338E3,3.2011557E4,-5.49715E3,1.0942948E5,9.290619E2,1.331701E4,-4.584497E3,4.260614E3,2.7388045E4,3.2065217E3,3.813839E3,4.7100626E2,1.8860926E4,4.350488E3,6.9318207E2,1.1223544E4,-5.0590005E3,-1.1987864E3,-2.0503337E3,8.327836E3,9.480206E3,-6.202568E3,2.2934742E4,5.812336E2,-2.7842544E3,1.4254127E3],"categories":[],"categories_nodes":[],"categories_segments":[],"categories_sizes":[],"default_left":[0,0,0,0,0,0,0,0,0,0,0,0,0,0,0,0,0,0,0,0,0,0,0,0,0,0,0,0,0,0,0,0,0,0,0,0,0,0,0,0,0,0,0,0,0],"id":32,"left_children":[1,3,5,7,-1,9,11,13,15,17,19,21,23,25,27,29,31,33,35,37,-1,39,41,43,-1,-1,-1,-1,-1,-1,-1,-1,-1,-1,-1,-1,-1,-1,-1,-1,-1,-1,-1,-1,-1],"loss_changes":[1.8505454E11,6.91789E10,6.7502248E10,4.756973E10,0E0,4.0845115E10,4.2220814E10,5.316001E10,3.498112E10,4.583003E10,1.8372618E11,7.095827E10,3.325639E10,7.378169E10,2.0349808E11,6.1542144E8,4.4726026E9,4.1611633E10,3.9581696E10,6.388823E10,0E0,6.257783E10,1.6019916E11,1.5732212E10,0E0,0E0,0E0,0E0,0E0,0E0,0E0,0E0,0E0,0E0,0E0,0E0,0E0,0E0,0E0,0E0,0E0,0E0,0E0,0E0,0E0],"parents":[2147483647,0,0,1,1,2,2,3,3,5,5,6,6,7,7,8,8,9,9,10,10,11,11,12,12,13,13,14,14,15,15,16,16,17,17,18,18,19,19,21,21,22,22,23,23],"right_children":[2,4,6,8,-1,10,12,14,16,18,20,22,24,26,28,30,32,34,36,38,-1,40,42,44,-1,-1,-1,-1,-1,-1,-1,-1,-1,-1,-1,-1,-1,-1,-1,-1,-1,-1,-1,-1,-1],"split_conditions":[2E0,1E0,1E0,1E0,2.3361207E4,1E0,2.218E3,1E0,1E0,1.00253395E9,6.6E1,1.0027293E9,3.9E1,1.0022776E9,1.002269E9,1E0,1.0026571E9,1E0,1.0027112E9,1.4021861E9,3.2011557E4,1.00229005E9,1.0028868E9,1E0,1.331701E4,-4.584497E3,4.260614E3,2.7388045E4,3.2065217E3,3.813839E3,4.7100626E2,1.8860926E4,4.350488E3,6.9318207E2,1.1223544E4,-5.0590005E3,-1.1987864E3,-2.0503337E3,8.327836E3,9.480206E3,-6.202568E3,2.2934742E4,5.812336E2,-2.7842544E3,1.4254127E3],"split_indices":[1,6,19,36,0,22,2,24,41,0,1,0,1,0,0,12,0,16,0,0,0,0,0,41,0,0,0,0,0,0,0,0,0,0,0,0,0,0,0,0,0,0,0,0,0],"split_type":[0,0,0,0,0,0,0,0,0,0,0,0,0,0,0,0,0,0,0,0,0,0,0,0,0,0,0,0,0,0,0,0,0,0,0,0,0,0,0,0,0,0,0,0,0],"sum_hessian":[6.03E2,7.9E1,5.24E2,7.8E1,1E0,4.63E2,6.1E1,7E1,8E0,4.33E2,3E1,2.1E1,4E1,3.7E1,3.3E1,4E0,4E0,6.7E1,3.66E2,2.9E1,1E0,9E0,1.2E1,3.9E1,1E0,1.5E1,2.2E1,3E0,3E1,3E0,1E0,3E0,1E0,6.4E1,3E0,2.8E1,3.38E2,2.2E1,7E0,3E0,6E0,5E0,7E0,1.2E1,2.7E1],"tree_param":{"num_deleted":"0","num_feature":"46","num_nodes":"45","size_leaf_vector":"1"}},{"base_weights":[2.7762168E3,2.9630576E4,-6.9677656E3,2.6495707E4,1.8590183E5,-4.909276E3,-5.8383395E4,1.296717E4,4.6374516E4,2.2193145E4,5.6921313E3,-1.3411462E4,8.590629E3,-7.814963E4,1.2893819E4,1.5327857E4,-6.5323423E3,3.6457598E4,1.5610266E5,-1.973634E4,2.4557846E4,8.586871E4,-1.9818363E3,-1.6270971E4,-4.6119637E4,6.0678986E2,3.5873699E3,4.1005923E3,-1.1594682E4,1.744635E4,4.1329624E3,9.342558E2,-2.3237507E3,-1.8378589E2,1.6564125E4,1.4791231E4,-6.397045E2,-1.011289E3,9.033526E3,-5.293307E3,