{"learner":{"attributes":{},"feature_names":["deal_id","age","mileage","has_service_book","is_newly_serviced","has_timing_belt_replaced","has_brakes_replaced","has_authorized_service","winter_tires_included","seller_type_Företag","seller_type_Privat","location_region_Blekinge","location_region_Dalarna","location_region_Gävleborg","location_region_Göteborg","location_region_Halland","location_region_Jämtland","location_region_Jönköping","location_region_Kalmar","location_region_Kronoberg","location_region_Norrbotten","location_region_Skaraborg","location_region_Skåne","location_region_Stockholm","location_region_Södermanland","location_region_Uppsala","location_region_Värmland","location_region_Västerbotten","location_region_Västernorrland","location_region_Västmanland","location_region_Älvsborg","location_region_Örebro","location_region_Östergötland","fuel_Bensin","fuel_Diesel","fuel_El","fuel_Miljöbränsle/Hybrid","gearbox_Automat","gearbox_Manuell","model_2","model_3","model_6","model_CX-3","model_CX-30","model_CX-5","model_CX-60","model_CX-80","model_MX-30","model_MX-5"],"feature_types":["int","int","float","i","i","i","i","i","i","i","i","i","i","i","i","i","i","i","i","i","i","i","i","i","i","i","i","i","i","i","i","i","i","i","i","i","i","i","i","i","i","i","i","i","i","i","i","i","i"],"gradient_booster":{"model":{"gbtree_model_param":{"num_parallel_tree":"1","num_trees":"100"},"iteration_indptr":[0,1,2,3,4,5,6,7,8,9,10,11,12,13,14,15,16,17,18,19,20,21,22,23,24,25,26,27,28,29,30,31,32,33,34,35,36,37,38,39,40,41,42,43,44,45,46,47,48,49,50,51,52,53,54,55,56,57,58,59,60,61,62,63,64,65,66,67,68,69,70,71,72,73,74,75,76,77,78,79,80,81,82,83,84,85,86,87,88,89,90,91,92,93,94,95,96,97,98,99,100],"tree_info":[0,0,0,0,0,0,0,0,0,0,0,0,0,0,0,0,0,0,0,0,0,0,0,0,0,0,0,0,0,0,0,0,0,0,0,0,0,0,0,0,0,0,0,0,0,0,0,0,0,0,0,0,0,0,0,0,0,0,0,0,0,0,0,0,0,0,0,0,0,0,0,0,0,0,0,0,0,0,0,0,0,0,0,0,0,0,0,0,0,0,0,0,0,0,0,0,0,0,0,0],"trees":[{"base_weights":[-2.5244473E-4,2.0686298E5,-1.1140856E5,1.6044122E5,3.6885137E4,-6.489746E4,-1.8289112E5,9.1842914E4,2.0407155E5,-7.6641375E4,1.14308984E5,-1.467981E5,-2.0092539E5,4.7481684E4,2.2205652E5,2.336491E5,6.612549E4,-5.3096973E4,-1.0558828E5,-1.6719367E4,1.4135339E4,-4.076651E3,-1.4743174E4,-2.1042127E4,-1.6396339E5,5.9253115E3,-3.9856099E3,2.3664943E4,2.1086563E2,-4.4178546E2,2.5285193E4,1.9667361E4,-6.1031963E3,-3.3699739E3,-1.2036323E4,-1.0867407E4,-2.974046E3,-7.5466416E3,-1.707566E4],"categories":[],"categories_nodes":[],"categories_segments":[],"categories_sizes":[],"default_left":[0,0,0,0,0,0,0,0,0,0,0,0,0,0,0,0,0,0,0,0,0,0,0,0,0,0,0,0,0,0,0,0,0,0,0,0,0,0,0],"id":0,"left_children":[1,3,5,7,-1,9,11,13,15,17,19,21,23,25,27,29,31,33,35,-1,-1,-1,-1,-1,37,-1,-1,-1,-1,-1,-1,-1,-1,-1,-1,-1,-1,-1,-1],"loss_changes":[2.7125503E13,3.0389704E12,2.5315508E12,9.449924E11,0E0,9.873925E11,1.6642789E11,7.2306373E11,7.842515E11,2.9222555E11,2.4441248E11,9.770107E8,3.499465E10,1.01058314E11,1.0221073E11,7.3713844E11,6.096094E11,3.130053E11,4.2408083E10,0E0,0E0,0E0,0E0,0E0,1.4166655E10,0E0,0E0,0E0,0E0,0E0,0E0,0E0,0E0,0E0,0E0,0E0,0E0,0E0,0E0],"parents":[2147483647,0,0,1,1,2,2,3,3,5,5,6,6,7,7,8,8,9,9,10,10,11,11,12,12,13,13,14,14,15,15,16,16,17,17,18,18,24,24],"right_children":[2,4,6,8,-1,10,12,14,16,18,20,22,24,26,28,30,32,34,36,-1,-1,-1,-1,-1,38,-1,-1,-1,-1,-1,-1,-1,-1,-1,-1,-1,-1,-1,-1],"split_conditions":[3E0,1E0,1.1E1,1E0,3.6885137E4,1E0,1.3E1,1E0,1E0,8E0,1.809E3,1.4E3,1E0,2.381E3,1.0026466E9,1.0820054E8,1.00256435E9,1E0,1E0,-1.6719367E4,1.4135339E4,-4.076651E3,-1.4743174E4,-2.1042127E4,1.6E1,5.9253115E3,-3.9856099E3,2.3664943E4,2.1086563E2,-4.4178546E2,2.5285193E4,1.9667361E4,-6.1031963E3,-3.3699739E3,-1.2036323E4,-1.0867407E4,-2.974046E3,-7.5466416E3,-1.707566E4],"split_indices":[1,46,1,45,0,45,1,41,23,1,2,2,48,2,0,0,0,47,48,0,0,0,0,0,1,0,0,0,0,0,0,0,0,0,0,0,0,0,0],"split_type":[0,0,0,0,0,0,0,0,0,0,0,0,0,0,0,0,0,0,0,0,0,0,0,0,0,0,0,0,0,0,0,0,0,0,0,0,0,0,0],"sum_hessian":[1.175E3,4.11E2,7.64E2,3.21E2,9E1,4.64E2,3E2,1.26E2,1.95E2,4.36E2,2.8E1,1.03E2,1.97E2,9.5E1,3.1E1,1.6E2,3.5E1,2.42E2,1.94E2,2E0,2.6E1,1E0,1.02E2,1.53E2,4.4E1,8.4E1,1.1E1,2.9E1,2E0,1.2E1,1.48E2,1.7E1,1.8E1,1.89E2,5.3E1,1.86E2,8E0,4E0,4E1],"tree_param":{"num_deleted":"0","num_feature":"49","num_nodes":"39","size_leaf_vector":"1"}},{"base_weights":[4.0704985E0,1.8642208E5,-1.0039361E5,1.4459655E5,3.3237156E4,-5.847617E4,-1.6481625E5,8.28619E4,1.8386033E5,-6.9044164E4,1.0278899E5,-1.3229925E5,-1.8106348E5,4.275373E4,2.0059697E5,2.1043848E5,5.9889723E4,-4.785068E4,-9.510044E4,-1.5604744E4,1.2774159E4,-1.0490622E4,-1.3836925E4,-1.8951578E5,-1.4811422E5,6.7200696E2,6.8372065E3,2.137733E4,1.9680833E2,-4.0100687E2,2.277364E4,1.7809889E4,-5.524998E3,-3.075635E3,-1.10048E4,-8.413848E3,-1.1673282E4,-1.9138434E4,-1.1152741E4,-6.94291E3,-1.5409742E4],"categories":[],"categories_nodes":[],"categories_segments":[],"categories_sizes":[],"default_left":[0,0,0,0,0,0,0,0,0,0,0,0,0,0,0,0,0,0,0,0,0,0,0,0,0,0,0,0,0,0,0,0,0,0,0,0,0,0,0,0,0],"id":1,"left_children":[1,3,5,7,-1,9,11,13,15,17,19,21,23,25,27,29,31,33,35,-1,-1,-1,-1,37,39,-1,-1,-1,-1,-1,-1,-1,-1,-1,-1,-1,-1,-1,-1,-1,-1],"loss_changes":[2.2028657E13,2.4669596E12,2.0561925E12,7.6527226E11,0E0,7.9957275E11,1.35067075E11,5.911352E11,6.331999E11,2.3677095E11,2.072344E11,2.7768914E9,2.707161E10,8.816027E10,8.332968E10,5.981455E11,4.998203E11,2.5497816E11,3.6419535E10,0E0,0E0,0E0,0E0,1.0973348E9,1.0486678E10,0E0,0E0,0E0,0E0,0E0,0E0,0E0,0E0,0E0,0E0,0E0,0E0,0E0,0E0,0E0,0E0],"parents":[2147483647,0,0,1,1,2,2,3,3,5,5,6,6,7,7,8,8,9,9,10,10,11,11,12,12,13,13,14,14,15,15,16,16,17,17,18,18,23,23,24,24],"right_children":[2,4,6,8,-1,10,12,14,16,18,20,22,24,26,28,30,32,34,36,-1,-1,-1,-1,38,40,-1,-1,-1,-1,-1,-1,-1,-1,-1,-1,-1,-1,-1,-1,-1,-1],"split_conditions":[3E0,1E0,1.1E1,1E0,3.3237156E4,1E0,1.3E1,1E0,1E0,8E0,1.809E3,1.26E4,1E0,1E0,1.0026466E9,1.0820054E8,1.00256435E9,1E0,1.6E4,-1.5604744E4,1.2774159E4,-1.0490622E4,-1.3836925E4,1E0,1.6E1,6.7200696E2,6.8372065E3,2.137733E4,1.9680833E2,-4.0100687E2,2.277364E4,1.7809889E4,-5.524998E3,-3.075635E3,-1.10048E4,-8.413848E3,-1.1673282E4,-1.9138434E4,-1.1152741E4,-6.94291E3,-1.5409742E4],"split_indices":[1,46,1,45,0,45,1,41,23,1,2,2,48,33,0,0,0,35,2,0,0,0,0,44,1,0,0,0,0,0,0,0,0,0,0,0,0,0,0,0,0],"split_type":[0,0,0,0,0,0,0,0,0,0,0,0,0,0,0,0,0,0,0,0,0,0,0,0,0,0,0,0,0,0,0,0,0,0,0,0,0,0,0,0,0],"sum_hessian":[1.175E3,4.11E2,7.64E2,3.21E2,9E1,4.64E2,3E2,1.26E2,1.95E2,4.36E2,2.8E1,1.03E2,1.97E2,9.5E1,3.1E1,1.6E2,3.5E1,2.42E2,1.94E2,2E0,2.6E1,2.2E1,8.1E1,1.53E2,4.4E1,4E1,5.5E1,2.9E1,2E0,1.2E1,1.48E2,1.7E1,1.8E1,1.91E2,5.1E1,1.32E2,6.2E1,1.48E2,5E0,4E0,4E1],"tree_param":{"num_deleted":"0","num_feature":"49","num_nodes":"41","size_leaf_vector":"1"}},{"base_weights":[-1.0787096E1,1.6801525E5,-9.050323E4,1.3033483E5,2.9949963E4,-5.2708117E4,-1.4859034E5,7.480471E4,1.6565111E5,-6.2217934E4,9.241249E4,-1.1930324E5,-1.6322302E5,3.855658E4,1.8121145E5,1.8953358E5,5.4242004E4,-4.312355E4,-8.569341E4,-1.4564427E4,1.1544056E4,-9.487171E3,-1.2470107E4,-1.3110198E5,-1.7103059E4,4.90343E3,-3.8873691E3,1.9310854E4,1.836875E2,-3.6399146E2,2.051156E4,1.6127844E4,-5.001577E3,-2.7288052E3,-9.804247E3,-1.0360736E4,-7.363379E3,-1.3274385E4,-3.1071736E3],"categories":[],"categories_nodes":[],"categories_segments":[],"categories_sizes":[],"default_left":[0,0,0,0,0,0,0,0,0,0,0,0,0,0,0,0,0,0,0,0,0,0,0,0,0,0,0,0,0,0,0,0,0,0,0,0,0,0,0],"id":2,"left_children":[1,3,5,7,-1,9,11,13,15,17,19,21,23,25,27,29,31,33,35,-1,-1,-1,-1,37,-1,-1,-1,-1,-1,-1,-1,-1,-1,-1,-1,-1,-1,-1,-1],"loss_changes":[1.7896386E13,2.002171E12,1.6716556E12,6.190882E11,0E0,6.474823E11,1.0952009E11,4.8285784E11,5.1122117E11,1.921897E11,1.757909E11,1.8845532E9,2.7233092E10,7.979028E10,6.7934355E10,4.8536224E11,4.0980414E11,2.0865404E11,3.449789E10,0E0,0E0,0E0,0E0,2.9375857E9,0E0,0E0,0E0,0E0,0E0,0E0,0E0,0E0,0E0,0E0,0E0,0E0,0E0,0E0,0E0],"parents":[2147483647,0,0,1,1,2,2,3,3,5,5,6,6,7,7,8,8,9,9,10,10,11,11,12,12,13,13,14,14,15,15,16,16,17,17,18,18,23,23],"right_children":[2,4,6,8,-1,10,12,14,16,18,20,22,24,26,28,30,32,34,36,-1,-1,-1,-1,38,-1,-1,-1,-1,-1,-1,-1,-1,-1,-1,-1,-1,-1,-1,-1],"split_conditions":[3E0,1E0,1.1E1,1E0,2.9949963E4,1E0,1.3E1,1E0,1E0,8E0,1.809E3,1.26E4,1.2483E4,2.381E3,1.0026466E9,1.0820054E8,1.00256435E9,1E0,1E0,-1.4564427E4,1.1544056E4,-9.487171E3,-1.2470107E4,1E0,-1.7103059E4,4.90343E3,-3.8873691E3,1.9310854E4,1.836875E2,-3.6399146E2,2.051156E4,1.6127844E4,-5.001577E3,-2.7288052E3,-9.804247E3,-1.0360736E4,-7.363379E3,-1.3274385E4,-3.1071736E3],"split_indices":[1,46,1,45,0,45,1,41,23,1,2,2,2,2,0,0,0,47,37,0,0,0,0,19,0,0,0,0,0,0,0,0,0,0,0,0,0,0,0],"split_type":[0,0,0,0,0,0,0,0,0,0,0,0,0,0,0,0,0,0,0,0,0,0,0,0,0,0,0,0,0,0,0,0,0,0,0,0,0,0,0],"sum_hessian":[1.175E3,4.11E2,7.64E2,3.21E2,9E1,4.64E2,3E2,1.26E2,1.95E2,4.36E2,2.8E1,1.03E2,1.97E2,9.5E1,3.1E1,1.6E2,3.5E1,2.42E2,1.94E2,2E0,2.6E1,2.2E1,8.1E1,4.2E1,1.55E2,8.4E1,1.1E1,2.9E1,2E0,1.2E1,1.48E2,1.7E1,1.8E1,1.89E2,5.3E1,7.5E1,1.19E2,4.1E1,1E0],"tree_param":{"num_deleted":"0","num_feature":"49","num_nodes":"39","size_leaf_vector":"1"}},{"base_weights":[-1.5647428E1,1.5141211E5,-8.1568875E4,1.17462164E5,2.6987879E4,-3.1683086E4,-1.1756359E5,6.7485734E4,1.4924556E5,-4.2894215E4,8.3067086E4,-9.343487E4,-1.4706981E5,3.4711496E4,1.6369952E5,1.7070536E5,4.9126863E4,-3.2714668E4,-8.9639125E4,-1.3593466E4,1.04324055E5,-8.600858E4,-1.2097427E4,-1.2519649E5,-1.5705802E4,4.508345E3,-3.4977422E3,1.7444139E4,1.7144167E2,-3.303923E2,1.847417E4,1.4604658E4,-4.5277437E3,-7.6714892E0,-4.8732827E3,-1.7671412E4,-7.870134E3,1.1228898E4,6.5525806E3,-8.809426E3,-1.6514359E3,-1.262247E4,-2.8667546E3],"categories":[],"categories_nodes":[],"categories_segments":[],"categories_sizes":[],"default_left":[0,0,0,0,0,0,0,0,0,0,0,0,0,0,0,0,0,0,0,0,0,0,0,0,0,0,0,0,0,0,0,0,0,0,0,0,0,0,0,0,0,0,0],"id":3,"left_children":[1,3,5,7,-1,9,11,13,15,17,19,21,23,25,27,29,31,33,35,-1,37,39,-1,41,-1,-1,-1,-1,-1,-1,-1,-1,-1,-1,-1,-1,-1,-1,-1,-1,-1,-1,-1],"loss_changes":[1.453527E13,1.6253379E12,1.3699284E12,5.0139968E11,0E0,4.178093E11,3.0236318E11,3.947911E11,4.1272476E11,1.3696506E11,1.4918531E11,4.0110522E10,2.3595057E10,7.0966714E10,5.5381656E10,3.9384567E11,3.3599953E11,1.2703664E11,3.561757E10,0E0,9.8585805E8,2.724384E10,0E0,3.0313021E9,0E0,0E0,0E0,0E0,0E0,0E0,0E0,0E0,0E0,0E0,0E0,0E0,0E0,0E0,0E0,0E0,0E0,0E0,0E0],"parents":[2147483647,0,0,1,1,2,2,3,3,5,5,6,6,7,7,8,8,9,9,10,10,11,11,12,12,13,13,14,14,15,15,16,16,17,17,18,18,20,20,21,21,23,23],"right_children":[2,4,6,8,-1,10,12,14,16,18,20,22,24,26,28,30,32,34,36,-1,38,40,-1,42,-1,-1,-1,-1,-1,-1,-1,-1,-1,-1,-1,-1,-1,-1,-1,-1,-1,-1,-1],"split_conditions":[3E0,1E0,9E0,1E0,2.6987879E4,1E0,1.3E1,1E0,1E0,1E0,1.809E3,1.9694E4,1.4894E4,1E0,1.0026466E9,1.0820054E8,1.00256435E9,6E0,1E0,-1.3593466E4,8.397E3,1E0,-1.2097427E4,1E0,-1.5705802E4,4.508345E3,-3.4977422E3,1.7444139E4,1.7144167E2,-3.303923E2,1.847417E4,1.4604658E4,-4.5277437E3,-7.6714892E0,-4.8732827E3,-1.7671412E4,-7.870134E3,1.1228898E4,6.5525806E3,-8.809426E3,-1.6514359E3,-1.262247E4,-2.8667546E3],"split_indices":[1,46,1,45,0,45,1,41,23,35,2,2,2,8,0,0,0,1,37,0,2,48,0,44,0,0,0,0,0,0,0,0,0,0,0,0,0,0,0,0,0,0,0],"split_type":[0,0,0,0,0,0,0,0,0,0,0,0,0,0,0,0,0,0,0,0,0,0,0,0,0,0,0,0,0,0,0,0,0,0,0,0,0,0,0,0,0,0,0],"sum_hessian":[1.175E3,4.11E2,7.64E2,3.21E2,9E1,3.21E2,4.43E2,1.26E2,1.95E2,2.93E2,2.8E1,2.46E2,1.97E2,9.5E1,3.1E1,1.6E2,3.5E1,2.42E2,5.1E1,2E0,2.6E1,1.97E2,4.9E1,6.6E1,1.31E2,8.3E1,1.2E1,2.9E1,2E0,1.2E1,1.48E2,1.7E1,1.8E1,8E1,1.62E2,4E0,4.7E1,2E1,6E0,1.91E2,6E0,6.5E1,1E0],"tree_param":{"num_deleted":"0","num_feature":"49","num_nodes":"43","size_leaf_vector":"1"}},{"base_weights":[-1.9313816E1,1.3645011E5,-7.351655E4,1.05861445E5,2.4318748E5,-3.781591E4,-1.1464175E5,6.088383E4,1.34465E5,1.7398324E4,2.514972E4,-4.625216E4,7.490478E4,-9.151129E4,-1.3252039E5,3.1250877E4,1.4788006E5,1.5374753E5,4.4494098E4,-7.5471445E4,-3.4352984E4,-1.2687234E4,9.455021E4,-7.7651234E4,-9.988531E4,-1.3951133E5,-1.0565092E5,1.4053963E1,5.3470034E3,1.5757874E4,1.600125E2,1.9004924E4,8.228808E3,-5.2787616E2,2.1935895E4,-8.544413E3,1.3092504E3,-5.806406E3,-1.8337408E3,1.01594795E4,5.990929E3,-9.025636E3,-5.8221196E3,-1.0042857E4,-2.4409766E3,-1.4109094E4,-7.703259E3,-4.519073E3,-1.1044727E4],"categories":[],"categories_nodes":[],"categories_segments":[],"categories_sizes":[],"default_left":[0,0,0,0,0,0,0,0,0,0,0,0,0,0,0,0,0,0,0,0,0,0,0,0,0,0,0,0,0,0,0,0,0,0,0,0,0,0,0,0,0,0,0,0,0,0,0,0,0],"id":4,"left_children":[1,3,5,7,9,11,13,15,17,-1,-1,19,21,23,25,27,29,31,33,35,37,-1,39,41,43,45,47,-1,-1,-1,-1,-1,-1,-1,-1,-1,-1,-1,-1,-1,-1,-1,-1,-1,-1,-1,-1,-1,-1],"loss_changes":[1.1805459E13,1.3194169E12,1.1188345E12,4.060726E11,8.57473E9,3.9430095E11,1.3468015E11,3.22779E11,3.331929E11,0E0,0E0,1.3057078E11,1.2695177E11,1.0581967E10,2.2453158E10,6.6352062E10,4.5146833E10,4.0201146E11,3.144848E11,9.827287E10,1.0298576E11,0E0,5.0234982E8,1.0419929E10,1.4437581E9,4.3298324E9,8.058274E9,0E0,0E0,0E0,0E0,0E0,0E0,0E0,0E0,0E0,0E0,0E0,0E0,0E0,0E0,0E0,0E0,0E0,0E0,0E0,0E0,0E0,0E0],"parents":[2147483647,0,0,1,1,2,2,3,3,4,4,5,5,6,6,7,7,8,8,11,11,12,12,13,13,14,14,15,15,16,16,17,17,18,18,19,19,20,20,22,22,23,23,24,24,25,25,26,26],"right_children":[2,4,6,8,10,12,14,16,18,-1,-1,20,22,24,26,28,30,32,34,36,38,-1,40,42,44,46,48,-1,-1,-1,-1,-1,-1,-1,-1,-1,-1,-1,-1,-1,-1,-1,-1,-1,-1,-1,-1,-1,-1],"split_conditions":[3E0,1E0,1E1,1E0,1.00168115E9,1E0,1.3E1,1E0,1E0,1.7398324E4,2.514972E4,1E0,1.809E3,1.45E4,1E0,1E0,1.0026466E9,1.063E3,1.0027343E9,1E0,1E0,-1.2687234E4,8.397E3,1E0,1E0,1E0,1.6E1,1.4053963E1,5.3470034E3,1.5757874E4,1.600125E2,1.9004924E4,8.228808E3,-5.2787616E2,2.1935895E4,-8.544413E3,1.3092504E3,-5.806406E3,-1.8337408E3,1.01594795E4,5.990929E3,-9.025636E3,-5.8221196E3,-1.0042857E4,-2.4409766E3,-1.4109094E4,-7.703259E3,-4.519073E3,-1.1044727E4],"split_indices":[1,46,1,45,0,45,1,41,23,0,0,37,2,2,48,33,0,2,0,48,33,0,2,37,21,44,1,0,0,0,0,0,0,0,0,0,0,0,0,0,0,0,0,0,0,0,0,0,0],"split_type":[0,0,0,0,0,0,0,0,0,0,0,0,0,0,0,0,0,0,0,0,0,0,0,0,0,0,0,0,0,0,0,0,0,0,0,0,0,0,0,0,0,0,0,0,0,0,0,0,0],"sum_hessian":[1.175E3,4.11E2,7.64E2,3.21E2,9E1,4.1E2,3.54E2,1.26E2,1.95E2,1.2E1,7.8E1,3.82E2,2.8E1,1.57E2,1.97E2,9.5E1,3.1E1,1.6E2,3.5E1,1.09E2,2.73E2,2E0,2.6E1,6.3E1,9.4E1,1.53E2,4.4E1,4E1,5.5E1,2.9E1,2E0,1.05E2,5.5E1,2.8E1,7E0,9.8E1,1.1E1,1.09E2,1.64E2,2E1,6E0,3.6E1,2.7E1,9.3E1,1E0,1.48E2,5E0,4E0,4E1],"tree_param":{"num_deleted":"0","num_feature":"49","num_nodes":"49","size_leaf_vector":"1"}},{"base_weights":[1.3524739E1,1.2307808E5,-6.62644E4,9.5492445E4,2.193363E5,-2.5348809E4,-9.578817E4,5.4962996E4,1.21266664E5,1.5792327E4,2.2666584E4,-3.442447E4,6.753373E4,-7.6426875E4,-1.1945712E5,2.8181633E4,1.335895E5,1.3854192E5,4.0639355E4,-2.5333674E4,-7.4358875E4,-1.1841419E4,8.569336E4,-5.69562E4,-8.395791E4,-1.0077535E5,-1.2803456E4,4.2808604E3,-1.5071306E3,1.4725222E4,3.036034E3,-2.054195E3,1.514919E4,1.3275185E4,-4.876402E3,4.416804E2,-3.9597195E3,-1.5574147E4,-6.4733438E3,9.191911E3,5.477421E3,-6.0883394E3,-1.1791818E3,-9.824822E3,-7.4272603E3,-1.0173853E4,-1.8603016E3],"categories":[],"categories_nodes":[],"categories_segments":[],"categories_sizes":[],"default_left":[0,0,0,0,0,0,0,0,0,0,0,0,0,0,0,0,0,0,0,0,0,0,0,0,0,0,0,0,0,0,0,0,0,0,0,0,0,0,0,0,0,0,0,0,0,0,0],"id":5,"left_children":[1,3,5,7,9,11,13,15,17,-1,-1,19,21,23,25,27,29,31,33,35,37,-1,39,41,43,45,-1,-1,-1,-1,-1,-1,-1,-1,-1,-1,-1,-1,-1,-1,-1,-1,-1,-1,-1,-1,-1],"loss_changes":[9.600157E12,1.0730566E12,9.216784E11,3.2970113E11,5.1658097E9,2.7376134E11,1.9433862E11,2.6366227E11,2.6736958E11,0E0,0E0,1.04848654E11,1.0807293E11,3.1436702E10,1.8825347E10,6.1380485E10,4.0661877E10,3.347938E11,3.029395E11,1.02442435E11,3.2218841E10,0E0,1.6256205E8,1.2052644E10,1.7062298E10,3.4101658E9,0E0,0E0,0E0,0E0,0E0,0E0,0E0,0E0,0E0,0E0,0E0,0E0,0E0,0E0,0E0,0E0,0E0,0E0,0E0,0E0,0E0],"parents":[2147483647,0,0,1,1,2,2,3,3,4,4,5,5,6,6,7,7,8,8,11,11,12,12,13,13,14,14,15,15,16,16,17,17,18,18,19,19,20,20,22,22,23,23,24,24,25,25],"right_children":[2,4,6,8,10,12,14,16,18,-1,-1,20,22,24,26,28,30,32,34,36,38,-1,40,42,44,46,-1,-1,-1,-1,-1,-1,-1,-1,-1,-1,-1,-1,-1,-1,-1,-1,-1,-1,-1,-1,-1],"split_conditions":[3E0,1E0,9E0,1E0,1.00168115E9,1E0,1.3E1,1E0,1E0,1.5792327E4,2.2666584E4,1E0,1.809E3,1.1359E4,1.4894E4,9.67E2,1E0,1.0820054E8,1.00256435E9,6E0,1E0,-1.1841419E4,8.397E3,1E0,1E0,1E0,-1.2803456E4,4.2808604E3,-1.5071306E3,1.4725222E4,3.036034E3,-2.054195E3,1.514919E4,1.3275185E4,-4.876402E3,4.416804E2,-3.9597195E3,-1.5574147E4,-6.4733438E3,9.191911E3,5.477421E3,-6.0883394E3,-1.1791818E3,-9.824822E3,-7.4272603E3,-1.0173853E4,-1.8603016E3],"split_indices":[1,46,1,45,0,45,1,41,23,0,0,47,2,2,2,2,7,0,0,1,37,0,2,48,37,7,0,0,0,0,0,0,0,0,0,0,0,0,0,0,0,0,0,0,0,0,0],"split_type":[0,0,0,0,0,0,0,0,0,0,0,0,0,0,0,0,0,0,0,0,0,0,0,0,0,0,0,0,0,0,0,0,0,0,0,0,0,0,0,0,0,0,0,0,0,0,0],"sum_hessian":[1.175E3,4.11E2,7.64E2,3.21E2,9E1,3.21E2,4.43E2,1.26E2,1.95E2,1.2E1,7.8E1,2.93E2,2.8E1,2.46E2,1.97E2,9.5E1,3.1E1,1.6E2,3.5E1,2.4E2,5.3E1,2E0,2.6E1,7.1E1,1.75E2,6.6E1,1.31E2,7.1E1,2.4E1,2.7E1,4E0,1.2E1,1.48E2,1.7E1,1.8E1,7.8E1,1.62E2,4E0,4.9E1,2E1,6E0,6.5E1,6E0,6.7E1,1.08E2,6.5E1,1E0],"tree_param":{"num_deleted":"0","num_feature":"49","num_nodes":"47","size_leaf_vector":"1"}},{"base_weights":[1.9308792E1,1.10965625E5,-5.97322E4,8.607372E4,1.9782528E5,-3.4351734E4,-9.874277E4,7.762455E4,1.9776134E5,1.4334573E4,2.0428615E4,-4.059271E4,6.0877875E4,-8.1987016E4,-1.09099016E5,9.056829E4,1.2398986E4,2.0278945E5,4.608564E3,-6.500498E4,-3.0381863E4,-1.1051991E4,7.7667336E4,-7.729534E4,-1.1165345E4,-1.1620219E4,-8.4733695E4,1.1864842E4,5.166935E3,7.54572E3,-3.8040254E3,2.1124156E4,8.166294E3,-7.3162627E3,6.6474664E2,-4.908586E3,-1.5862424E3,7.992933E3,3.2928333E3,-6.4832485E3,-9.1003955E3,-4.700599E3,-9.162061E3],"categories":[],"categories_nodes":[],"categories_segments":[],"categories_sizes":[],"default_left":[0,0,0,0,0,0,0,0,0,0,0,0,0,0,0,0,0,0,0,0,0,0,0,0,0,0,0,0,0,0,0,0,0,0,0,0,0,0,0,0,0,0,0],"id":6,"left_children":[1,3,5,7,9,11,13,15,17,-1,-1,19,21,23,25,27,29,31,-1,33,35,-1,37,39,-1,-1,41,-1,-1,-1,-1,-1,-1,-1,-1,-1,-1,-1,-1,-1,-1,-1,-1],"loss_changes":[7.802579E12,8.73759E11,7.540394E11,2.8850992E11,2.747007E9,2.7883264E11,4.328679E10,2.5300016E11,7.4325033E9,0E0,0E0,1.0695606E11,9.203641E10,7.9327396E9,2.1825847E10,2.6803359E11,1.6508143E11,4.2486333E9,0E0,7.5304305E10,8.340855E10,0E0,1.0043392E8,1.2209947E10,0E0,0E0,7.385514E9,0E0,0E0,0E0,0E0,0E0,0E0,0E0,0E0,0E0,0E0,0E0,0E0,0E0,0E0,0E0,0E0],"parents":[2147483647,0,0,1,1,2,2,3,3,4,4,5,5,6,6,7,7,8,8,11,11,12,12,13,13,14,14,15,15,16,16,17,17,19,19,20,20,22,22,23,23,26,26],"right_children":[2,4,6,8,10,12,14,16,18,-1,-1,20,22,24,26,28,30,32,-1,34,36,-1,38,40,-1,-1,42,-1,-1,-1,-1,-1,-1,-1,-1,-1,-1,-1,-1,-1,-1,-1,-1],"split_conditions":[3E0,1E0,1.1E1,1E0,1.00168115E9,1E0,1.4E1,1E0,1E0,1.4334573E4,2.0428615E4,1E0,1.809E3,1E0,1E0,1E0,1.00256435E9,1.0026607E9,4.608564E3,1E0,1E0,-1.1051991E4,1E0,1.7413E4,-1.1165345E4,-1.1620219E4,1.8E1,1.1864842E4,5.166935E3,7.54572E3,-3.8040254E3,2.1124156E4,8.166294E3,-7.3162627E3,6.6474664E2,-4.908586E3,-1.5862424E3,7.992933E3,3.2928333E3,-6.4832485E3,-9.1003955E3,-4.700599E3,-9.162061E3],"split_indices":[1,46,1,34,0,45,1,23,28,0,0,37,2,39,48,1,0,0,0,48,33,0,24,2,0,0,1,0,0,0,0,0,0,0,0,0,0,0,0,0,0,0,0],"split_type":[0,0,0,0,0,0,0,0,0,0,0,0,0,0,0,0,0,0,0,0,0,0,0,0,0,0,0,0,0,0,0,0,0,0,0,0,0,0,0,0,0,0,0],"sum_hessian":[1.175E3,4.11E2,7.64E2,3.21E2,9E1,4.64E2,3E2,3E2,2.1E1,1.2E1,7.8E1,4.36E2,2.8E1,1.18E2,1.82E2,2.5E2,5E1,2E1,1E0,1.27E2,3.09E2,2E0,2.6E1,1.05E2,1.3E1,1.38E2,4.4E1,1.44E2,1.06E2,2.2E1,2.8E1,1.8E1,2E0,1.14E2,1.3E1,1.34E2,1.75E2,2.4E1,2E0,5.8E1,4.7E1,8E0,3.6E1],"tree_param":{"num_deleted":"0","num_feature":"49","num_nodes":"43","size_leaf_vector":"1"}},{"base_weights":[3.8034348E1,1.0008614E5,-5.3844133E4,7.763613E4,1.7842477E5,-2.008032E4,-7.820923E4,4.1751355E4,1.0049191E5,1.3011384E4,1.8411613E4,-2.7397992E4,5.4798145E4,-6.2815832E4,-9.70171E4,1.848812E4,1.1023633E5,-1.5136359E4,1.0878865E5,-1.9621188E4,-6.321271E4,-1.0315191E4,7.031859E4,-5.7162746E4,-8.394574E3,-6.754314E4,-1.0088592E5,2.9638176E3,-3.5070273E3,1.188191E4,-1.2336864E3,1.624563E4,-1.3184966E4,1.2673671E4,2.927294E3,-3.7137366E2,-4.120691E3,-1.6993811E3,-7.5198423E3,7.555259E3,4.4571084E3,-5.2830723E3,-8.941754E3,-7.317083E3,-1.829816E3,-1.0197167E4,-5.3670645E3],"categories":[],"categories_nodes":[],"categories_segments":[],"categories_sizes":[],"default_left":[0,0,0,0,0,0,0,0,0,0,0,0,0,0,0,0,0,0,0,0,0,0,0,0,0,0,0,0,0,0,0,0,0,0,0,0,0,0,0,0,0,0,0,0,0,0,0],"id":7,"left_children":[1,3,5,7,9,11,13,15,17,-1,-1,19,21,23,25,27,29,31,33,35,37,-1,39,41,-1,43,45,-1,-1,-1,-1,-1,-1,-1,-1,-1,-1,-1,-1,-1,-1,-1,-1,-1,-1,-1,-1],"loss_changes":[6.34498E12,7.1073294E11,6.2776305E11,2.5990057E11,1.0648289E9,1.7793673E11,1.22451395E11,2.0029604E11,1.8967704E11,0E0,0E0,8.064577E10,7.834569E10,2.4705434E10,1.5763636E10,5.8368614E10,3.513044E10,3.1160376E11,2.5745896E11,8.3286794E10,2.7528331E10,0E0,2.7113062E8,2.2942253E10,0E0,5.8666353E9,3.3958134E9,0E0,0E0,0E0,0E0,0E0,0E0,0E0,0E0,0E0,0E0,0E0,0E0,0E0,0E0,0E0,0E0,0E0,0E0,0E0,0E0],"parents":[2147483647,0,0,1,1,2,2,3,3,4,4,5,5,6,6,7,7,8,8,11,11,12,12,13,13,14,14,15,15,16,16,17,17,18,18,19,19,20,20,22,22,23,23,25,25,26,26],"right_children":[2,4,6,8,10,12,14,16,18,-1,-1,20,22,24,26,28,30,32,34,36,38,-1,40,42,-1,44,46,-1,-1,-1,-1,-1,-1,-1,-1,-1,-1,-1,-1,-1,-1,-1,-1,-1,-1,-1,-1],"split_conditions":[3E0,1E0,9E0,1E0,1.00168115E9,1E0,1.3E1,1E0,1.0820054E8,1.3011384E4,1.8411613E4,1E0,1.809E3,1.9694E4,9.5E3,1E0,1.0026466E9,1.0373737E8,1E0,7E0,2.629E3,-1.0315191E4,8.397E3,1E0,-8.394574E3,1.4021841E9,1E0,2.9638176E3,-3.5070273E3,1.188191E4,-1.2336864E3,1.624563E4,-1.3184966E4,1.2673671E4,2.927294E3,-3.7137366E2,-4.120691E3,-1.6993811E3,-7.5198423E3,7.555259E3,4.4571084E3,-5.2830723E3,-8.941754E3,-7.317083E3,-1.829816E3,-1.0197167E4,-5.3670645E3],"split_indices":[1,46,1,45,0,45,1,41,0,0,0,35,2,2,2,39,0,0,23,1,2,0,2,39,0,0,44,0,0,0,0,0,0,0,0,0,0,0,0,0,0,0,0,0,0,0,0],"split_type":[0,0,0,0,0,0,0,0,0,0,0,0,0,0,0,0,0,0,0,0,0,0,0,0,0,0,0,0,0,0,0,0,0,0,0,0,0,0,0,0,0,0,0,0,0,0,0],"sum_hessian":[1.175E3,4.11E2,7.64E2,3.21E2,9E1,3.21E2,4.43E2,1.26E2,1.95E2,1.2E1,7.8E1,2.93E2,2.8E1,2.46E2,1.97E2,9.5E1,3.1E1,1.3E1,1.82E2,2.42E2,5.1E1,2E0,2.6E1,1.97E2,4.9E1,2.5E1,1.72E2,7.9E1,1.6E1,2.9E1,2E0,5E0,8E0,1.48E2,3.4E1,1.4E2,1.02E2,1.1E1,4E1,2E1,6E0,1.76E2,2.1E1,2.2E1,3E0,1.67E2,5E0],"tree_param":{"num_deleted":"0","num_feature":"49","num_nodes":"47","size_leaf_vector":"1"}},{"base_weights":[3.4952778E1,9.0223625E4,-4.8537293E4,6.996187E4,1.6092758E4,-1.81096E4,-7.04949E4,6.244373E4,1.6964358E5,-2.470483E4,4.9376863E4,-5.662582E4,-8.7440195E4,7.33452E4,7.5669956E3,1.8621576E4,9.44152E3,-3.1925197E4,1.1169064E4,-9.627513E3,6.3731645E4,-4.0631785E4,-6.2847098E4,-9.259221E4,-6.786573E4,9.861793E3,3.8411648E3,-2.9521497E3,8.348054E3,-4.1404307E3,5.871402E2,3.063089E3,-2.2196592E3,6.835711E3,4.0750715E3,-5.231984E3,-2.7490403E3,-5.9829014E3,-9.608704E3,-8.113224E3,-1.02178545E4,-3.5043574E3,-7.401529E3],"categories":[],"categories_nodes":[],"categories_segments":[],"categories_sizes":[],"default_left":[0,0,0,0,0,0,0,0,0,0,0,0,0,0,0,0,0,0,0,0,0,0,0,0,0,0,0,0,0,0,0,0,0,0,0,0,0,0,0,0,0,0,0],"id":8,"left_children":[1,3,5,7,-1,9,11,13,15,17,19,21,23,25,27,-1,-1,29,31,-1,33,35,37,39,41,-1,-1,-1,-1,-1,-1,-1,-1,-1,-1,-1,-1,-1,-1,-1,-1,-1,-1],"loss_changes":[5.156042E12,5.789668E11,5.098347E11,2.3072027E11,0E0,1.4453844E11,9.939557E10,1.7951438E11,9.845735E9,7.650927E10,6.676905E10,2.20237E10,1.3684048E10,2.1781139E11,1.4605592E11,0E0,0E0,8.802117E10,3.3147732E10,0E0,8.442675E7,9.620709E9,1.1907695E10,8.628339E9,6.4891126E9,0E0,0E0,0E0,0E0,0E0,0E0,0E0,0E0,0E0,0E0,0E0,0E0,0E0,0E0,0E0,0E0,0E0,0E0],"parents":[2147483647,0,0,1,1,2,2,3,3,5,5,6,6,7,7,8,8,9,9,10,10,11,11,12,12,13,13,14,14,17,17,18,18,20,20,21,21,22,22,23,23,24,24],"right_children":[2,4,6,8,-1,10,12,14,16,18,20,22,24,26,28,-1,-1,30,32,-1,34,36,38,40,42,-1,-1,-1,-1,-1,-1,-1,-1,-1,-1,-1,-1,-1,-1,-1,-1,-1,-1],"split_conditions":[3E0,1E0,9E0,1E0,1.6092758E4,1E0,1.3E1,1E0,1E0,1E0,1.809E3,1.1359E4,1E0,1E0,1.00274323E9,1.8621576E4,9.44152E3,1E0,1.3149E4,-9.627513E3,8.397E3,1E0,1E0,1.7E1,1.8E1,9.861793E3,3.8411648E3,-2.9521497E3,8.348054E3,-4.1404307E3,5.871402E2,3.063089E3,-2.2196592E3,6.835711E3,4.0750715E3,-5.231984E3,-2.7490403E3,-5.9829014E3,-9.608704E3,-8.113224E3,-1.02178545E4,-3.5043574E3,-7.401529E3],"split_indices":[1,46,1,34,0,45,1,23,1,44,2,2,48,1,0,0,0,43,2,0,2,37,39,1,1,0,0,0,0,0,0,0,0,0,0,0,0,0,0,0,0,0,0],"split_type":[0,0,0,0,0,0,0,0,0,0,0,0,0,0,0,0,0,0,0,0,0,0,0,0,0,0,0,0,0,0,0,0,0,0,0,0,0,0,0,0,0,0,0],"sum_hessian":[1.175E3,4.11E2,7.64E2,3.21E2,9E1,3.21E2,4.43E2,3E2,2.1E1,2.93E2,2.8E1,2.46E2,1.97E2,2.5E2,5E1,1.6E1,5E0,2.44E2,4.9E1,2E0,2.6E1,7.1E1,1.75E2,1.53E2,4.4E1,1.44E2,1.06E2,3.4E1,1.6E1,1.95E2,4.9E1,3.1E1,1.8E1,2E1,6E0,3.6E1,3.5E1,1.63E2,1.2E1,7.4E1,7.9E1,8E0,3.6E1],"tree_param":{"num_deleted":"0","num_feature":"49","num_nodes":"43","size_leaf_vector":"1"}},{"base_weights":[3.9131332E1,8.13548E4,-4.3754457E4,6.3112156E4,1.4501167E5,-2.4828055E4,-7.2847555E4,3.1174686E4,8.3484336E4,1.032485E4,1.5004852E4,-2.9370857E4,4.448342E4,-6.4020895E4,-8.294647E4,1.0309877E4,9.279491E4,-2.1646188E4,9.107091E4,-4.963827E4,-2.0907635E4,-8.985679E3,5.776258E4,-5.4615805E4,-7.457879E4,-8.975683E3,-6.4811074E4,-6.749904E2,4.1617417E3,1.0539636E4,3.6678125E2,1.4070013E4,-1.2747194E4,1.063405E4,2.1026501E3,-5.691772E3,1.3702797E3,-1.265238E3,-4.261093E3,5.87554E3,1.5974625E3,-4.6208823E3,-7.7462163E3,-8.0174976E3,-6.0948477E3,-9.769383E2,-6.5942886E3],"categories":[],"categories_nodes":[],"categories_segments":[],"categories_sizes":[],"default_left":[0,0,0,0,0,0,0,0,0,0,0,0,0,0,0,0,0,0,0,0,0,0,0,0,0,0,0,0,0,0,0,0,0,0,0,0,0,0,0,0,0,0,0,0,0,0,0],"id":9,"left_children":[1,3,5,7,9,11,13,15,17,-1,-1,19,21,23,25,27,29,31,33,35,37,-1,39,41,43,-1,45,-1,-1,-1,-1,-1,-1,-1,-1,-1,-1,-1,-1,-1,-1,-1,-1,-1,-1,-1,-1],"loss_changes":[4.191419E12,4.6929124E11,4.1942136E11,2.06902E11,3.649831E9,1.477203E11,2.1520712E10,1.6232643E11,1.582971E11,0E0,0E0,7.391979E10,5.6924172E10,1.2311003E10,1.1103502E10,5.1554492E10,3.555364E10,2.5846119E11,1.9349163E11,5.9799208E10,5.5002382E10,0E0,1.8156749E8,1.3898842E10,8.342733E8,0E0,1.9099156E9,0E0,0E0,0E0,0E0,0E0,0E0,0E0,0E0,0E0,0E0,0E0,0E0,0E0,0E0,0E0,0E0,0E0,0E0,0E0,0E0],"parents":[2147483647,0,0,1,1,2,2,3,3,4,4,5,5,6,6,7,7,8,8,11,11,12,12,13,13,14,14,15,15,16,16,17,17,18,18,19,19,20,20,22,22,23,23,24,24,26,26],"right_children":[2,4,6,8,10,12,14,16,18,-1,-1,20,22,24,26,28,30,32,34,36,38,-1,40,42,44,-1,46,-1,-1,-1,-1,-1,-1,-1,-1,-1,-1,-1,-1,-1,-1,-1,-1,-1,-1,-1,-1],"split_conditions":[3E0,1E0,1.1E1,1E0,1.00168115E9,1E0,1.6E1,1E0,1.0820054E8,1.032485E4,1.5004852E4,1E0,1.809E3,1.7413E4,1E0,1E0,1E0,1.0373737E8,1E0,1E0,1.338E4,-8.985679E3,1.0029004E9,1E0,1E0,-8.975683E3,2.581E3,-6.749904E2,4.1617417E3,1.0539636E4,3.6678125E2,1.4070013E4,-1.2747194E4,1.063405E4,2.1026501E3,-5.691772E3,1.3702797E3,-1.265238E3,-4.261093E3,5.87554E3,1.5974625E3,-4.6208823E3,-7.7462163E3,-8.0174976E3,-6.0948477E3,-9.769383E2,-6.5942886E3],"split_indices":[1,46,1,45,0,45,1,41,0,0,0,37,2,2,48,43,7,0,8,48,2,0,0,39,44,0,2,0,0,0,0,0,0,0,0,0,0,0,0,0,0,0,0,0,0,0,0],"split_type":[0,0,0,0,0,0,0,0,0,0,0,0,0,0,0,0,0,0,0,0,0,0,0,0,0,0,0,0,0,0,0,0,0,0,0,0,0,0,0,0,0,0,0,0,0,0,0],"sum_hessian":[1.175E3,4.11E2,7.64E2,3.21E2,9E1,4.64E2,3E2,1.26E2,1.95E2,1.2E1,7.8E1,4.36E2,2.8E1,1.64E2,1.36E2,9.5E1,3.1E1,1.3E1,1.82E2,1.27E2,3.09E2,2E0,2.6E1,9E1,7.4E1,9.6E1,4E1,6.2E1,3.3E1,2.7E1,4E0,5E0,8E0,1.49E2,3.3E1,1.14E2,1.3E1,2.25E2,8.4E1,2.5E1,1E0,6.8E1,2.2E1,4.9E1,2.5E1,1E0,3.9E1],"tree_param":{"num_deleted":"0","num_feature":"49","num_nodes":"47","size_leaf_vector":"1"}},{"base_weights":[3.470179E1,7.334986E4,-3.9450105E4,5.68893E4,1.3078887E5,-1.9631064E4,-6.2284406E4,5.0319375E4,1.4419192E5,9.371787E3,1.3523361E4,-2.409366E4,3.9982926E4,-5.155781E4,-7.208451E4,6.033056E4,6.2007355E1,1.5868104E4,7.9107437E3,-2.9965725E4,2.1323894E3,-8.386634E3,5.2263105E4,-6.007569E4,-4.3760055E4,-5.350017E4,-7.6746234E4,8.220988E3,3.011717E3,5.932436E3,-4.694131E3,-3.6916316E3,7.3327094E2,2.8048347E3,-1.9851174E3,6.1814204E3,4.0501287E3,-3.3386882E3,-6.2988545E3,-3.400929E3,-5.6073354E3,-5.4625786E3,-4.800625E2,-7.729234E3,-3.8309556E3],"categories":[],"categories_nodes":[],"categories_segments":[],"categories_sizes":[],"default_left":[0,0,0,0,0,0,0,0,0,0,0,0,0,0,0,0,0,0,0,0,0,0,0,0,0,0,0,0,0,0,0,0,0,0,0,0,0,0,0,0,0,0,0,0,0],"id":10,"left_children":[1,3,5,7,9,11,13,15,17,-1,-1,19,21,23,25,27,29,-1,-1,31,33,-1,35,37,39,41,43,-1,-1,-1,-1,-1,-1,-1,-1,-1,-1,-1,-1,-1,-1,-1,-1,-1,-1],"loss_changes":[3.4072195E12,3.8209664E11,3.4498098E11,1.774344E11,2.3202365E9,1.1030299E11,3.360175E10,1.5144006E11,8.19354E9,0E0,0E0,5.904628E10,4.8488956E10,8.861811E9,1.1748311E10,1.6344718E11,1.4484664E11,0E0,0E0,8.141472E10,4.1007276E10,0E0,5.2958003E8,4.1162506E9,9.379004E9,1.9304448E9,6.160384E7,0E0,0E0,0E0,0E0,0E0,0E0,0E0,0E0,0E0,0E0,0E0,0E0,0E0,0E0,0E0,0E0,0E0,0E0],"parents":[2147483647,0,0,1,1,2,2,3,3,4,4,5,5,6,6,7,7,8,8,11,11,12,12,13,13,14,14,15,15,16,16,19,19,20,20,22,22,23,23,24,24,25,25,26,26],"right_children":[2,4,6,8,10,12,14,16,18,-1,-1,20,22,24,26,28,30,-1,-1,32,34,-1,36,38,40,42,44,-1,-1,-1,-1,-1,-1,-1,-1,-1,-1,-1,-1,-1,-1,-1,-1,-1,-1],"split_conditions":[3E0,1E0,1E1,1E0,1.00168115E9,1E0,1.4E1,1E0,1E0,9.371787E3,1.3523361E4,1E0,1.809E3,1E0,1.2483E4,1E0,1.00256435E9,1.5868104E4,7.9107437E3,1E0,1.15E4,-8.386634E3,5.189E3,7.91E3,1.757E4,1E0,1E0,8.220988E3,3.011717E3,5.932436E3,-4.694131E3,-3.6916316E3,7.3327094E2,2.8048347E3,-1.9851174E3,6.1814204E3,4.0501287E3,-3.3386882E3,-6.2988545E3,-3.400929E3,-5.6073354E3,-5.4625786E3,-4.800625E2,-7.729234E3,-3.8309556E3],"split_indices":[1,46,1,34,0,45,1,23,1,0,0,44,2,37,2,1,0,0,0,43,2,0,2,2,2,15,27,0,0,0,0,0,0,0,0,0,0,0,0,0,0,0,0,0,0],"split_type":[0,0,0,0,0,0,0,0,0,0,0,0,0,0,0,0,0,0,0,0,0,0,0,0,0,0,0,0,0,0,0,0,0,0,0,0,0,0,0,0,0,0,0,0,0],"sum_hessian":[1.175E3,4.11E2,7.64E2,3.21E2,9E1,4.1E2,3.54E2,3E2,2.1E1,1.2E1,7.8E1,3.82E2,2.8E1,1.72E2,1.82E2,2.5E2,5E1,1.6E1,5E0,3.12E2,7E1,2E0,2.6E1,7.9E1,9.3E1,3.9E1,1.43E2,1.44E2,1.06E2,2.2E1,2.8E1,2.63E2,4.9E1,3.2E1,3.8E1,1.2E1,1.4E1,9E0,7E1,5.4E1,3.9E1,3.8E1,1E0,1.4E2,3E0],"tree_param":{"num_deleted":"0","num_feature":"49","num_nodes":"45","size_leaf_vector":"1"}},{"base_weights":[5.0533096E1,6.615842E4,-3.5552734E4,5.131294E4,1.1796156E5,-1.2808431E4,-5.1967406E4,2.3016217E4,6.9386266E4,8.506699E3,1.2188141E4,-5.867303E3,-4.7148336E4,-4.2685906E4,-6.4971695E4,4.9842783E3,7.639278E4,7.172638E4,-1.9346836E4,1.7290465E4,-2.1033033E4,-1.2059421E4,-3.886078E4,-3.843182E4,-6.0393824E4,-6.972432E4,-4.8847562E4,1.4909487E3,-4.201578E3,8.787789E3,-3.2024127E2,-2.6857397E3,7.891565E3,2.0760415E3,-3.5246008E3,-1.6982875E3,-6.2925215E3,-3.0501653E3,-1.0799261E4,-3.47557E3,-6.367626E3,-6.828144E3,-4.93325E3,-6.253784E3,-7.89656E3,-2.1584746E3,-5.4158857E3],"categories":[],"categories_nodes":[],"categories_segments":[],"categories_sizes":[],"default_left":[0,0,0,0,0,0,0,0,0,0,0,0,0,0,0,0,0,0,0,0,0,0,0,0,0,0,0,0,0,0,0,0,0,0,0,0,0,0,0,0,0,0,0,0,0,0,0],"id":11,"left_children":[1,3,5,7,9,11,13,15,17,-1,-1,19,21,23,25,27,29,31,-1,33,35,-1,37,39,41,43,45,-1,-1,-1,-1,-1,-1,-1,-1,-1,-1,-1,-1,-1,-1,-1,-1,-1,-1,-1,-1],"loss_changes":[2.7702526E12,3.1079255E11,2.8493958E11,1.6307886E11,1.3656392E9,7.647453E10,5.081714E10,1.2185457E11,1.3443845E11,0E0,0E0,9.483768E10,2.81827E10,1.74157E10,1.061775E10,4.540904E10,2.9534536E10,1.4032477E11,0E0,2.02377E10,2.6587546E10,0E0,2.5600131E10,1.7646453E10,9.066414E8,4.2930012E9,5.347025E9,0E0,0E0,0E0,0E0,0E0,0E0,0E0,0E0,0E0,0E0,0E0,0E0,0E0,0E0,0E0,0E0,0E0,0E0,0E0,0E0],"parents":[2147483647,0,0,1,1,2,2,3,3,4,4,5,5,6,6,7,7,8,8,11,11,12,12,13,13,14,14,15,15,16,16,17,17,19,19,20,20,22,22,23,23,24,24,25,25,26,26],"right_children":[2,4,6,8,10,12,14,16,18,-1,-1,20,22,24,26,28,30,32,-1,34,36,-1,38,40,42,44,46,-1,-1,-1,-1,-1,-1,-1,-1,-1,-1,-1,-1,-1,-1,-1,-1,-1,-1,-1,-1],"split_conditions":[3E0,1E0,9E0,1E0,1.00168115E9,1E0,1.4E1,1E0,1.00291616E9,8.506699E3,1.2188141E4,6E0,1E0,2E4,1E0,1E0,1E0,1.0820054E8,-1.9346836E4,1E0,1.7397E4,-1.2059421E4,1E0,1E0,1E0,1.8E1,1.8E1,1.4909487E3,-4.201578E3,8.787789E3,-3.2024127E2,-2.6857397E3,7.891565E3,2.0760415E3,-3.5246008E3,-1.6982875E3,-6.2925215E3,-3.0501653E3,-1.0799261E4,-3.47557E3,-6.367626E3,-6.828144E3,-4.93325E3,-6.253784E3,-7.89656E3,-2.1584746E3,-5.4158857E3],"split_indices":[1,46,1,45,0,47,1,41,0,0,0,1,37,2,48,39,7,0,0,39,2,0,21,39,44,1,1,0,0,0,0,0,0,0,0,0,0,0,0,0,0,0,0,0,0,0,0],"split_type":[0,0,0,0,0,0,0,0,0,0,0,0,0,0,0,0,0,0,0,0,0,0,0,0,0,0,0,0,0,0,0,0,0,0,0,0,0,0,0,0,0,0,0,0,0,0,0],"sum_hessian":[1.175E3,4.11E2,7.64E2,3.21E2,9E1,3.21E2,4.43E2,1.26E2,1.95E2,1.2E1,7.8E1,2.68E2,5.3E1,2.61E2,1.82E2,9.5E1,3.1E1,1.94E2,1E0,1.06E2,1.62E2,4E0,4.9E1,2.13E2,4.8E1,1.38E2,4.4E1,7.9E1,1.6E1,2.7E1,4E0,1.3E1,1.81E2,1E2,6E0,1.49E2,1.3E1,4.5E1,4E0,1.88E2,2.5E1,2.5E1,2.3E1,8.2E1,5.6E1,8E0,3.6E1],"tree_param":{"num_deleted":"0","num_feature":"49","num_nodes":"47","size_leaf_vector":"1"}},{"base_weights":[-1.0954095E1,6.415622E4,-3.0367877E4,5.0587855E4,1.06392836E5,-1.121176E4,-4.8790445E4,2.3913602E4,7.17778E4,7.7214663E3,1.0984756E5,-1.866863E5,-9.383272E3,-5.5354547E4,-2.7809668E4,8.941581E3,6.901812E4,9.015144E4,-1.6647391E3,1.1164257E4,6.095295E3,-2.6376719E4,2.2278188E3,-1.9105594E4,4.336672E4,-4.7059824E4,-6.3188086E4,-1.521329E4,-4.14224E4,1.734958E3,-5.276155E3,7.6622085E3,-3.0027573E3,-2.2070906E3,1.0753749E4,-3.8700574E3,2.1347607E4,-1.2399955E3,-5.471652E3,4.6249937E3,1.8247E2,-4.332248E3,-6.1063433E3,-5.7374116E3,-7.107743E3,-4.5168463E2,-2.534628E3,9.442891E1,-4.236394E3],"categories":[],"categories_nodes":[],"categories_segments":[],"categories_sizes":[],"default_left":[0,0,0,0,0,0,0,0,0,0,0,0,0,0,0,0,0,0,0,0,0,0,0,0,0,0,0,0,0,0,0,0,0,0,0,0,0,0,0,0,0,0,0,0,0,0,0,0,0],"id":12,"left_children":[1,3,5,7,9,11,13,15,17,-1,19,21,23,25,27,29,31,33,35,-1,-1,-1,-1,37,39,41,43,45,47,-1,-1,-1,-1,-1,-1,-1,-1,-1,-1,-1,-1,-1,-1,-1,-1,-1,-1,-1,-1],"loss_changes":[2.2926996E12,2.1124271E11,2.8142404E11,1.6106868E11,6.9114266E8,1.2434347E11,5.451265E10,8.649732E10,2.1605509E11,0E0,1.2858163E8,7.030492E10,2.0084097E11,1.7104306E10,1.6345465E10,5.1757773E10,2.640126E10,2.521145E11,2.7120296E11,0E0,0E0,0E0,0E0,7.812356E10,7.2218624E9,5.4143877E9,3.0774395E9,5.6300247E9,1.914839E9,0E0,0E0,0E0,0E0,0E0,0E0,0E0,0E0,0E0,0E0,0E0,0E0,0E0,0E0,0E0,0E0,0E0,0E0,0E0,0E0],"parents":[2147483647,0,0,1,1,2,2,3,3,4,4,5,5,6,6,7,7,8,8,10,10,11,11,12,12,13,13,14,14,15,15,16,16,17,17,18,18,23,23,24,24,25,25,26,26,27,27,28,28],"right_children":[2,4,6,8,10,12,14,16,18,-1,20,22,24,26,28,30,32,34,36,-1,-1,-1,-1,38,40,42,44,46,48,-1,-1,-1,-1,-1,-1,-1,-1,-1,-1,-1,-1,-1,-1,-1,-1,-1,-1,-1,-1],"split_conditions":[2.205E3,1E0,1.1279E4,1E0,1.00168115E9,2.3E3,1E0,1E0,1E0,7.7214663E3,1.4E3,1.00255955E9,1E0,1.6954E4,1.7397E4,1E0,1.0026466E9,1.00148934E9,1.0027343E9,1.1164257E4,6.095295E3,-2.6376719E4,2.2278188E3,1E0,1E0,1E0,2.1856E4,1E1,5E0,1.734958E3,-5.276155E3,7.6622085E3,-3.0027573E3,-2.2070906E3,1.0753749E4,-3.8700574E3,2.1347607E4,-1.2399955E3,-5.471652E3,4.6249937E3,1.8247E2,-4.332248E3,-6.1063433E3,-5.7374116E3,-7.107743E3,-4.5168463E2,-2.534628E3,9.442891E1,-4.236394E3],"split_indices":[2,46,2,45,0,2,44,41,23,0,2,0,45,2,2,8,0,0,0,0,0,0,0,47,29,39,2,1,1,0,0,0,0,0,0,0,0,0,0,0,0,0,0,0,0,0,0,0,0],"split_type":[0,0,0,0,0,0,0,0,0,0,0,0,0,0,0,0,0,0,0,0,0,0,0,0,0,0,0,0,0,0,0,0,0,0,0,0,0,0,0,0,0,0,0,0,0,0,0,0,0],"sum_hessian":[1.175E3,3.77E2,7.98E2,2.87E2,9E1,3.92E2,4.06E2,1.28E2,1.59E2,1.2E1,7.8E1,3E0,3.89E2,3.08E2,9.8E1,9.7E1,3.1E1,1.27E2,3.2E1,7.4E1,4E0,2E0,1E0,3.29E2,6E1,1.53E2,1.55E2,5.2E1,4.6E1,8.6E1,1.1E1,2.9E1,2E0,1.7E1,1.1E2,2.8E1,4E0,2.78E2,5.1E1,5.6E1,4E0,1.24E2,2.9E1,9.4E1,6.1E1,2.6E1,2.6E1,1E0,4.5E1],"tree_param":{"num_deleted":"0","num_feature":"49","num_nodes":"49","size_leaf_vector":"1"}},{"base_weights":[-1.3549937E1,5.787849E4,-2.7401756E4,4.5623312E4,9.602808E4,-2.1255347E3,-3.931444E4,5.9944273E4,1.1847941E4,7.008716E3,9.908129E4,9.805544E3,-4.9350086E4,-2.7210795E4,-4.9100656E4,2.4169746E4,8.790678E4,-1.0654087E5,5.1131363E4,1.0143687E5,6.036151E3,-1.7405489E5,1.3380106E4,-8.2256375E4,-2.0415564E4,-3.334471E4,-1.0417032E4,-4.3620367E4,-5.71372E4,3.629199E3,-1.5159033E4,4.6150093E3,1.2151066E4,1.7977733E3,-2.1180451E4,-2.2367912E2,1.0790492E4,1.03012295E4,4.8507705E3,-2.4618271E4,2.1164282E3,3.1738058E2,3.6010398E3,-1.0854732E4,-1.6106078E3,-8.1623047E3,-1.5314475E3,-3.605927E3,1.1392119E3,4.7938132E2,-2.623408E3,-4.868023E3,-3.3989705E3,-6.290561E3,-4.3839507E3],"categories":[],"categories_nodes":[],"categories_segments":[],"categories_sizes":[],"default_left":[0,0,0,0,0,0,0,0,0,0,0,0,0,0,0,0,0,0,0,0,0,0,0,0,0,0,0,0,0,0,0,0,0,0,0,0,0,0,0,0,0,0,0,0,0,0,0,0,0,0,0,0,0,0,0],"id":13,"left_children":[1,3,5,7,9,11,13,15,17,-1,19,21,23,25,27,29,31,33,35,37,-1,39,41,43,45,47,49,51,53,-1,-1,-1,-1,-1,-1,-1,-1,-1,-1,-1,-1,-1,-1,-1,-1,-1,-1,-1,-1,-1,-1,-1,-1,-1,-1],"loss_changes":[1.8662034E12,1.7234513E11,2.4050152E11,1.3859416E11,2.6325811E8,1.4528794E11,6.298167E10,1.9994503E11,4.1006E11,0E0,1.0825236E9,1.3771632E11,4.7831343E10,2.4890474E10,1.0676404E10,1.9725609E11,1.5295237E11,2.92168E11,2.0021477E11,1.0903224E9,0E0,6.1533225E10,4.677293E10,3.999141E10,7.804507E9,2.2148694E10,1.6245334E10,7.214203E9,6.2936187E9,0E0,0E0,0E0,0E0,0E0,0E0,0E0,0E0,0E0,0E0,0E0,0E0,0E0,0E0,0E0,0E0,0E0,0E0,0E0,0E0,0E0,0E0,0E0,0E0,0E0,0E0],"parents":[2147483647,0,0,1,1,2,2,3,3,4,4,5,5,6,6,7,7,8,8,10,10,11,11,12,12,13,13,14,14,15,15,16,16,17,17,18,18,19,19,21,21,22,22,23,23,24,24,25,25,26,26,27,27,28,28],"right_children":[2,4,6,8,10,12,14,16,18,-1,20,22,24,26,28,30,32,34,36,38,-1,40,42,44,46,48,50,52,54,-1,-1,-1,-1,-1,-1,-1,-1,-1,-1,-1,-1,-1,-1,-1,-1,-1,-1,-1,-1,-1,-1,-1,-1,-1,-1],"split_conditions":[2.205E3,1E0,7E0,1.00267603E9,1.00168115E9,1E0,1.1E1,1.0024156E9,1.0027343E9,7.008716E3,1.00285843E9,2.3E3,3.6E3,1E0,1.7E1,1.00235565E9,1E0,1E0,1E0,1E0,6.036151E3,1.00255955E9,1E0,4E0,1.0016547E9,1E0,1.5711E4,1E0,1E0,3.629199E3,-1.5159033E4,4.6150093E3,1.2151066E4,1.7977733E3,-2.1180451E4,-2.2367912E2,1.0790492E4,1.03012295E4,4.8507705E3,-2.4618271E4,2.1164282E3,3.1738058E2,3.6010398E3,-1.0854732E4,-1.6106078E3,-8.1623047E3,-1.5314475E3,-3.605927E3,1.1392119E3,4.7938132E2,-2.623408E3,-4.868023E3,-3.3989705E3,-6.290561E3,-4.3839507E3],"split_indices":[2,46,1,0,0,47,1,0,0,0,0,2,2,44,1,0,45,23,45,25,0,0,45,1,0,48,2,37,48,0,0,0,0,0,0,0,0,0,0,0,0,0,0,0,0,0,0,0,0,0,0,0,0,0,0],"split_type":[0,0,0,0,0,0,0,0,0,0,0,0,0,0,0,0,0,0,0,0,0,0,0,0,0,0,0,0,0,0,0,0,0,0,0,0,0,0,0,0,0,0,0,0,0,0,0,0,0,0,0,0,0,0,0],"sum_hessian":[1.175E3,3.77E2,7.98E2,2.87E2,9E1,2.56E2,5.42E2,2.01E2,8.6E1,1.2E1,7.8E1,2.05E2,5.1E1,2.44E2,2.98E2,8.9E1,1.12E2,2.1E1,6.5E1,7.2E1,6E0,3E0,2.02E2,2.3E1,2.8E1,1.78E2,6.6E1,1.81E2,1.17E2,8.4E1,5E0,5.1E1,6.1E1,1E1,1.1E1,3.4E1,3.1E1,6.9E1,3E0,2E0,1E0,1.4E2,6.2E1,1.6E1,7E0,1E0,2.7E1,1.68E2,1E1,3.4E1,3.2E1,1.16E2,6.5E1,7.9E1,3.8E1],"tree_param":{"num_deleted":"0","num_feature":"49","num_nodes":"55","size_leaf_vector":"1"}},{"base_weights":[-4.5933613E1,5.2155766E4,-2.4742049E4,5.6607027E4,-4.0014344E4,-2.0715063E3,-3.542637E4,6.741565E4,2.691231E4,-4.3406305E4,8.824484E2,8.734785E3,-4.484121E4,-4.402913E4,-2.370445E4,-2.5565219E4,7.233324E4,-8.0360016E4,6.0880625E4,-4.623915E4,-1.4773318E3,-1.6227486E5,1.2061404E4,-7.4550125E4,-1.870827E4,-2.4324188E4,-4.7432176E4,-1.4461322E4,-3.4941555E4,1.2317734E4,-1.2188635E4,7.9329683E3,5.9122723E2,2.923297E3,-1.923891E4,6.9814546E3,-1.7680492E4,-4.8040645E3,-1.050911E3,-2.2977053E4,2.010607E3,2.4507097E3,-4.1556274E2,-9.83311E3,-1.4696796E3,-1.2528788E3,-6.8087524E3,-2.9614292E3,1.7642249E3,-4.528824E3,-6.3317695E3,-2.15042E3,2.3428606E2,-3.1135984E3,-5.0327754E3],"categories":[],"categories_nodes":[],"categories_segments":[],"categories_sizes":[],"default_left":[0,0,0,0,0,0,0,0,0,0,0,0,0,0,0,0,0,0,0,0,0,0,0,0,0,0,0,0,0,0,0,0,0,0,0,0,0,0,0,0,0,0,0,0,0,0,0,0,0,0,0,0,0,0,0],"id":14,"left_children":[1,3,5,7,9,11,13,15,17,19,-1,21,23,25,27,29,31,33,35,37,-1,39,41,43,45,47,49,51,53,-1,-1,-1,-1,-1,-1,-1,-1,-1,-1,-1,-1,-1,-1,-1,-1,-1,-1,-1,-1,-1,-1,-1,-1,-1,-1],"loss_changes":[1.5173651E12,1.5734846E11,1.9345995E11,1.1405191E11,3.364905E9,1.1917242E11,5.371278E10,1.2256097E11,3.6199065E11,6.958121E8,0E0,1.1914737E11,3.897712E10,1.9768017E10,2.35916E10,2.1559235E11,1.1617331E11,3.0028654E11,1.716033E11,4.606464E8,0E0,5.385946E10,4.107377E10,3.2715743E10,7.995953E9,1.1178785E10,6.157697E9,1.5317504E10,4.522541E9,0E0,0E0,0E0,0E0,0E0,0E0,0E0,0E0,0E0,0E0,0E0,0E0,0E0,0E0,0E0,0E0,0E0,0E0,0E0,0E0,0E0,0E0,0E0,0E0,0E0,0E0],"parents":[2147483647,0,0,1,1,2,2,3,3,4,4,5,5,6,6,7,7,8,8,9,9,11,11,12,12,13,13,14,14,15,15,16,16,17,17,18,18,19,19,21,21,22,22,23,23,24,24,25,25,26,26,27,27,28,28],"right_children":[2,4,6,8,10,12,14,16,18,20,-1,22,24,26,28,30,32,34,36,38,-1,40,42,44,46,48,50,52,54,-1,-1,-1,-1,-1,-1,-1,-1,-1,-1,-1,-1,-1,-1,-1,-1,-1,-1,-1,-1,-1,-1,-1,-1,-1,-1],"split_conditions":[2.205E3,1E0,7E0,1.00267603E9,1E0,1E0,1E0,1.0820054E8,1.0027343E9,1.00290726E9,8.824484E2,2.3E3,3.6E3,7.829E3,1.5711E4,1.0373737E8,1E0,1E0,1E0,1E0,-1.4773318E3,1.00255955E9,6.201E3,4E0,1E0,1.4021873E9,2.47E4,1E0,2.3039E4,1.2317734E4,-1.2188635E4,7.9329683E3,5.9122723E2,2.923297E3,-1.923891E4,6.9814546E3,-1.7680492E4,-4.8040645E3,-1.050911E3,-2.2977053E4,2.010607E3,2.4507097E3,-4.1556274E2,-9.83311E3,-1.4696796E3,-1.2528788E3,-6.8087524E3,-2.9614292E3,1.7642249E3,-4.528824E3,-6.3317695E3,-2.15042E3,2.3428606E2,-3.1135984E3,-5.0327754E3],"split_indices":[2,39,1,0,26,47,37,0,0,0,0,2,2,2,2,0,47,23,27,28,0,0,2,1,22,0,2,44,2,0,0,0,0,0,0,0,0,0,0,0,0,0,0,0,0,0,0,0,0,0,0,0,0,0,0],"split_type":[0,0,0,0,0,0,0,0,0,0,0,0,0,0,0,0,0,0,0,0,0,0,0,0,0,0,0,0,0,0,0,0,0,0,0,0,0,0,0,0,0,0,0,0,0,0,0,0,0,0,0,0,0,0,0],"sum_hessian":[1.175E3,3.77E2,7.98E2,3.6E2,1.7E1,2.56E2,5.42E2,2.63E2,9.7E1,1.6E1,1E0,2.05E2,5.1E1,3.11E2,2.31E2,1.3E1,2.5E2,2.3E1,7.4E1,1.4E1,2E0,3E0,2.02E2,2.3E1,2.8E1,4.7E1,2.64E2,1.28E2,1.03E2,5E0,8E0,2.26E2,2.4E1,1.2E1,1.1E1,7.2E1,2E0,1.3E1,1E0,2E0,1E0,1.14E2,8.8E1,1.6E1,7E0,2.6E1,2E0,4.2E1,5E0,2.36E2,2.8E1,9E1,3.8E1,8.5E1,1.8E1],"tree_param":{"num_deleted":"0","num_feature":"49","num_nodes":"55","size_leaf_vector":"1"}},{"base_weights":[-1.138115E2,5.1835984E4,-2.0353857E4,5.5572027E4,-3.646127E4,6.026525E2,-3.190791E4,-1.3105105E4,5.9750266E4,-4.0555715E4,8.383266E2,9.655525E3,-3.764832E4,-2.170158E4,-4.014329E4,1.1291256E4,-6.617659E4,6.639007E4,1.6348841E4,-4.3703715E4,-1.5494469E3,1.2258424E4,-4.1905625E4,-5.6241836E4,-1.7115434E4,-2.6797873E4,-7.6861426E3,-3.61933E4,-4.8588496E4,-1.5129994E4,4.0561023E3,5.8188394E3,1.1557853E4,-3.8823357E3,2.691617E3,-4.5672173E3,-1.2009579E3,-7.482685E3,1.3713328E3,-4.6150225E3,-1.3788427E3,-2.9138838E3,-8.944276E3,-7.6915454E3,-1.2232738E3,-2.9135151E3,1.1759857E3,4.6001193E2,-2.0484114E3,-3.2858728E3,-4.9055483E3,-5.5212554E3,-3.7070662E3],"categories":[],"categories_nodes":[],"categories_segments":[],"categories_sizes":[],"default_left":[0,0,0,0,0,0,0,0,0,0,0,0,0,0,0,0,0,0,0,0,0,0,0,0,0,0,0,0,0,0,0,0,0,0,0,0,0,0,0,0,0,0,0,0,0,0,0,0,0,0,0,0,0],"id":15,"left_children":[1,3,5,7,9,11,13,15,17,19,-1,21,23,25,27,-1,29,31,33,35,-1,37,39,41,43,45,47,49,51,-1,-1,-1,-1,-1,-1,-1,-1,-1,-1,-1,-1,-1,-1,-1,-1,-1,-1,-1,-1,-1,-1,-1,-1],"loss_changes":[1.2375795E12,1.1088744E11,2.0510556E11,9.1746075E10,2.9105787E9,1.0494044E11,4.502179E10,1.34543114E11,8.5079425E10,3.4844058E8,0E0,3.3394762E10,2.1180555E10,1.7365008E10,8.2823086E9,0E0,1.33338956E11,9.776241E10,2.4948912E10,1.3777306E8,0E0,3.0674084E10,7.9581594E8,2.4389091E10,7.526687E9,1.6564257E10,1.0629256E10,7.352074E9,5.0486313E9,0E0,0E0,0E0,0E0,0E0,0E0,0E0,0E0,0E0,0E0,0E0,0E0,0E0,0E0,0E0,0E0,0E0,0E0,0E0,0E0,0E0,0E0,0E0,0E0],"parents":[2147483647,0,0,1,1,2,2,3,3,4,4,5,5,6,6,7,7,8,8,9,9,11,11,12,12,13,13,14,14,16,16,17,17,18,18,19,19,21,21,22,22,23,23,24,24,25,25,26,26,27,27,28,28],"right_children":[2,4,6,8,10,12,14,16,18,20,-1,22,24,26,28,-1,30,32,34,36,-1,38,40,42,44,46,48,50,52,-1,-1,-1,-1,-1,-1,-1,-1,-1,-1,-1,-1,-1,-1,-1,-1,-1,-1,-1,-1,-1,-1,-1,-1],"split_conditions":[1.193E3,1E0,7E0,1.0007343E9,1E0,1E0,1.1E1,1.0373737E8,1E0,3.52E2,8.383266E2,1E0,3.6E3,1E0,1.8E1,1.1291256E4,1E0,1.00274323E9,1E0,1E0,-1.5494469E3,1.288E3,1.00289094E9,2.935E3,1.0016547E9,1E0,1.5711E4,1E0,1E0,-1.5129994E4,4.0561023E3,5.8188394E3,1.1557853E4,-3.8823357E3,2.691617E3,-4.5672173E3,-1.2009579E3,-7.482685E3,1.3713328E3,-4.6150225E3,-1.3788427E3,-2.9138838E3,-8.944276E3,-7.6915454E3,-1.2232738E3,-2.9135151E3,1.1759857E3,4.6001193E2,-2.0484114E3,-3.2858728E3,-4.9055483E3,-5.5212554E3,-3.7070662E3],"split_indices":[2,39,1,0,26,47,1,0,33,2,0,39,2,44,1,0,2,0,37,32,0,2,0,2,0,48,2,39,48,0,0,0,0,0,0,0,0,0,0,0,0,0,0,0,0,0,0,0,0,0,0,0,0],"split_type":[0,0,0,0,0,0,0,0,0,0,0,0,0,0,0,0,0,0,0,0,0,0,0,0,0,0,0,0,0,0,0,0,0,0,0,0,0,0,0,0,0,0,0,0,0,0,0,0,0,0,0,0,0],"sum_hessian":[1.175E3,3.29E2,8.46E2,3.16E2,1.3E1,3.01E2,5.45E2,1.8E1,2.98E2,1.2E1,1E0,2.44E2,5.7E1,2.45E2,3E2,5E0,1.3E1,2.58E2,4E1,1E1,2E0,2.33E2,1.1E1,2.9E1,2.8E1,1.79E2,6.6E1,2.08E2,9.2E1,7E0,6E0,2.23E2,3.5E1,6E0,3.4E1,9E0,1E0,3E0,2.3E2,9E0,2E0,1.7E1,1.2E1,1E0,2.7E1,1.69E2,1E1,3.4E1,3.2E1,1.68E2,4E1,5.6E1,3.6E1],"tree_param":{"num_deleted":"0","num_feature":"49","num_nodes":"53","size_leaf_vector":"1"}},{"base_weights":[-1.3958932E2,4.2410246E4,-2.0269375E4,3.2637041E4,7.287479E4,-6.9335645E3,-3.3096656E4,2.7317695E4,9.896789E4,7.474188E4,4.4160933E3,-1.5231748E5,-5.4246694E3,-3.781465E4,-1.8036494E4,2.2595898E4,1.00273734E5,1.0272442E5,1.1918625E3,5.092359E3,7.800433E4,-2.153667E4,1.8415101E3,-1.2412131E4,3.2465281E4,-3.4617023E4,-4.999525E4,-8.774714E3,-2.8096873E4,3.721964E3,-1.1313169E3,1.4874192E4,-1.5933572E4,1.0573994E4,2.271475E3,7.939259E3,3.4555828E3,-1.705204E3,2.3690635E3,3.5066921E3,-3.6864938E2,-3.782901E3,-2.6240093E3,-3.5386711E3,-5.2793564E3,1.5874791E2,-1.3712069E3,2.6050781E1,-2.8719001E3],"categories":[],"categories_nodes":[],"categories_segments":[],"categories_sizes":[],"default_left":[0,0,0,0,0,0,0,0,0,0,0,0,0,0,0,0,0,0,0,0,0,0,0,0,0,0,0,0,0,0,0,0,0,0,0,0,0,0,0,0,0,0,0,0,0,0,0,0,0],"id":16,"left_children":[1,3,5,7,9,11,13,15,17,19,-1,21,23,25,27,29,31,33,-1,-1,35,-1,-1,37,39,41,43,45,47,-1,-1,-1,-1,-1,-1,-1,-1,-1,-1,-1,-1,-1,-1,-1,-1,-1,-1,-1,-1],"loss_changes":[1.00812607E12,1.10165885E11,1.3644923E11,9.891342E10,1.577943E9,8.538579E10,2.823684E10,9.00558E10,5.642748E9,2.555052E9,0E0,4.7024234E10,1.0365725E11,1.0304553E10,8.977981E9,1.2587807E11,2.2502469E11,2.4235704E9,0E0,0E0,1.5994061E9,0E0,0E0,5.568343E10,5.8665697E9,5.6802017E9,6.663209E8,2.733344E9,8.3665306E8,0E0,0E0,0E0,0E0,0E0,0E0,0E0,0E0,0E0,0E0,0E0,0E0,0E0,0E0,0E0,0E0,0E0,0E0,0E0,0E0],"parents":[2147483647,0,0,1,1,2,2,3,3,4,4,5,5,6,6,7,7,8,8,9,9,11,11,12,12,13,13,14,14,15,15,16,16,17,17,20,20,23,23,24,24,25,25,26,26,27,27,28,28],"right_children":[2,4,6,8,10,12,14,16,18,20,-1,22,24,26,28,30,32,34,-1,-1,36,-1,-1,38,40,42,44,46,48,-1,-1,-1,-1,-1,-1,-1,-1,-1,-1,-1,-1,-1,-1,-1,-1,-1,-1,-1,-1],"split_conditions":[2.205E3,1E0,1.1279E4,1E0,1.0028371E9,2.3E3,1E0,1E0,1E0,1.00168115E9,4.4160933E3,1.00255955E9,1E0,2.1856E4,1.7397E4,1.00267603E9,1E0,1.0026607E9,1.1918625E3,5.092359E3,1E0,-2.153667E4,1.8415101E3,1E0,1E0,1E0,1.0027566E9,9E0,5E0,3.721964E3,-1.1313169E3,1.4874192E4,-1.5933572E4,1.0573994E4,2.271475E3,7.939259E3,3.4555828E3,-1.705204E3,2.3690635E3,3.5066921E3,-3.6864938E2,-3.782901E3,-2.6240093E3,-3.5386711E3,-5.2793564E3,1.5874791E2,-1.3712069E3,2.6050781E1,-2.8719001E3],"split_indices":[2,46,2,34,0,2,44,21,28,0,0,0,45,2,2,0,1,0,0,0,25,0,0,44,29,41,0,1,1,0,0,0,0,0,0,0,0,0,0,0,0,0,0,0,0,0,0,0,0],"split_type":[0,0,0,0,0,0,0,0,0,0,0,0,0,0,0,0,0,0,0,0,0,0,0,0,0,0,0,0,0,0,0,0,0,0,0,0,0,0,0,0,0,0,0,0,0,0,0,0,0],"sum_hessian":[1.175E3,3.77E2,7.98E2,2.87E2,9E1,3.92E2,4.06E2,2.67E2,2E1,8.3E1,7E0,3E0,3.89E2,3.08E2,9.8E1,2.52E2,1.5E1,1.9E1,1E0,1.2E1,7.1E1,2E0,1E0,3.29E2,6E1,2.47E2,6.1E1,5.2E1,4.6E1,1.76E2,7.6E1,1.3E1,2E0,1.8E1,1E0,6.8E1,3E0,2.92E2,3.7E1,5.6E1,4E0,1.76E2,7.1E1,1.2E1,4.9E1,1.7E1,3.5E1,1E0,4.5E1],"tree_param":{"num_deleted":"0","num_feature":"49","num_nodes":"49","size_leaf_vector":"1"}},{"base_weights":[-1.2452852E2,3.8265707E4,-1.8286463E4,4.177736E4,-3.4288277E4,-3.2237996E4,-7.7215195E3,5.088527E4,1.681547E4,-3.702325E4,6.103125E2,-2.5940691E4,-3.8912402E4,-1.4200953E5,-6.518708E3,9.132315E3,5.8520867E4,-6.741635E4,5.147129E4,-3.9536684E4,-1.2114989E3,-2.4214926E4,-8.1499487E3,-4.0189258E4,-2.5432156E3,-2.0100895E4,1.7494344E3,-1.1815663E4,2.6459518E4,1.0040154E4,-5.914919E2,6.4301533E3,-1.5309594E3,1.0751658E3,-1.7905033E4,6.0142207E3,-1.6222659E4,-4.0779316E3,-1.1069915E3,-1.9632051E3,-4.1491885E3,-3.7872153E3,-4.925648E3,-4.4001636E2,-2.260809E3,2.9270203E3,-3.9510896E3],"categories":[],"categories_nodes":[],"categories_segments":[],"categories_sizes":[],"default_left":[0,0,0,0,0,0,0,0,0,0,0,0,0,0,0,0,0,0,0,0,0,0,0,0,0,0,0,0,0,0,0,0,0,0,0,0,0,0,0,0,0,0,0,0,0,0,0],"id":17,"left_children":[1,3,5,7,9,11,13,15,17,19,-1,21,23,25,27,29,31,33,35,37,-1,39,-1,41,-1,-1,-1,43,45,-1,-1,-1,-1,-1,-1,-1,-1,-1,-1,-1,-1,-1,-1,-1,-1,-1,-1],"loss_changes":[8.206551E11,9.7740915E10,1.1752142E11,8.121798E10,2.2144061E9,1.3449167E10,7.272885E10,8.363108E10,2.89544E11,5.853E8,0E0,1.528515E10,1.8179523E9,4.1159057E10,7.9444574E10,5.8274537E10,9.6158286E10,2.5498504E11,1.3946364E11,7.918387E7,0E0,1.3120774E10,0E0,1.2649759E9,0E0,0E0,0E0,3.1192728E10,1.2838076E10,0E0,0E0,0E0,0E0,0E0,0E0,0E0,0E0,0E0,0E0,0E0,0E0,0E0,0E0,0E0,0E0,0E0,0E0],"parents":[2147483647,0,0,1,1,2,2,3,3,4,4,5,5,6,6,7,7,8,8,9,9,11,11,12,12,13,13,14,14,15,15,16,16,17,17,18,18,19,19,21,21,23,23,27,27,28,28],"right_children":[2,4,6,8,10,12,14,16,18,20,-1,22,24,26,28,30,32,34,36,38,-1,40,-1,42,-1,-1,-1,44,46,-1,-1,-1,-1,-1,-1,-1,-1,-1,-1,-1,-1,-1,-1,-1,-1,-1,-1],"split_conditions":[2.205E3,1E0,1E0,1.00267603E9,1E0,1.45E4,2.3E3,1.00148934E9,1.00274323E9,1.00290726E9,6.103125E2,1E0,1E0,1.00255955E9,1E0,1.0373737E8,1E0,1E0,1E0,1E0,-1.2114989E3,1E0,-8.1499487E3,2.47E4,-2.5432156E3,-2.0100895E4,1.7494344E3,1.275E4,1.0927E4,1.0040154E4,-5.914919E2,6.4301533E3,-1.5309594E3,1.0751658E3,-1.7905033E4,6.0142207E3,-1.6222659E4,-4.0779316E3,-1.1069915E3,-1.9632051E3,-4.1491885E3,-3.7872153E3,-4.925648E3,-4.4001636E2,-2.260809E3,2.9270203E3,-3.9510896E3],"split_indices":[2,39,37,0,26,2,2,0,0,0,0,35,44,0,45,0,7,23,27,28,0,39,0,2,0,0,0,2,2,0,0,0,0,0,0,0,0,0,0,0,0,0,0,0,0,0,0],"split_type":[0,0,0,0,0,0,0,0,0,0,0,0,0,0,0,0,0,0,0,0,0,0,0,0,0,0,0,0,0,0,0,0,0,0,0,0,0,0,0,0,0,0,0,0,0,0,0],"sum_hessian":[1.175E3,3.77E2,7.98E2,3.6E2,1.7E1,3.43E2,4.55E2,2.63E2,9.7E1,1.6E1,1E0,1.79E2,1.64E2,3E0,4.52E2,4.1E1,2.22E2,2.8E1,6.9E1,1.4E1,2E0,1.75E2,4E0,1.48E2,1.6E1,2E0,1E0,3.9E2,6.2E1,5E0,3.6E1,2.06E2,1.6E1,1.7E1,1.1E1,6.7E1,2E0,1.3E1,1E0,1.4E2,3.5E1,1.22E2,2.6E1,2.32E2,1.58E2,6E1,2E0],"tree_param":{"num_deleted":"0","num_feature":"49","num_nodes":"47","size_leaf_vector":"1"}},{"base_weights":[-1.6825755E2,3.8258125E4,-1.5139377E4,4.1275703E4,-3.2801164E4,-2.8837969E4,-5.574879E3,-1.7907297E4,4.489845E4,-3.6216324E4,5.797969E2,-1.5086486E4,-3.1766309E4,2.35698E3,-1.9936764E4,9.203475E3,-6.3746223E4,5.0603297E4,7.765442E3,-3.9856215E4,-1.8062516E3,-9.755103E3,-7.4979526E3,-2.9657826E4,-4.112519E4,8.427884E3,-2.804119E4,-2.5525932E4,-1.2443909E4,-1.4080036E4,3.342225E3,4.338031E3,9.41407E3,-4.0480896E3,1.719284E3,-4.178888E3,-1.123111E3,-1.5370101E3,2.3147122E3,-2.4205728E3,-3.4950996E3,-4.282471E3,-2.4567478E3,1.01549066E3,-4.2784067E3,-2.2605818E3,-7.6786675E3,-2.6799282E3,4.282253E2,-4.464654E2,-2.2638691E3],"categories":[],"categories_nodes":[],"categories_segments":[],"categories_sizes":[],"default_left":[0,0,0,0,0,0,0,0,0,0,0,0,0,0,0,0,0,0,0,0,0,0,0,0,0,0,0,0,0,0,0,0,0,0,0,0,0,0,0,0,0,0,0,0,0,0,0,0,0,0,0],"id":18,"left_children":[1,3,5,7,9,11,13,15,17,19,-1,21,23,25,27,-1,29,31,33,35,-1,37,-1,39,41,43,45,47,49,-1,-1,-1,-1,-1,-1,-1,-1,-1,-1,-1,-1,-1,-1,-1,-1,-1,-1,-1,-1,-1,-1],"loss_changes":[6.771155E11,7.2114766E10,1.10813315E11,6.877043E10,2.0554936E9,1.3534331E10,5.7005208E10,1.01619745E11,6.2946607E10,1.3910835E8,0E0,1.9385274E10,4.423975E9,5.984416E10,7.1367885E9,0E0,1.0952712E11,7.7364E10,1.9344314E10,8.389325E7,0E0,1.1255783E10,0E0,5.9935457E9,3.549102E8,2.431439E10,1.2571464E10,3.9483433E9,6.243975E9,0E0,0E0,0E0,0E0,0E0,0E0,0E0,0E0,0E0,0E0,0E0,0E0,0E0,0E0,0E0,0E0,0E0,0E0,0E0,0E0,0E0,0E0],"parents":[2147483647,0,0,1,1,2,2,3,3,4,4,5,5,6,6,7,7,8,8,9,9,11,11,12,12,13,13,14,14,16,16,17,17,18,18,19,19,21,21,23,23,24,24,25,25,26,26,27,27,28,28],"right_children":[2,4,6,8,10,12,14,16,18,20,-1,22,24,26,28,-1,30,32,34,36,-1,38,-1,40,42,44,46,48,50,-1,-1,-1,-1,-1,-1,-1,-1,-1,-1,-1,-1,-1,-1,-1,-1,-1,-1,-1,-1,-1,-1],"split_conditions":[1.193E3,1E0,1E0,1.0007343E9,1E0,7.041E3,1.1279E4,1.0373737E8,1E0,1E0,5.797969E2,1E0,1E0,1E0,1E0,9.203475E3,1E0,1.00274323E9,1E0,1E0,-1.8062516E3,1.4021306E9,-7.4979526E3,1.687E4,1E0,1.4018478E9,1E0,1E0,1.7413E4,-1.4080036E4,3.342225E3,4.338031E3,9.41407E3,-4.0480896E3,1.719284E3,-4.178888E3,-1.123111E3,-1.5370101E3,2.3147122E3,-2.4205728E3,-3.4950996E3,-4.282471E3,-2.4567478E3,1.01549066E3,-4.2784067E3,-2.2605818E3,-7.6786675E3,-2.6799282E3,4.282253E2,-4.464654E2,-2.2638691E3],"split_indices":[2,39,37,0,26,2,2,0,33,8,0,35,39,47,44,0,2,0,37,32,0,0,0,2,14,0,21,20,2,0,0,0,0,0,0,0,0,0,0,0,0,0,0,0,0,0,0,0,0,0,0],"split_type":[0,0,0,0,0,0,0,0,0,0,0,0,0,0,0,0,0,0,0,0,0,0,0,0,0,0,0,0,0,0,0,0,0,0,0,0,0,0,0,0,0,0,0,0,0,0,0,0,0,0,0],"sum_hessian":[1.175E3,3.29E2,8.46E2,3.16E2,1.3E1,3.47E2,4.99E2,1.8E1,2.98E2,1.2E1,1E0,6.2E1,2.85E2,3.22E2,1.77E2,5E0,1.3E1,2.58E2,4E1,9E0,3E0,5.8E1,4E0,2.36E2,4.9E1,2.69E2,5.3E1,1E2,7.7E1,7E0,6E0,2.23E2,3.5E1,6E0,3.4E1,8E0,1E0,5E1,8E0,1.19E2,1.17E2,4.3E1,6E0,2.61E2,8E0,4.9E1,4E0,9.6E1,4E0,4.4E1,3.3E1],"tree_param":{"num_deleted":"0","num_feature":"49","num_nodes":"51","size_leaf_vector":"1"}},{"base_weights":[-1.8049318E2,3.4782863E4,-1.3573999E4,3.7568805E4,-2.9987373E4,5.5462286E2,-2.1467377E4,-1.6197322E4,4.090436E4,-3.314149E4,5.508063E2,7.672457E3,-2.8756371E4,-1.3929284E4,-2.7034299E4,8.436519E3,-5.8138586E4,4.8954586E4,1.4329271E4,-3.6400805E4,-1.6707828E3,9.729469E3,-3.3421473E4,-4.3704227E4,-1.1270587E4,-1.1309794E4,-3.2056377E4,-2.9241365E4,-1.5655449E4,-1.2848033E4,3.055749E3,5.4446167E3,-1.0331022E3,-7.747868E3,7.034031E3,-3.822766E3,-9.979547E2,1.1401115E3,-3.9337578E3,-3.6765723E3,-1.1133485E3,2.4570325E3,-5.1614365E3,-5.461486E2,-5.979564E3,-4.0800143E2,-1.9391918E3,-6.255117E2,-3.4792864E3,-2.7316636E3,-4.428229E3,2.0186504E3,-2.2475942E3],"categories":[],"categories_nodes":[],"categories_segments":[],"categories_sizes":[],"default_left":[0,0,0,0,0,0,0,0,0,0,0,0,0,0,0,0,0,0,0,0,0,0,0,0,0,0,0,0,0,0,0,0,0,0,0,0,0,0,0,0,0,0,0,0,0,0,0,0,0,0,0,0,0],"id":19,"left_children":[1,3,5,7,9,11,13,15,17,19,-1,21,23,25,27,-1,29,31,33,35,-1,37,39,41,43,45,47,49,51,-1,-1,-1,-1,-1,-1,-1,-1,-1,-1,-1,-1,-1,-1,-1,-1,-1,-1,-1,-1,-1,-1,-1,-1],"loss_changes":[5.5117165E11,5.995207E10,9.491761E10,5.6795824E10,1.7499392E9,6.4061653E10,2.253575E10,8.504154E10,6.2409507E10,8.813466E7,0E0,2.1204253E10,1.5189926E10,1.0748645E10,7.4028646E9,0E0,9.1272544E10,7.414173E10,3.6540793E11,1.0118349E8,0E0,1.9805856E10,4.8510874E8,1.8550133E10,7.848148E9,1.1957864E10,1.8299044E9,6.346244E9,1.3410078E10,0E0,0E0,0E0,0E0,0E0,0E0,0E0,0E0,0E0,0E0,0E0,0E0,0E0,0E0,0E0,0E0,0E0,0E0,0E0,0E0,0E0,0E0,0E0,0E0],"parents":[2147483647,0,0,1,1,2,2,3,3,4,4,5,5,6,6,7,7,8,8,9,9,11,11,12,12,13,13,14,14,16,16,17,17,18,18,19,19,21,21,22,22,23,23,24,24,25,25,26,26,27,27,28,28],"right_children":[2,4,6,8,10,12,14,16,18,20,-1,22,24,26,28,-1,30,32,34,36,-1,38,40,42,44,46,48,50,52,-1,-1,-1,-1,-1,-1,-1,-1,-1,-1,-1,-1,-1,-1,-1,-1,-1,-1,-1,-1,-1,-1,-1,-1],"split_conditions":[1.063E3,1E0,7E0,1.0007343E9,1E0,1E0,1E0,1.0373737E8,1.00267603E9,1E0,5.508063E2,1E0,3.6E3,1E0,1E0,8.436519E3,1E0,1E0,1.0027566E9,1E0,-1.6707828E3,1.4021306E9,1.00289094E9,1.5E3,1E0,1.5711E4,5.8E3,1.9E1,1E1,-1.2848033E4,3.055749E3,5.4446167E3,-1.0331022E3,-7.747868E3,7.034031E3,-3.822766E3,-9.979547E2,1.1401115E3,-3.9337578E3,-3.6765723E3,-1.1133485E3,2.4570325E3,-5.1614365E3,-5.461486E2,-5.979564E3,-4.0800143E2,-1.9391918E3,-6.255117E2,-3.4792864E3,-2.7316636E3,-4.428229E3,2.0186504E3,-2.2475942E3],"split_indices":[2,39,1,0,26,47,38,0,0,8,0,39,2,40,48,0,2,47,0,25,0,0,0,2,22,2,2,1,1,0,0,0,0,0,0,0,0,0,0,0,0,0,0,0,0,0,0,0,0,0,0,0,0],"split_type":[0,0,0,0,0,0,0,0,0,0,0,0,0,0,0,0,0,0,0,0,0,0,0,0,0,0,0,0,0,0,0,0,0,0,0,0,0,0,0,0,0,0,0,0,0,0,0,0,0,0,0,0,0],"sum_hessian":[1.175E3,3.25E2,8.5E2,3.12E2,1.3E1,3.05E2,5.45E2,1.8E1,2.94E2,1.2E1,1E0,2.46E2,5.9E1,2.33E2,3.12E2,5E0,1.3E1,2.25E2,6.9E1,9E0,3E0,2.35E2,1.1E1,3.1E1,2.8E1,2.05E2,2.8E1,2.6E2,5.2E1,7E0,6E0,2.06E2,1.9E1,2.6E1,4.3E1,8E0,1E0,2.28E2,7E0,9E0,2E0,3E0,2.8E1,2.6E1,2E0,1.09E2,9.6E1,3E0,2.5E1,2.33E2,2.7E1,8E0,4.4E1],"tree_param":{"num_deleted":"0","num_feature":"49","num_nodes":"53","size_leaf_vector":"1"}},{"base_weights":[-1.9157329E2,3.1293533E4,-1.2252623E4,2.7728662E4,8.174864E4,4.4421115E2,-1.934599E4,3.580598E4,-3.3731606E3,1.0705544E5,-2.1219365E4,6.874504E3,-2.6034564E4,-1.26991875E4,-2.4713988E4,4.01626E4,-1.4778479E4,-8.7550164E4,4.9321797E4,1.1384067E4,5.145433E3,8.74468E3,-3.0478482E4,-1.5486375E4,-4.798138E4,-1.0616295E4,-3.2432604E4,-2.1580406E4,-3.1490387E4,4.489347E3,-1.3243815E3,8.340431E3,-1.2130169E4,-1.1780805E4,5.7042964E3,1.4630923E3,1.2904793E4,1.510285E3,-2.5207681E2,-1.8805735E3,-3.901694E3,-8.243146E2,-6.743764E3,5.177974E3,-5.6400312E3,-7.4207166E2,-2.5130442E3,-3.343118E3,-5.231961E2,-1.9127633E3,-3.1164263E3,-3.6380383E3,-2.3106057E3],"categories":[],"categories_nodes":[],"categories_segments":[],"categories_sizes":[],"default_left":[0,0,0,0,0,0,0,0,0,0,0,0,0,0,0,0,0,0,0,0,0,0,0,0,0,0,0,0,0,0,0,0,0,0,0,0,0,0,0,0,0,0,0,0,0,0,0,0,0,0,0,0,0],"id":20,"left_children":[1,3,5,7,9,11,13,15,17,19,-1,21,23,25,27,29,31,33,35,-1,-1,37,39,41,43,45,47,49,51,-1,-1,-1,-1,-1,-1,-1,-1,-1,-1,-1,-1,-1,-1,-1,-1,-1,-1,-1,-1,-1,-1,-1,-1],"loss_changes":[4.469617E11,5.6369512E10,7.665246E10,7.699387E10,1.7892999E11,5.228046E10,1.9167445E10,5.414522E10,2.8820318E11,1.6877486E9,0E0,1.7521111E10,1.314689E10,9.76692E9,5.7119867E9,5.719012E10,2.1929198E11,1.16097155E11,1.0874267E11,0E0,0E0,1.6942197E10,4.6226637E8,1.5248489E10,1.8878165E10,1.020288E10,4.4981453E8,4.3168645E9,2.972328E9,0E0,0E0,0E0,0E0,0E0,0E0,0E0,0E0,0E0,0E0,0E0,0E0,0E0,0E0,0E0,0E0,0E0,0E0,0E0,0E0,0E0,0E0,0E0,0E0],"parents":[2147483647,0,0,1,1,2,2,3,3,4,4,5,5,6,6,7,7,8,8,9,9,11,11,12,12,13,13,14,14,15,15,16,16,17,17,18,18,21,21,22,22,23,23,24,24,25,25,26,26,27,27,28,28],"right_children":[2,4,6,8,10,12,14,16,18,20,-1,22,24,26,28,30,32,34,36,-1,-1,38,40,42,44,46,48,50,52,-1,-1,-1,-1,-1,-1,-1,-1,-1,-1,-1,-1,-1,-1,-1,-1,-1,-1,-1,-1,-1,-1,-1,-1],"split_conditions":[1.063E3,1E0,7E0,1.00267603E9,1E0,1E0,1.1E1,1E0,1.0027566E9,1E0,-2.1219365E4,1E0,1E0,1E0,1.8E1,1E0,1E0,5E0,1E0,1.1384067E4,5.145433E3,6.201E3,4E0,1E0,1.5E3,1E0,1E0,1E0,1E0,4.489347E3,-1.3243815E3,8.340431E3,-1.2130169E4,-1.1780805E4,5.7042964E3,1.4630923E3,1.2904793E4,1.510285E3,-2.5207681E2,-1.8805735E3,-3.901694E3,-8.243146E2,-6.743764E3,5.177974E3,-5.6400312E3,-7.4207166E2,-2.5130442E3,-3.343118E3,-5.231961E2,-1.9127633E3,-3.1164263E3,-3.6380383E3,-2.3106057E3],"split_indices":[2,21,1,0,1,47,1,8,0,34,0,39,23,39,1,7,2,2,45,0,0,2,1,21,2,40,6,39,48,0,0,0,0,0,0,0,0,0,0,0,0,0,0,0,0,0,0,0,0,0,0,0,0],"split_type":[0,0,0,0,0,0,0,0,0,0,0,0,0,0,0,0,0,0,0,0,0,0,0,0,0,0,0,0,0,0,0,0,0,0,0,0,0,0,0,0,0,0,0,0,0,0,0,0,0,0,0,0,0],"sum_hessian":[1.175E3,3.25E2,8.5E2,3.05E2,2E1,3.05E2,5.45E2,2.42E2,6.3E1,1.9E1,1E0,2.46E2,5.9E1,2.45E2,3E2,2.23E2,1.9E1,2.4E1,3.9E1,1.6E1,3E0,2.35E2,1.1E1,4.1E1,1.8E1,2.23E2,2.2E1,2.08E2,9.2E1,2.05E2,1.8E1,1E1,9E0,2E1,4E0,2.8E1,1.1E1,1.5E2,8.5E1,6E0,5E0,3.7E1,4E0,1E0,1.7E1,1.84E2,3.9E1,2.1E1,1E0,1.68E2,4E1,5.6E1,3.6E1],"tree_param":{"num_deleted":"0","num_feature":"49","num_nodes":"53","size_leaf_vector":"1"}},{"base_weights":[-1.9594948E2,2.8173309E4,-1.1063379E4,2.4350096E4,7.3230805E4,-2.88156E3,-2.0324783E4,-2.7718615E4,2.8540203E4,7.590855E4,4.4824374E2,-1.6484213E4,2.1819077E3,-2.3642557E4,-9.751481E3,-3.4489582E1,-2.1226795E4,4.3502593E3,3.819443E4,7.809925E4,1.2761188E3,-2.1338467E4,-1.3924569E1,6.6464067E3,-1.9860656E4,-2.1275613E4,-3.287409E4,-2.7747112E3,-1.7426277E4,5.856065E3,-4.0597703E3,-9.1389667E2,2.4247888E3,5.08091E3,-7.685065E2,8.017548E3,1.6211188E3,-1.8961038E3,-6.033999E3,2.3995984E3,-1.6019755E3,8.1911566E2,-3.526306E3,-1.5422762E3,-6.204263E3,-2.3763157E3,-1.5123103E3,-3.3592407E3,-8.0286304E2,4.823229E2,-6.285552E2,2.0658125E2,-1.7905342E3],"categories":[],"categories_nodes":[],"categories_segments":[],"categories_sizes":[],"default_left":[0,0,0,0,0,0,0,0,0,0,0,0,0,0,0,0,0,0,0,0,0,0,0,0,0,0,0,0,0,0,0,0,0,0,0,0,0,0,0,0,0,0,0,0,0,0,0,0,0,0,0,0,0],"id":21,"left_children":[1,3,5,7,9,11,13,15,17,19,-1,21,23,25,27,29,-1,31,33,35,-1,37,39,41,43,45,47,49,51,-1,-1,-1,-1,-1,-1,-1,-1,-1,-1,-1,-1,-1,-1,-1,-1,-1,-1,-1,-1,-1,-1,-1,-1],"loss_changes":[3.6287355E11,5.437504E10,6.4426074E10,6.667949E10,4.262011E9,3.1237063E10,1.3766296E10,1.1750168E11,6.522369E10,2.3234642E9,0E0,9.833675E9,3.2705382E10,5.9212923E9,5.1455396E9,5.2290376E10,0E0,2.1962293E10,1.16141425E11,1.6556032E9,0E0,7.664607E9,1.1529066E10,1.8156986E10,9.526284E9,3.3749647E9,8.01108E8,1.4174246E9,4.6653542E8,0E0,0E0,0E0,0E0,0E0,0E0,0E0,0E0,0E0,0E0,0E0,0E0,0E0,0E0,0E0,0E0,0E0,0E0,0E0,0E0,0E0,0E0,0E0,0E0],"parents":[2147483647,0,0,1,1,2,2,3,3,4,4,5,5,6,6,7,7,8,8,9,9,11,11,12,12,13,13,14,14,15,15,17,17,18,18,19,19,21,21,22,22,23,23,24,24,25,25,26,26,27,27,28,28],"right_children":[2,4,6,8,10,12,14,16,18,20,-1,22,24,26,28,30,-1,32,34,36,-1,38,40,42,44,46,48,50,52,-1,-1,-1,-1,-1,-1,-1,-1,-1,-1,-1,-1,-1,-1,-1,-1,-1,-1,-1,-1,-1,-1,-1,-1],"split_conditions":[1.063E3,1E0,1.15E4,1.00100666E9,1.8E2,1E0,1E0,1E0,1E0,1E0,4.4824374E2,1E0,1E0,2.2053E4,1.7413E4,1E0,-2.1226795E4,1E0,1E0,1E0,1.2761188E3,1E0,1E1,1.4018478E9,1E0,1E0,2.7E1,9E0,5E0,5.856065E3,-4.0597703E3,-9.1389667E2,2.4247888E3,5.08091E3,-7.685065E2,8.017548E3,1.6211188E3,-1.8961038E3,-6.033999E3,2.3995984E3,-1.6019755E3,8.1911566E2,-3.526306E3,-1.5422762E3,-6.204263E3,-2.3763157E3,-1.5123103E3,-3.3592407E3,-8.0286304E2,4.823229E2,-6.285552E2,2.0658125E2,-1.7905342E3],"split_indices":[2,34,2,0,2,37,44,8,36,32,0,48,47,2,2,20,0,35,23,30,0,35,1,0,21,41,1,1,1,0,0,0,0,0,0,0,0,0,0,0,0,0,0,0,0,0,0,0,0,0,0,0,0],"split_type":[0,0,0,0,0,0,0,0,0,0,0,0,0,0,0,0,0,0,0,0,0,0,0,0,0,0,0,0,0,0,0,0,0,0,0,0,0,0,0,0,0,0,0,0,0,0,0,0,0,0,0,0,0],"sum_hessian":[1.175E3,3.25E2,8.5E2,3.01E2,2.4E1,4.52E2,3.98E2,2.2E1,2.79E2,2.3E1,1E0,1.22E2,3.3E2,3.02E2,9.6E1,2E1,2E0,8E1,1.99E2,2.2E1,1E0,9.4E1,2.8E1,2.75E2,5.5E1,2.43E2,5.9E1,5.1E1,4.5E1,8E0,1.2E1,4.8E1,3.2E1,1.56E2,4.3E1,2.1E1,1E0,9E1,4E0,1.1E1,1.7E1,2.66E2,9E0,5.1E1,4E0,1.71E2,7.2E1,5.7E1,2E0,1.6E1,3.5E1,1E0,4.4E1],"tree_param":{"num_deleted":"0","num_feature":"49","num_nodes":"53","size_leaf_vector":"1"}},{"base_weights":[-2.0153487E2,2.534909E4,-9.989199E3,2.781656E4,-3.162716E4,5.3540857E2,-1.586931E4,2.438591E4,6.636223E4,-3.4128867E4,4.4753124E1,5.8709404E3,-2.1438121E4,-1.2083294E4,-2.2899512E4,-2.5791557E4,2.861698E4,5.148026E4,9.1551375E4,-3.864356E3,-6.1987134E2,3.1029355E3,3.0326709E4,-3.2060795E4,-2.9555251E3,-9.458196E3,-2.6325502E4,-1.9342203E4,-2.7759467E4,5.4500003E0,-1.9811678E4,7.045793E2,3.7006528E3,4.2583127E2,5.4007534E3,2.951652E3,1.0731024E4,-5.2725547E3,4.6252658E2,4.3516553E3,6.1902893E2,-4.6774E3,-6.3822876E2,2.209661E3,-1.5296873E3,-7.2249286E2,-2.8145398E3,-2.6913281E3,2.7072714E2,-2.3202546E3,-1.3631265E3,-2.8194187E3,-7.4933905E2],"categories":[],"categories_nodes":[],"categories_segments":[],"categories_sizes":[],"default_left":[0,0,0,0,0,0,0,0,0,0,0,0,0,0,0,0,0,0,0,0,0,0,0,0,0,0,0,0,0,0,0,0,0,0,0,0,0,0,0,0,0,0,0,0,0,0,0,0,0,0,0,0,0],"id":22,"left_children":[1,3,5,7,9,11,13,15,17,19,-1,21,23,25,27,29,31,33,35,-1,-1,37,39,41,43,45,47,49,51,-1,-1,-1,-1,-1,-1,-1,-1,-1,-1,-1,-1,-1,-1,-1,-1,-1,-1,-1,-1,-1,-1,-1,-1],"loss_changes":[2.943484E11,4.6711194E10,5.2673372E10,3.97718E10,1.1386552E9,3.6001448E10,1.4255882E10,6.209405E10,4.658512E9,1.3997076E9,0E0,1.6626241E10,1.1685321E10,1.3098234E10,2.747859E9,1.0245113E11,4.805891E10,1.9181896E9,4.6533673E9,0E0,0E0,1.91965E10,7.689509E9,1.4058369E10,7.449082E9,1.2441905E10,1.0114294E9,2.1749391E9,4.7591424E8,0E0,0E0,0E0,0E0,0E0,0E0,0E0,0E0,0E0,0E0,0E0,0E0,0E0,0E0,0E0,0E0,0E0,0E0,0E0,0E0,0E0,0E0,0E0,0E0],"parents":[2147483647,0,0,1,1,2,2,3,3,4,4,5,5,6,6,7,7,8,8,9,9,11,11,12,12,13,13,14,14,15,15,16,16,17,17,18,18,21,21,22,22,23,23,24,24,25,25,26,26,27,27,28,28],"right_children":[2,4,6,8,10,12,14,16,18,20,-1,22,24,26,28,30,32,34,36,-1,-1,38,40,42,44,46,48,50,52,-1,-1,-1,-1,-1,-1,-1,-1,-1,-1,-1,-1,-1,-1,-1,-1,-1,-1,-1,-1,-1,-1,-1,-1],"split_conditions":[1.063E3,1E0,7E0,1E0,1E0,1E0,1.7397E4,1.00100666E9,1E0,3.52E2,4.4753124E1,1E0,4E0,1E0,1.00291885E9,1E0,1E0,1.00100666E9,1E0,-3.864356E3,-6.1987134E2,1.288E3,9.6E3,3.6E3,3.407E3,2E1,1E0,1E0,2.9E1,5.4500003E0,-1.9811678E4,7.045793E2,3.7006528E3,4.2583127E2,5.4007534E3,2.951652E3,1.0731024E4,-5.2725547E3,4.6252658E2,4.3516553E3,6.1902893E2,-4.6774E3,-6.3822876E2,2.209661E3,-1.5296873E3,-7.2249286E2,-2.8145398E3,-2.6913281E3,2.7072714E2,-2.3202546E3,-1.3631265E3,-2.8194187E3,-7.4933905E2],"split_indices":[2,39,1,34,26,47,2,0,23,2,0,44,1,39,0,8,36,0,45,0,0,2,2,2,2,1,18,37,1,0,0,0,0,0,0,0,0,0,0,0,0,0,0,0,0,0,0,0,0,0,0,0,0],"split_type":[0,0,0,0,0,0,0,0,0,0,0,0,0,0,0,0,0,0,0,0,0,0,0,0,0,0,0,0,0,0,0,0,0,0,0,0,0,0,0,0,0,0,0,0,0,0,0,0,0,0,0,0,0],"sum_hessian":[1.175E3,3.25E2,8.5E2,3.12E2,1.3E1,3.05E2,5.45E2,2.88E2,2.4E1,1.2E1,1E0,2.46E2,5.9E1,3.56E2,1.89E2,2.2E1,2.66E2,1.7E1,7E0,1E1,2E0,2.22E2,2.4E1,3.7E1,2.2E1,3.02E2,5.4E1,1.12E2,7.7E1,2E1,2E0,7.5E1,1.91E2,1E0,1.6E1,2E0,5E0,5E0,2.17E2,1.5E1,9E0,2.3E1,1.4E1,7E0,1.5E1,2.71E2,3.1E1,5.3E1,1E0,6.5E1,4.7E1,7.5E1,2E0],"tree_param":{"num_deleted":"0","num_feature":"49","num_nodes":"53","size_leaf_vector":"1"}},{"base_weights":[-1.9669948E2,2.064601E4,-1.005696E4,1.7207992E4,5.995342E4,-1.3707938E5,-9.406021E3,1.0865704E4,3.7726594E4,4.8945652E4,8.410658E4,-1.909067E4,1.2201305E3,-1.1882361E4,1.9594607E4,1.5624035E4,-2.740452E4,4.2605668E4,2.4160264E4,4.0453906E2,5.080269E4,2.7548772E3,9.836772E3,-1.4619946E4,2.624602E2,2.1929172E4,-3.4406394E3,1.7868154E3,-6.1305054E3,3.8078238E2,-1.5288854E4,2.143737E3,4.7554224E3,1.0063594E2,2.7420042E3,5.2324463E3,9.42275E2,-1.5729346E3,1.2614792E3,2.7629744E3,-6.1502594E2,1.5928505E3,3.9269321E3],"categories":[],"categories_nodes":[],"categories_segments":[],"categories_sizes":[],"default_left":[0,0,0,0,0,0,0,0,0,0,0,0,0,0,0,0,0,0,0,0,0,0,0,0,0,0,0,0,0,0,0,0,0,0,0,0,0,0,0,0,0,0,0],"id":23,"left_children":[1,3,5,7,9,11,13,15,17,19,21,-1,-1,23,25,27,29,31,33,-1,35,-1,-1,37,39,41,-1,-1,-1,-1,-1,-1,-1,-1,-1,-1,-1,-1,-1,-1,-1,-1,-1],"loss_changes":[2.4189274E11,5.005109E10,6.477493E10,4.5007143E10,3.8595133E9,3.447083E10,5.7397903E10,4.923161E10,4.3983094E9,1.7122632E9,3.74272E9,0E0,0E0,2.4407499E10,8.696838E9,4.235588E10,1.1808168E11,5.160968E9,1.7838459E9,0E0,8.923177E8,0E0,0E0,1.8296717E10,2.4037755E10,5.7216983E9,0E0,0E0,0E0,0E0,0E0,0E0,0E0,0E0,0E0,0E0,0E0,0E0,0E0,0E0,0E0,0E0,0E0],"parents":[2147483647,0,0,1,1,2,2,3,3,4,4,5,5,6,6,7,7,8,8,9,9,10,10,13,13,14,14,15,15,16,16,17,17,18,18,20,20,23,23,24,24,25,25],"right_children":[2,4,6,8,10,12,14,16,18,20,22,-1,-1,24,26,28,30,32,34,-1,36,-1,-1,38,40,42,-1,-1,-1,-1,-1,-1,-1,-1,-1,-1,-1,-1,-1,-1,-1,-1,-1],"split_conditions":[2.205E3,1E0,2.3E3,1E0,1E0,1.00255955E9,1E0,1E0,1.0026143E9,1.00100666E9,1E0,-1.909067E4,1.2201305E3,1E0,1.0927E4,1E0,1E0,1.00168115E9,1.0026213E9,4.0453906E2,1E0,2.7548772E3,9.836772E3,1E0,1.005E4,1E0,-3.4406394E3,1.7868154E3,-6.1305054E3,3.8078238E2,-1.5288854E4,2.143737E3,4.7554224E3,1.0063594E2,2.7420042E3,5.2324463E3,9.42275E2,-1.5729346E3,1.2614792E3,2.7629744E3,-6.1502594E2,1.5928505E3,3.9269321E3],"split_indices":[2,34,2,46,23,0,45,8,0,0,45,0,0,44,2,25,23,0,0,0,32,0,0,20,2,23,0,0,0,0,0,0,0,0,0,0,0,0,0,0,0,0,0],"split_type":[0,0,0,0,0,0,0,0,0,0,0,0,0,0,0,0,0,0,0,0,0,0,0,0,0,0,0,0,0,0,0,0,0,0,0,0,0,0,0,0,0,0,0],"sum_hessian":[1.175E3,3.77E2,7.98E2,3.48E2,2.9E1,3E0,7.95E2,2.67E2,8.1E1,2.2E1,7E0,2E0,1E0,7.33E2,6.2E1,2.38E2,2.9E1,5.8E1,2.3E1,1E0,2.1E1,2E0,5E0,5.98E2,1.35E2,6E1,2E0,2.32E2,6E0,2.4E1,5E0,1.2E1,4.6E1,3E0,2E1,2E1,1E0,5.75E2,2.3E1,2.5E1,1.1E2,4.6E1,1.4E1],"tree_param":{"num_deleted":"0","num_feature":"49","num_nodes":"43","size_leaf_vector":"1"}},{"base_weights":[-1.8067929E2,2.053138E4,-8.2501E3,1.767586E4,6.1706617E4,-2.3151309E3,-1.6006147E4,2.8829129E4,-1.4868934E3,8.5478766E4,-2.0686816E4,-1.055597E2,-2.4257791E4,-1.9012396E4,-7.1986533E3,1.3913332E4,5.6701312E4,-1.8943123E5,6.992463E3,9.265568E4,3.3607188E3,2.7244626E3,-1.8694059E4,-2.602179E4,-8.748847E3,-1.7091396E4,-2.6151064E4,-1.3813964E3,-1.3365267E4,2.2136216E3,-1.9444139E4,2.3417861E3,9.567131E3,-2.4898193E4,2.4385813E3,1.8424823E3,-4.0094114E3,4.391316E3,9.996386E3,-6.740928E3,3.4594113E2,-3.1679404E3,-4.6163208E2,-2.660709E3,-1.890172E2,-3.420703E2,-1.2936755E3,-1.9670399E3,-1.1474725E3,-1.6393678E3,-2.8439587E3,3.580468E2,-5.74078E2,1.9605235E2,-1.3749408E3],"categories":[],"categories_nodes":[],"categories_segments":[],"categories_sizes":[],"default_left":[0,0,0,0,0,0,0,0,0,0,0,0,0,0,0,0,0,0,0,0,0,0,0,0,0,0,0,0,0,0,0,0,0,0,0,0,0,0,0,0,0,0,0,0,0,0,0,0,0,0,0,0,0,0,0],"id":24,"left_children":[1,3,5,7,9,11,13,15,17,19,-1,21,23,25,27,29,31,33,35,37,-1,39,41,43,45,47,49,51,53,-1,-1,-1,-1,-1,-1,-1,-1,-1,-1,-1,-1,-1,-1,-1,-1,-1,-1,-1,-1,-1,-1,-1,-1,-1,-1],"loss_changes":[1.9671935E11,3.770961E10,3.8951965E10,6.6298348E10,1.5175942E11,2.3318182E10,9.580388E9,8.06953E10,1.84594E11,4.3316675E9,0E0,2.30923E10,9.7607885E8,3.2967885E9,3.3894508E9,2.2531683E11,8.595939E10,6.9736415E10,6.0491207E10,1.6659907E9,0E0,1.9871724E10,1.0456406E10,5.0055578E8,8.962982E7,2.9321093E9,7.842529E8,1.1020882E9,2.9776896E8,0E0,0E0,0E0,0E0,0E0,0E0,0E0,0E0,0E0,0E0,0E0,0E0,0E0,0E0,0E0,0E0,0E0,0E0,0E0,0E0,0E0,0E0,0E0,0E0,0E0,0E0],"parents":[2147483647,0,0,1,1,2,2,3,3,4,4,5,5,6,6,7,7,8,8,9,9,11,11,12,12,13,13,14,14,15,15,16,16,17,17,18,18,19,19,21,21,22,22,23,23,24,24,25,25,26,26,27,27,28,28],"right_children":[2,4,6,8,10,12,14,16,18,20,-1,22,24,26,28,30,32,34,36,38,-1,40,42,44,46,48,50,52,54,-1,-1,-1,-1,-1,-1,-1,-1,-1,-1,-1,-1,-1,-1,-1,-1,-1,-1,-1,-1,-1,-1,-1,-1,-1,-1],"split_conditions":[1.193E3,1E0,1.2483E4,1.00256435E9,1E0,1E0,1E0,1.0024034E9,1.0025811E9,1E0,-2.0686816E4,1E0,1.1799E4,2.229E4,1.7413E4,1.00235565E9,1E0,1E0,1E0,1E0,3.3607188E3,1.288E3,3.6E3,1E0,1.0027994E9,1E0,1.00276915E9,1E1,5E0,2.2136216E3,-1.9444139E4,2.3417861E3,9.567131E3,-2.4898193E4,2.4385813E3,1.8424823E3,-4.0094114E3,4.391316E3,9.996386E3,-6.740928E3,3.4594113E2,-3.1679404E3,-4.6163208E2,-2.660709E3,-1.890172E2,-3.420703E2,-1.2936755E3,-1.9670399E3,-1.1474725E3,-1.6393678E3,-2.8439587E3,3.580468E2,-5.74078E2,1.9605235E2,-1.3749408E3],"split_indices":[2,21,2,0,1,39,44,0,0,34,0,47,2,2,2,0,45,34,23,45,0,2,2,6,0,41,0,1,1,0,0,0,0,0,0,0,0,0,0,0,0,0,0,0,0,0,0,0,0,0,0,0,0,0,0],"split_type":[0,0,0,0,0,0,0,0,0,0,0,0,0,0,0,0,0,0,0,0,0,0,0,0,0,0,0,0,0,0,0,0,0,0,0,0,0,0,0,0,0,0,0,0,0,0,0,0,0,0,0,0,0,0,0],"sum_hessian":[1.175E3,3.29E2,8.46E2,3.09E2,2E1,4.8E2,3.66E2,1.95E2,1.14E2,1.9E1,1E0,4.37E2,4.3E1,2.72E2,9.4E1,1.28E2,6.7E1,4E0,1.1E2,1.6E1,3E0,3.8E2,5.7E1,3.8E1,5E0,2.17E2,5.5E1,4.9E1,4.5E1,1.24E2,4E0,3.7E1,3E1,3E0,1E0,8.9E1,2.1E1,3E0,1.3E1,3E0,3.77E2,2.9E1,2.8E1,3.7E1,1E0,3E0,2E0,1.47E2,7E1,1.2E1,4.3E1,2.3E1,2.6E1,1E0,4.4E1],"tree_param":{"num_deleted":"0","num_feature":"49","num_nodes":"55","size_leaf_vector":"1"}},{"base_weights":[-2.105606E2,1.6827453E4,-8.270835E3,2.3435809E4,9.2336194E2,-1.2809853E5,-7.658295E3,2.9172346E4,-8.435697E2,-4.4463926E4,2.3007654E4,-1.7841023E4,1.1418274E3,-9.798738E3,1.7401135E4,3.374234E4,-1.730073E4,5.456622E3,-1.6107667E4,4.4309404E3,-1.350722E5,-3.2513193E3,6.813916E4,-1.5226741E4,-4.9981465E3,2.3714662E4,-2.6270215E3,1.7002471E3,5.750558E3,4.079735E3,-9.284254E3,-4.0547961E3,2.065157E3,2.3874358E3,-1.4611224E4,1.8208938E3,-1.4936305E4,-1.1089354E4,1.4347444E3,9.0282705E3,-1.4648463E4,-1.7023163E3,-5.477852E2,-6.449882E2,1.8510055E3,2.64457E3,-1.2938164E3,-2.5273066E3,1.3487913E3],"categories":[],"categories_nodes":[],"categories_segments":[],"categories_sizes":[],"default_left":[0,0,0,0,0,0,0,0,0,0,0,0,0,0,0,0,0,0,0,0,0,0,0,0,0,0,0,0,0,0,0,0,0,0,0,0,0,0,0,0,0,0,0,0,0,0,0,0,0],"id":25,"left_children":[1,3,5,7,9,11,13,15,17,19,21,-1,-1,23,25,27,29,31,-1,33,35,37,39,41,43,45,47,-1,-1,-1,-1,-1,-1,-1,-1,-1,-1,-1,-1,-1,-1,-1,-1,-1,-1,-1,-1,-1,-1],"loss_changes":[1.6164051E11,3.9706116E10,5.7664963E10,3.721226E10,1.13285775E11,3.0114443E10,4.2866594E10,4.645821E10,5.3372895E10,1.6451885E11,9.028967E10,0E0,0E0,1.9050201E10,8.028543E9,7.738761E10,9.156442E10,3.6488274E10,0E0,7.6665184E10,3.1196463E10,9.441515E10,1.4629588E11,5.931254E9,1.3463316E10,5.146966E9,6.179913E9,0E0,0E0,0E0,0E0,0E0,0E0,0E0,0E0,0E0,0E0,0E0,0E0,0E0,0E0,0E0,0E0,0E0,0E0,0E0,0E0,0E0,0E0],"parents":[2147483647,0,0,1,1,2,2,3,3,4,4,5,5,6,6,7,7,8,8,9,9,10,10,13,13,14,14,15,15,16,16,17,17,19,19,20,20,21,21,22,22,23,23,24,24,25,25,26,26],"right_children":[2,4,6,8,10,12,14,16,18,20,22,-1,-1,24,26,28,30,32,-1,34,36,38,40,42,44,46,48,-1,-1,-1,-1,-1,-1,-1,-1,-1,-1,-1,-1,-1,-1,-1,-1,-1,-1,-1,-1,-1,-1],"split_conditions":[2.205E3,1.0026607E9,2.3E3,1E0,1.00274323E9,1.00255955E9,1E0,1E0,1E0,1E0,1E0,-1.7841023E4,1.1418274E3,1E0,6.8E3,1E0,1E0,1.0820054E8,-1.6107667E4,1.0027364E9,1.00266643E9,1.0027869E9,1E0,1E0,1E0,1E0,3E0,1.7002471E3,5.750558E3,4.079735E3,-9.284254E3,-4.0547961E3,2.065157E3,2.3874358E3,-1.4611224E4,1.8208938E3,-1.4936305E4,-1.1089354E4,1.4347444E3,9.0282705E3,-1.4648463E4,-1.7023163E3,-5.477852E2,-6.449882E2,1.8510055E3,2.64457E3,-1.2938164E3,-2.5273066E3,1.3487913E3],"split_indices":[2,0,2,20,0,0,45,7,47,23,45,0,0,37,2,45,45,0,0,0,0,0,27,48,20,29,1,0,0,0,0,0,0,0,0,0,0,0,0,0,0,0,0,0,0,0,0,0,0],"split_type":[0,0,0,0,0,0,0,0,0,0,0,0,0,0,0,0,0,0,0,0,0,0,0,0,0,0,0,0,0,0,0,0,0,0,0,0,0,0,0,0,0,0,0,0,0,0,0,0,0],"sum_hessian":[1.175E3,3.77E2,7.98E2,2.66E2,1.11E2,3E0,7.95E2,2.15E2,5.1E1,3.6E1,7.5E1,2E0,1E0,7.33E2,6.2E1,1.96E2,1.9E1,5E1,1E0,2.4E1,1.2E1,4.8E1,2.7E1,3.43E2,3.9E2,4.7E1,1.5E1,1.16E2,8E1,1.1E1,8E0,1.2E1,3.8E1,2.2E1,2E0,1E0,1.1E1,6E0,4.2E1,2.5E1,2E0,2.89E2,5.4E1,3.68E2,2.2E1,4.4E1,3E0,6E0,9E0],"tree_param":{"num_deleted":"0","num_feature":"49","num_nodes":"49","size_leaf_vector":"1"}},{"base_weights":[-2.5246252E2,1.6737266E4,-6.7605693E3,1.891258E4,-3.3092055E4,-1.7996987E3,-1.3298067E4,1.488299E4,4.7682418E4,-3.5293043E4,-2.2396094E2,-3.8002405E3,1.8337557E4,-1.5898512E4,-5.6852295E3,2.2400764E4,-5.826486E4,2.354969E4,8.737069E4,-3.933961E4,-8.691286E2,4.3996043E4,-4.447786E3,4.3774453E4,8.532093E3,-1.4113601E4,-2.199972E4,-7.8822363E2,-1.1588859E4,-9.8863715E2,2.649909E3,-1.1709854E4,5.2818752E1,1.6324172E3,5.740261E3,9.21482E3,1.2631469E3,-4.102853E3,-1.1225204E3,-4.6870938E2,5.467009E3,-5.192513E2,3.6137234E3,1.084736E3,4.57817E3,1.964534E3,2.0824992E2,-1.2113109E3,-2.0112958E3,-2.2552659E3,-3.976349E2,-3.9186304E2,5.5163806E2,-1.2615747E3,-4.5054742E2],"categories":[],"categories_nodes":[],"categories_segments":[],"categories_sizes":[],"default_left":[0,0,0,0,0,0,0,0,0,0,0,0,0,0,0,0,0,0,0,0,0,0,0,0,0,0,0,0,0,0,0,0,0,0,0,0,0,0,0,0,0,0,0,0,0,0,0,0,0,0,0,0,0,0,0],"id":26,"left_children":[1,3,5,7,9,11,13,15,17,19,-1,21,23,25,27,29,31,33,35,37,-1,39,41,43,45,47,49,51,53,-1,-1,-1,-1,-1,-1,-1,-1,-1,-1,-1,-1,-1,-1,-1,-1,-1,-1,-1,-1,-1,-1,-1,-1,-1,-1],"loss_changes":[1.301446E11,3.5962438E10,2.7575431E10,3.5576627E10,8.7163904E8,1.9608117E10,7.1750246E9,1.5308005E11,3.4338333E10,1.05748275E9,0E0,1.3875708E10,1.0601015E10,2.6624983E9,2.7373258E9,3.3475076E10,8.999613E10,5.17807E9,3.8349783E9,6.176051E7,0E0,3.37412E9,1.3395853E10,2.9650534E8,2.324394E9,2.3247258E9,5.082706E8,1.06762323E9,2.5593498E8,0E0,0E0,0E0,0E0,0E0,0E0,0E0,0E0,0E0,0E0,0E0,0E0,0E0,0E0,0E0,0E0,0E0,0E0,0E0,0E0,0E0,0E0,0E0,0E0,0E0,0E0],"parents":[2147483647,0,0,1,1,2,2,3,3,4,4,5,5,6,6,7,7,8,8,9,9,11,11,12,12,13,13,14,14,15,15,16,16,17,17,18,18,19,19,21,21,22,22,23,23,24,24,25,25,26,26,27,27,28,28],"right_children":[2,4,6,8,10,12,14,16,18,20,-1,22,24,26,28,30,32,34,36,38,-1,40,42,44,46,48,50,52,54,-1,-1,-1,-1,-1,-1,-1,-1,-1,-1,-1,-1,-1,-1,-1,-1,-1,-1,-1,-1,-1,-1,-1,-1,-1,-1],"split_conditions":[1.063E3,1E0,1.2483E4,1.00278234E9,1E0,1E0,1E0,1.00272614E9,1E0,3.52E2,-2.2396094E2,1.0003614E9,5.118E3,2.2053E4,1.757E4,1.0011014E9,1.0027343E9,1E0,1.0029059E9,1E0,-8.691286E2,1.0820054E8,1E0,1E0,7E0,1.8E1,2.7E1,1E0,1E0,-9.8863715E2,2.649909E3,-1.1709854E4,5.2818752E1,1.6324172E3,5.740261E3,9.21482E3,1.2631469E3,-4.102853E3,-1.1225204E3,-4.6870938E2,5.467009E3,-5.192513E2,3.6137234E3,1.084736E3,4.57817E3,1.964534E3,2.0824992E2,-1.2113109E3,-2.0112958E3,-2.2552659E3,-3.976349E2,-3.9186304E2,5.5163806E2,-1.2615747E3,-4.5054742E2],"split_indices":[2,39,2,0,26,44,44,0,45,2,0,0,2,2,2,0,0,15,0,25,0,0,46,33,1,1,1,33,33,0,0,0,0,0,0,0,0,0,0,0,0,0,0,0,0,0,0,0,0,0,0,0,0,0,0],"split_type":[0,0,0,0,0,0,0,0,0,0,0,0,0,0,0,0,0,0,0,0,0,0,0,0,0,0,0,0,0,0,0,0,0,0,0,0,0,0,0,0,0,0,0,0,0,0,0,0,0,0,0,0,0,0,0],"sum_hessian":[1.175E3,3.25E2,8.5E2,3.12E2,1.3E1,4.84E2,3.66E2,2.75E2,3.7E1,1.2E1,1E0,4.41E2,4.3E1,2.72E2,9.4E1,2.5E2,2.5E1,2.4E1,1.3E1,1E1,2E0,5E0,4.36E2,1.1E1,3.2E1,2.13E2,5.9E1,5.2E1,4.2E1,2.8E1,2.22E2,1.2E1,1.3E1,2.1E1,3E0,1.2E1,1E0,9E0,1E0,1E0,4E0,4.29E2,7E0,1E0,1E1,1.1E1,2.1E1,1.62E2,5.1E1,5.7E1,2E0,3.5E1,1.7E1,3.6E1,6E0],"tree_param":{"num_deleted":"0","num_feature":"49","num_nodes":"55","size_leaf_vector":"1"}},{"base_weights":[-2.1868394E2,1.5068244E4,-6.074524E3,1.7046408E4,-3.0234174E4,-1.249847E4,-1.6268898E3,1.9826623E4,-1.7258115E4,-3.223255E4,-2.127625E2,-1.4272863E4,-3.18932E3,2.6484262E2,-1.8809115E4,1.5047235E4,4.8485656E4,5.0749887E4,-5.4433984E4,-3.5880688E4,-8.1118695E2,-1.3668998E4,-4.6200913E3,2.382006E4,-1.0165912E4,5.029648E4,-2.904191E2,-1.5479417E4,-1.2874847E4,2.3384995E3,-8.755315E3,1.9985719E3,8.754522E3,1.7943088E3,8.727261E3,-2.0009738E4,-5.427248E2,-3.733597E3,-1.0663938E3,-1.4401411E3,6.083693E2,2.6145627E3,-8.805859E1,-1.2740365E3,5.9975134E2,6.367105E3,2.0156416E3,1.5094302E2,-1.5793579E3,-6.436561E2,-2.461535E3],"categories":[],"categories_nodes":[],"categories_segments":[],"categories_sizes":[],"default_left":[0,0,0,0,0,0,0,0,0,0,0,0,0,0,0,0,0,0,0,0,0,0,0,0,0,0,0,0,0,0,0,0,0,0,0,0,0,0,0,0,0,0,0,0,0,0,0,0,0,0,0],"id":27,"left_children":[1,3,5,7,9,11,13,15,17,19,-1,21,23,25,27,29,31,33,35,37,-1,39,-1,41,43,45,47,-1,49,-1,-1,-1,-1,-1,-1,-1,-1,-1,-1,-1,-1,-1,-1,-1,-1,-1,-1,-1,-1,-1,-1],"loss_changes":[1.0536446E11,2.9730087E10,2.4293896E10,3.0194221E10,7.177646E8,5.702775E9,1.6387085E10,3.899248E10,6.344068E10,8.5288346E8,0E0,4.998304E9,1.0982859E10,1.2654804E10,3.835565E10,2.159118E11,4.389136E10,9.217802E9,1.1312982E11,5.525504E6,0E0,4.2541466E9,0E0,7.1233894E8,1.9905608E9,7.321723E8,1.2608252E10,0E0,3.5454085E9,0E0,0E0,0E0,0E0,0E0,0E0,0E0,0E0,0E0,0E0,0E0,0E0,0E0,0E0,0E0,0E0,0E0,0E0,0E0,0E0,0E0,0E0],"parents":[2147483647,0,0,1,1,2,2,3,3,4,4,5,5,6,6,7,7,8,8,9,9,11,11,12,12,13,13,14,14,15,15,16,16,17,17,18,18,19,19,21,21,23,23,24,24,25,25,26,26,28,28],"right_children":[2,4,6,8,10,12,14,16,18,20,-1,22,24,26,28,30,32,34,36,38,-1,40,-1,42,44,46,48,-1,50,-1,-1,-1,-1,-1,-1,-1,-1,-1,-1,-1,-1,-1,-1,-1,-1,-1,-1,-1,-1,-1,-1],"split_conditions":[1.063E3,1E0,1E0,1E0,1E0,1E0,1.4018478E9,1.0027566E9,1.0022185E9,3.52E2,-2.127625E2,1E0,1E1,1.0003614E9,2E0,1.00272614E9,1E0,1E0,1.002364E9,1E0,-8.1118695E2,1E0,-4.6200913E3,1E0,1E0,1E0,1E0,-1.5479417E4,1.7413E4,2.3384995E3,-8.755315E3,1.9985719E3,8.754522E3,1.7943088E3,8.727261E3,-2.0009738E4,-5.427248E2,-3.733597E3,-1.0663938E3,-1.4401411E3,6.083693E2,2.6145627E3,-8.805859E1,-1.2740365E3,5.9975134E2,6.367105E3,2.0156416E3,1.5094302E2,-1.5793579E3,-6.436561E2,-2.461535E3],"split_indices":[2,39,37,7,26,48,0,0,0,2,0,35,1,0,1,0,45,45,0,25,0,43,0,3,4,35,47,0,2,0,0,0,0,0,0,0,0,0,0,0,0,0,0,0,0,0,0,0,0,0,0],"split_type":[0,0,0,0,0,0,0,0,0,0,0,0,0,0,0,0,0,0,0,0,0,0,0,0,0,0,0,0,0,0,0,0,0,0,0,0,0,0,0,0,0,0,0,0,0,0,0,0,0,0,0],"sum_hessian":[1.175E3,3.25E2,8.5E2,3.12E2,1.3E1,3.47E2,5.03E2,2.89E2,2.3E1,1.2E1,1E0,2.91E2,5.6E1,4.54E2,4.9E1,2.49E2,4E1,8E0,1.5E1,1E1,2E0,2.87E2,4E0,1.1E1,4.5E1,4E0,4.5E2,1E0,4.8E1,2.31E2,1.8E1,2.4E1,1.6E1,5E0,3E0,3E0,1.2E1,9E0,1E0,2.77E2,1E1,1E1,1E0,3.9E1,6E0,2E0,2E0,4.04E2,4.6E1,3.2E1,1.6E1],"tree_param":{"num_deleted":"0","num_feature":"49","num_nodes":"51","size_leaf_vector":"1"}},{"base_weights":[-2.1955905E2,8.544048E3,-8.820507E3,1.2119435E4,-1.5834828E4,-1.0775563E4,-1.4733511E3,1.4175488E4,-2.2400625E4,-1.182816E4,-1.0805213E5,-1.1538407E4,7.8990864E3,-6.230345E3,7.533555E3,1.5444627E4,-2.6282049E4,-2.4268225E4,1.8746562E3,-1.6177401E4,5.0557007E3,-1.5551705E4,-6.5611487E2,-1.0258309E4,-1.8982406E4,1.7484621E4,-6.617219E2,7.2318594E3,-7.3732686E3,1.1775338E4,-1.4522479E3,7.589263E3,1.4626158E3,2.1014688E2,-5.1380312E3,-2.5195938E3,-7.3859377E0,1.8099218E1,2.630992E2,-6.0110297E2,-4.464818E3,-2.7698703E2,-1.1789359E3,-2.4021953E3,-1.4255493E3,-1.016714E3,2.6837573E3,3.0353342E2,-7.8904034E2,-7.9508905E2,2.0606646E3,-5.9547766E2,-1.3898555E3,2.340625E3,9.085727E2,2.7539362E1,-8.4546124E2],"categories":[],"categories_nodes":[],"categories_segments":[],"categories_sizes":[],"default_left":[0,0,0,0,0,0,0,0,0,0,0,0,0,0,0,0,0,0,0,0,0,0,0,0,0,0,0,0,0,0,0,0,0,0,0,0,0,0,0,0,0,0,0,0,0,0,0,0,0,0,0,0,0,0,0,0,0],"id":28,"left_children":[1,3,5,7,9,11,13,15,17,19,21,23,25,27,29,31,33,35,37,39,-1,-1,-1,41,43,45,47,49,51,53,55,-1,-1,-1,-1,-1,-1,-1,-1,-1,-1,-1,-1,-1,-1,-1,-1,-1,-1,-1,-1,-1,-1,-1,-1,-1,-1],"loss_changes":[8.8716755E10,5.1008455E10,8.516399E9,3.644388E10,2.643325E10,6.772445E9,5.4455076E9,2.5103442E10,1.360254E9,2.0624835E10,1.3431411E10,4.1028772E9,1.5707082E9,1.3303826E9,1.6941972E9,2.1994725E10,1.0793629E10,6.041651E8,3.366748E6,1.9703288E10,0E0,0E0,0E0,4.4043674E9,1.2059505E9,2.6004918E9,3.1792323E8,1.5853033E9,6.2995456E8,7.2581606E8,1.8379197E8,0E0,0E0,0E0,0E0,0E0,0E0,0E0,0E0,0E0,0E0,0E0,0E0,0E0,0E0,0E0,0E0,0E0,0E0,0E0,0E0,0E0,0E0,0E0,0E0,0E0,0E0],"parents":[2147483647,0,0,1,1,2,2,3,3,4,4,5,5,6,6,7,7,8,8,9,9,10,10,11,11,12,12,13,13,14,14,15,15,16,16,17,17,18,18,19,19,23,23,24,24,25,25,26,26,27,27,28,28,29,29,30,30],"right_children":[2,4,6,8,10,12,14,16,18,20,22,24,26,28,30,32,34,36,38,40,-1,-1,-1,42,44,46,48,50,52,54,56,-1,-1,-1,-1,-1,-1,-1,-1,-1,-1,-1,-1,-1,-1,-1,-1,-1,-1,-1,-1,-1,-1,-1,-1,-1,-1],"split_conditions":[6.4E3,1E0,1E0,1E0,1E0,1E0,1E0,1E0,5.249E3,1E0,1.00207424E9,1E0,1.00291085E9,8E0,1.55E4,1.0373737E8,1.00216826E9,1E0,1.002445E9,1E0,5.0557007E3,-1.5551705E4,-6.5611487E2,8.541E3,1.3E1,1.00276915E9,1E1,1.0027782E9,2.29E4,5E0,1.2E1,7.589263E3,1.4626158E3,2.1014688E2,-5.1380312E3,-2.5195938E3,-7.3859377E0,1.8099218E1,2.630992E2,-6.0110297E2,-4.464818E3,-2.7698703E2,-1.1789359E3,-2.4021953E3,-1.4255493E3,-1.016714E3,2.6837573E3,3.0353342E2,-7.8904034E2,-7.9508905E2,2.0606646E3,-5.9547766E2,-1.3898555E3,2.340625E3,9.085727E2,2.7539362E1,-8.4546124E2],"split_indices":[2,47,44,39,20,20,33,25,2,27,0,39,0,1,2,0,0,4,0,8,0,0,0,2,1,0,1,0,2,1,1,0,0,0,0,0,0,0,0,0,0,0,0,0,0,0,0,0,0,0,0,0,0,0,0,0,0],"split_type":[0,0,0,0,0,0,0,0,0,0,0,0,0,0,0,0,0,0,0,0,0,0,0,0,0,0,0,0,0,0,0,0,0,0,0,0,0,0,0,0,0,0,0,0,0,0,0,0,0,0,0,0,0,0,0,0,0],"sum_hessian":[1.175E3,5.82E2,5.93E2,5.08E2,7.4E1,4.68E2,1.25E2,4.8E2,2.8E1,7.2E1,2E0,4.5E2,1.8E1,8.2E1,4.3E1,4.66E2,1.4E1,2.6E1,2E0,6.8E1,4E0,1E0,1E0,3.86E2,6.4E1,8E0,1E1,6E0,7.6E1,2.9E1,1.4E1,5E0,4.61E2,7E0,7E0,2.5E1,1E0,1E0,1E0,5.1E1,1.7E1,6.6E1,3.2E2,2.9E1,3.5E1,2E0,6E0,7E0,3E0,3E0,3E0,6.4E1,1.2E1,4E0,2.5E1,1.2E1,2E0],"tree_param":{"num_deleted":"0","num_feature":"49","num_nodes":"57","size_leaf_vector":"1"}},{"base_weights":[-2.1183124E2,1.1137719E4,-5.5809404E3,8.450589E3,4.202674E4,-1.20685195E5,-4.9955156E3,-6.2131455E3,1.4700555E4,3.2140893E4,6.51952E4,-1.6724574E4,9.498219E2,-6.719161E3,1.5165612E4,-1.0984547E4,1.5961858E4,1.5972162E4,-1.4778578E4,8.100547E3,3.5341918E4,1.8802229E3,7.752582E3,-8.595796E3,1.5957184E3,9.508338E3,3.2635E4,-5.252869E3,-6.1126245E2,3.3217056E3,-2.6960576E3,9.773527E2,4.3166714E3,1.5537562E3,4.4235416E1,3.7286267E3,-8.003438E1,-9.391017E2,1.0847646E3,3.9065806E3,-1.3672467E2,2.2505916E3,-6.163091E2,8.329082E3,1.3030144E3],"categories":[],"categories_nodes":[],"categories_segments":[],"categories_sizes":[],"default_left":[0,0,0,0,0,0,0,0,0,0,0,0,0,0,0,0,0,0,0,0,0,0,0,0,0,0,0,0,0,0,0,0,0,0,0,0,0,0,0,0,0,0,0,0,0],"id":29,"left_children":[1,3,5,7,9,11,13,15,17,19,21,-1,-1,23,25,27,29,31,-1,33,35,-1,-1,37,39,41,43,-1,-1,-1,-1,-1,-1,-1,-1,-1,-1,-1,-1,-1,-1,-1,-1,-1,-1],"loss_changes":[7.172404E10,3.1019905E10,5.323762E10,3.2076431E10,4.77576E9,2.583418E10,2.77634E10,1.1284947E10,5.298205E10,1.483649E9,3.1187763E9,0E0,0E0,1.1467051E10,5.9159306E9,1.7287698E10,1.4967618E10,4.070897E10,0E0,2.2094331E8,1.435304E9,0E0,0E0,9.363497E9,1.515248E10,1.0119544E10,1.3811211E10,0E0,0E0,0E0,0E0,0E0,0E0,0E0,0E0,0E0,0E0,0E0,0E0,0E0,0E0,0E0,0E0,0E0,0E0],"parents":[2147483647,0,0,1,1,2,2,3,3,4,4,5,5,6,6,7,7,8,8,9,9,10,10,13,13,14,14,15,15,16,16,17,17,19,19,20,20,23,23,24,24,25,25,26,26],"right_children":[2,4,6,8,10,12,14,16,18,20,22,-1,-1,24,26,28,30,32,-1,34,36,-1,-1,38,40,42,44,-1,-1,-1,-1,-1,-1,-1,-1,-1,-1,-1,-1,-1,-1,-1,-1,-1,-1],"split_conditions":[2.205E3,1E0,2.3E3,1E0,1E0,1.00255955E9,1E0,1E0,1.4018478E9,1.00216826E9,1E0,-1.6724574E4,9.498219E2,1E0,1E0,1E0,1.5E3,1.00274323E9,-1.4778578E4,1E0,1E0,1.8802229E3,7.752582E3,1E0,5.118E3,4.741E3,3E0,-5.252869E3,-6.1126245E2,3.3217056E3,-2.6960576E3,9.773527E2,4.3166714E3,1.5537562E3,4.4235416E1,3.7286267E3,-8.003438E1,-9.391017E2,1.0847646E3,3.9065806E3,-1.3672467E2,2.2505916E3,-6.163091E2,8.329082E3,1.3030144E3],"split_indices":[2,34,2,36,23,0,45,23,0,0,45,0,0,44,23,37,2,0,0,1,30,0,0,20,2,2,1,0,0,0,0,0,0,0,0,0,0,0,0,0,0,0,0,0,0],"split_type":[0,0,0,0,0,0,0,0,0,0,0,0,0,0,0,0,0,0,0,0,0,0,0,0,0,0,0,0,0,0,0,0,0,0,0,0,0,0,0,0,0,0,0,0,0],"sum_hessian":[1.175E3,3.77E2,7.98E2,3.48E2,2.9E1,3E0,7.95E2,1.04E2,2.44E2,2.2E1,7E0,2E0,1E0,7.33E2,6.2E1,8.6E1,1.8E1,2.43E2,1E0,3E0,1.9E1,2E0,5E0,5.98E2,1.35E2,4.8E1,1.4E1,8E0,7.8E1,1.3E1,5E0,1.99E2,4.4E1,1E0,2E0,1.8E1,1E0,5.75E2,2.3E1,9E0,1.26E2,2.6E1,2.2E1,3E0,1.1E1],"tree_param":{"num_deleted":"0","num_feature":"49","num_nodes":"45","size_leaf_vector":"1"}},{"base_weights":[-1.9102022E2,-2.308128E3,2.5076783E4,-6.15619E3,1.2527521E4,2.2326512E4,4.512132E4,-4.773588E3,-1.7552209E4,1.384286E4,-1.403965E4,2.0557389E4,5.168508E3,5.031355E3,1.6234938E3,-2.6097122E3,-1.1022533E4,-2.4035969E4,-1.375686E4,6.517224E3,3.5572574E4,2.161167E4,-4.613297E3,-3.3538876E2,2.739687E3,-1.0335814E3,-2.604013E3,-2.4812056E3,3.9939064E1,-8.00061E2,-1.7532018E3,1.685759E3,-7.084436E3,8.478366E3,1.003091E3,8.7641205E2,2.3883645E3,-1.0007083E2,-7.7255316E2],"categories":[],"categories_nodes":[],"categories_segments":[],"categories_sizes":[],"default_left":[0,0,0,0,0,0,0,0,0,0,0,0,0,0,0,0,0,0,0,0,0,0,0,0,0,0,0,0,0,0,0,0,0,0,0,0,0,0,0],"id":30,"left_children":[1,3,5,7,9,11,13,15,17,19,-1,21,-1,-1,-1,23,25,27,29,31,33,35,37,-1,-1,-1,-1,-1,-1,-1,-1,-1,-1,-1,-1,-1,-1,-1,-1],"loss_changes":[6.29676E10,6.207523E10,4.0092344E9,1.3513777E10,4.7000396E10,3.1964856E9,6.8301005E8,1.0396652E10,1.9578962E9,3.5266187E10,0E0,2.1961277E9,0E0,0E0,0E0,1.2909399E10,1.7728E9,6.357197E8,1.1853097E9,1.3558539E11,6.953781E10,2.0090675E9,3.724188E7,0E0,0E0,0E0,0E0,0E0,0E0,0E0,0E0,0E0,0E0,0E0,0E0,0E0,0E0,0E0,0E0],"parents":[2147483647,0,0,1,1,2,2,3,3,4,4,5,5,6,6,7,7,8,8,9,9,11,11,15,15,16,16,17,17,18,18,19,19,20,20,21,21,22,22],"right_children":[2,4,6,8,10,12,14,16,18,20,-1,22,-1,-1,-1,24,26,28,30,32,34,36,38,-1,-1,-1,-1,-1,-1,-1,-1,-1,-1,-1,-1,-1,-1,-1,-1],"split_conditions":[1E0,1E0,1E0,1E0,1.00291616E9,1E0,1E0,1.6954E4,9E0,1.00274605E9,-1.403965E4,1E0,5.168508E3,5.031355E3,1.6234938E3,1E0,1.4022358E9,1E0,1.0028228E9,1.00272614E9,1.063E3,1.00168115E9,1.0029051E9,-3.3538876E2,2.739687E3,-1.0335814E3,-2.604013E3,-2.4812056E3,3.9939064E1,-8.00061E2,-1.7532018E3,1.685759E3,-7.084436E3,8.478366E3,1.003091E3,8.7641205E2,2.3883645E3,-1.0007083E2,-7.7255316E2],"split_indices":[46,45,8,39,0,24,2,2,1,0,0,16,0,0,0,27,0,7,0,0,2,0,0,0,0,0,0,0,0,0,0,0,0,0,0,0,0,0,0],"split_type":[0,0,0,0,0,0,0,0,0,0,0,0,0,0,0,0,0,0,0,0,0,0,0,0,0,0,0,0,0,0,0,0,0,0,0,0,0,0,0],"sum_hessian":[1.175E3,1.085E3,9E1,8.62E2,2.23E2,8.1E1,9E0,7.7E2,9.2E1,2.22E2,1E0,7.8E1,3E0,7E0,2E0,5.73E2,1.97E2,3.2E1,6E1,1.67E2,5.5E1,7.5E1,3E0,5.6E2,1.3E1,1.9E2,7E0,3.1E1,1E0,2.5E1,3.5E1,1.48E2,1.9E1,1.8E1,3.7E1,1.2E1,6.3E1,2E0,1E0],"tree_param":{"num_deleted":"0","num_feature":"49","num_nodes":"39","size_leaf_vector":"1"}},{"base_weights":[-1.7359354E2,-2.092218E3,2.2725307E4,-5.547788E3,1.1230323E4,2.0186053E4,4.1274656E4,-4.29783E3,-1.5850691E4,1.2476887E4,-1.3337667E4,1.8531918E4,4.7808706E3,4.5911094E3,1.5152605E3,-3.0621064E3,-1.3977979E4,-2.1706348E4,-1.242303E4,1.7219977E4,-1.8610982E4,1.9493447E4,-4.370125E3,-1.7388931E2,-1.3047172E3,-1.6307251E3,-4.7833575E2,1.01245316E2,-2.244795E3,-8.3373016E2,-1.6940592E3,1.9910479E3,-4.0297078E3,6.734901E3,-3.849694E3,2.0811362E3,6.492292E1,-9.34E1,-7.33925E2],"categories":[],"categories_nodes":[],"categories_segments":[],"categories_sizes":[],"default_left":[0,0,0,0,0,0,0,0,0,0,0,0,0,0,0,0,0,0,0,0,0,0,0,0,0,0,0,0,0,0,0,0,0,0,0,0,0,0,0],"id":31,"left_children":[1,3,5,7,9,11,13,15,17,19,-1,21,-1,-1,-1,23,25,27,29,31,33,35,37,-1,-1,-1,-1,-1,-1,-1,-1,-1,-1,-1,-1,-1,-1,-1,-1],"loss_changes":[5.171439E10,5.0058465E10,3.4530673E9,1.1045761E10,4.204277E10,2.8607242E9,5.154601E8,9.179891E9,1.5969649E9,3.3202393E10,0E0,1.8248479E9,0E0,0E0,0E0,9.027787E9,1.785256E9,5.787208E8,9.846702E8,3.0823793E10,5.387464E10,1.8739528E9,3.395429E7,0E0,0E0,0E0,0E0,0E0,0E0,0E0,0E0,0E0,0E0,0E0,0E0,0E0,0E0,0E0,0E0],"parents":[2147483647,0,0,1,1,2,2,3,3,4,4,5,5,6,6,7,7,8,8,9,9,11,11,15,15,16,16,17,17,18,18,19,19,20,20,21,21,22,22],"right_children":[2,4,6,8,10,12,14,16,18,20,-1,22,-1,-1,-1,24,26,28,30,32,34,36,38,-1,-1,-1,-1,-1,-1,-1,-1,-1,-1,-1,-1,-1,-1,-1,-1],"split_conditions":[1E0,1E0,1E0,1E0,1.00291616E9,1E0,1E0,1.8E1,9E0,1E0,-1.3337667E4,1E0,4.7808706E3,4.5911094E3,1.5152605E3,1E0,1.4022019E9,1.001772E9,1.0028838E9,1E0,1.0373737E8,1E0,1.0029051E9,-1.7388931E2,-1.3047172E3,-1.6307251E3,-4.7833575E2,1.01245316E2,-2.244795E3,-8.3373016E2,-1.6940592E3,1.9910479E3,-4.0297078E3,6.734901E3,-3.849694E3,2.0811362E3,6.492292E1,-9.34E1,-7.33925E2],"split_indices":[46,45,8,39,0,24,2,1,1,20,0,16,0,0,0,47,0,0,0,14,0,32,0,0,0,0,0,0,0,0,0,0,0,0,0,0,0,0,0],"split_type":[0,0,0,0,0,0,0,0,0,0,0,0,0,0,0,0,0,0,0,0,0,0,0,0,0,0,0,0,0,0,0,0,0,0,0,0,0,0,0],"sum_hessian":[1.175E3,1.085E3,9E1,8.62E2,2.23E2,8.1E1,9E0,7.7E2,9.2E1,2.22E2,1E0,7.8E1,3E0,7E0,2E0,6.84E2,8.6E1,3.2E1,6E1,1.93E2,2.9E1,7.5E1,3E0,6.05E2,7.9E1,6.8E1,1.8E1,1E0,3.1E1,3.3E1,2.7E1,1.85E2,8E0,5E0,2.4E1,7E1,5E0,2E0,1E0],"tree_param":{"num_deleted":"0","num_feature":"49","num_nodes":"39","size_leaf_vector":"1"}},{"base_weights":[-1.6350183E2,5.970341E3,-6.1834795E3,8.692062E3,-1.2580674E4,-7.7294077E3,-3.8011652E2,9.826145E3,-2.686602E4,-8.745324E3,-1.0171396E5,-8.345461E3,7.300563E3,-4.582401E3,7.5555586E3,-2.7948945E4,1.09861455E4,-3.9601926E4,2.1242173E3,1.0695121E3,-3.3099656E4,-1.4661552E4,-5.955422E2,-7.394527E3,-1.6362117E4,1.6308995E4,-7.336598E2,7.442665E3,-5.6160767E3,1.1228067E4,-2.9316354E2,6.173659E3,-7.8965376E3,1.7967719E3,2.6535233E2,-3.234257E2,-9.714335E3,3.6894048E3,-8.119776E2,-1.1784986E4,-2.2969653E3,-6.212898E2,-1.4801022E3,-2.2692695E3,-1.0376161E3,-1.11447105E2,3.0470662E3,2.5489024E2,-7.115369E2,-6.5209766E2,1.9545641E3,-4.3779272E2,-1.1374818E3,2.2050532E3,8.7149756E2,1.3296353E2,-7.22757E2],"categories":[],"categories_nodes":[],"categories_segments":[],"categories_sizes":[],"default_left":[0,0,0,0,0,0,0,0,0,0,0,0,0,0,0,0,0,0,0,0,0,0,0,0,0,0,0,0,0,0,0,0,0,0,0,0,0,0,0,0,0,0,0,0,0,0,0,0,0,0,0,0,0,0,0,0,0],"id":32,"left_children":[1,3,5,7,9,11,13,15,17,19,21,23,25,27,29,31,33,35,-1,37,39,-1,-1,41,43,45,47,49,51,53,55,-1,-1,-1,-1,-1,-1,-1,-1,-1,-1,-1,-1,-1,-1,-1,-1,-1,-1,-1,-1,-1,-1,-1,-1,-1,-1],"loss_changes":[4.346142E10,2.954542E10,5.3261804E9,2.0789838E10,2.4749779E10,4.4035195E9,4.236466E9,2.1953696E10,1.0644451E10,1.7484868E10,1.2025965E10,3.317125E9,1.3871044E9,1.0734907E9,1.2715699E9,7.350658E10,2.787623E10,2.6890224E10,0E0,1.7747274E10,1.5321946E10,0E0,0E0,3.4524918E9,1.5455816E9,2.2546668E9,2.4856834E8,1.310468E9,4.9922586E8,6.237655E8,1.7840725E8,0E0,0E0,0E0,0E0,0E0,0E0,0E0,0E0,0E0,0E0,0E0,0E0,0E0,0E0,0E0,0E0,0E0,0E0,0E0,0E0,0E0,0E0,0E0,0E0,0E0,0E0],"parents":[2147483647,0,0,1,1,2,2,3,3,4,4,5,5,6,6,7,7,8,8,9,9,10,10,11,11,12,12,13,13,14,14,15,15,16,16,17,17,19,19,20,20,23,23,24,24,25,25,26,26,27,27,28,28,29,29,30,30],"right_children":[2,4,6,8,10,12,14,16,18,20,22,24,26,28,30,32,34,36,-1,38,40,-1,-1,42,44,46,48,50,52,54,56,-1,-1,-1,-1,-1,-1,-1,-1,-1,-1,-1,-1,-1,-1,-1,-1,-1,-1,-1,-1,-1,-1,-1,-1,-1,-1],"split_conditions":[6.4E3,1E0,1E0,1E0,1E0,1E0,1E0,1.0820054E8,1E0,1E0,1.00207424E9,2E1,1.00291085E9,8E0,1.55E4,1.0373737E8,1.0026634E9,1.00216826E9,2.1242173E3,6.8E2,5E0,-1.4661552E4,-5.955422E2,2.1719E4,1E0,1.00287386E9,1E1,1.0027782E9,2.29E4,5E0,1.2E1,6.173659E3,-7.8965376E3,1.7967719E3,2.6535233E2,-3.234257E2,-9.714335E3,3.6894048E3,-8.119776E2,-1.1784986E4,-2.2969653E3,-6.212898E2,-1.4801022E3,-2.2692695E3,-1.0376161E3,-1.11447105E2,3.0470662E3,2.5489024E2,-7.115369E2,-6.5209766E2,1.9545641E3,-4.3779272E2,-1.1374818E3,2.2050532E3,8.7149756E2,1.3296353E2,-7.22757E2],"split_indices":[2,47,44,25,20,20,33,0,8,23,0,1,0,1,2,0,0,0,0,2,2,0,0,2,48,0,1,0,2,1,1,0,0,0,0,0,0,0,0,0,0,0,0,0,0,0,0,0,0,0,0,0,0,0,0,0,0],"split_type":[0,0,0,0,0,0,0,0,0,0,0,0,0,0,0,0,0,0,0,0,0,0,0,0,0,0,0,0,0,0,0,0,0,0,0,0,0,0,0,0,0,0,0,0,0,0,0,0,0,0,0,0,0,0,0,0,0],"sum_hessian":[1.175E3,5.82E2,5.93E2,5.08E2,7.4E1,4.68E2,1.25E2,4.93E2,1.5E1,7.2E1,2E0,4.5E2,1.8E1,8.2E1,4.3E1,1.4E1,4.79E2,1.2E1,3E0,5.2E1,2E1,1E0,1E0,4.04E2,4.6E1,8E0,1E1,6E0,7.6E1,2.9E1,1.4E1,5E0,9E0,2.6E2,2.19E2,8E0,4E0,1E1,4.2E1,1E0,1.9E1,3.5E2,5.4E1,2.1E1,2.5E1,4E0,4E0,7E0,3E0,3E0,3E0,6.4E1,1.2E1,4E0,2.5E1,1.2E1,2E0],"tree_param":{"num_deleted":"0","num_feature":"49","num_nodes":"57","size_leaf_vector":"1"}},{"base_weights":[-1.7670018E2,-1.7987351E3,1.9182713E4,-4.6928936E3,9.359558E3,1.686205E4,3.6293883E4,-5.19144E3,1.65804E4,1.0539111E4,-1.2684052E4,1.5331471E4,4.2875483E3,4.0513125E3,1.2944604E3,-6.67425E3,2.7150483E3,3.2597852E4,-2.6968374E3,3.718223E3,3.081358E4,4.375524E3,1.7228424E4,-5.548754E2,-1.4186565E3,3.5266106E3,-4.8273808E1,2.278454E3,5.117183E3,2.0231407E2,-1.4384501E3,1.3006406E3,-6.566466E3,7.4930728E3,7.944121E2,1.8784438E2,9.524344E2,2.2038494E3,9.2861554E2],"categories":[],"categories_nodes":[],"categories_segments":[],"categories_sizes":[],"default_left":[0,0,0,0,0,0,0,0,0,0,0,0,0,0,0,0,0,0,0,0,0,0,0,0,0,0,0,0,0,0,0,0,0,0,0,0,0,0,0],"id":33,"left_children":[1,3,5,7,9,11,13,15,17,19,-1,21,-1,-1,-1,23,25,27,29,31,33,35,37,-1,-1,-1,-1,-1,-1,-1,-1,-1,-1,-1,-1,-1,-1,-1,-1],"loss_changes":[3.6962845E10,3.5115065E10,3.0015508E9,9.238813E9,3.732359E10,2.6075382E9,4.607365E8,9.913022E9,6.2633564E9,3.0724073E10,0E0,1.566466E9,0E0,0E0,0E0,5.932841E9,1.3965262E10,8.3906765E8,5.807569E8,1.09120135E11,5.5905112E10,1.4925026E8,2.35494E9,0E0,0E0,0E0,0E0,0E0,0E0,0E0,0E0,0E0,0E0,0E0,0E0,0E0,0E0,0E0,0E0],"parents":[2147483647,0,0,1,1,2,2,3,3,4,4,5,5,6,6,7,7,8,8,9,9,11,11,15,15,16,16,17,17,18,18,19,19,20,20,21,21,22,22],"right_children":[2,4,6,8,10,12,14,16,18,20,-1,22,-1,-1,-1,24,26,28,30,32,34,36,38,-1,-1,-1,-1,-1,-1,-1,-1,-1,-1,-1,-1,-1,-1,-1,-1],"split_conditions":[1E0,1E0,1E0,1E0,1.00291616E9,1E0,1E0,1E0,1.3098E4,1.00274605E9,-1.2684052E4,1.00168115E9,4.2875483E3,4.0513125E3,1.2944604E3,1E0,5.118E3,1E0,1.4021793E9,1.00272614E9,1.063E3,1E0,1E0,-5.548754E2,-1.4186565E3,3.5266106E3,-4.8273808E1,2.278454E3,5.117183E3,2.0231407E2,-1.4384501E3,1.3006406E3,-6.566466E3,7.4930728E3,7.944121E2,1.8784438E2,9.524344E2,2.2038494E3,9.2861554E2],"split_indices":[46,45,8,27,0,24,2,44,2,0,0,0,0,0,0,39,2,36,0,0,2,23,1,0,0,0,0,0,0,0,0,0,0,0,0,0,0,0,0],"split_type":[0,0,0,0,0,0,0,0,0,0,0,0,0,0,0,0,0,0,0,0,0,0,0,0,0,0,0,0,0,0,0,0,0,0,0,0,0,0,0],"sum_hessian":[1.175E3,1.085E3,9E1,8.62E2,2.23E2,8.1E1,9E0,8.43E2,1.9E1,2.22E2,1E0,7.8E1,3E0,7E0,2E0,7.1E2,1.33E2,1E1,9E0,1.67E2,5.5E1,1.2E1,6.6E1,6.19E2,9.1E1,1.1E1,1.22E2,8E0,2E0,7E0,2E0,1.48E2,1.9E1,1.8E1,3.7E1,9E0,3E0,4E1,2.6E1],"tree_param":{"num_deleted":"0","num_feature":"49","num_nodes":"39","size_leaf_vector":"1"}},{"base_weights":[-1.4890454E2,-1.6207003E3,1.7417238E4,-4.214723E3,8.380471E3,1.547805E4,3.560157E4,-4.6705127E3,1.5230335E4,9.769304E3,-9.718668E4,1.4092802E4,3.9659812E3,4.698354E3,4.5119582E4,-6.009601E3,2.4695051E3,3.0010396E4,-2.5507656E3,3.3150603E3,2.930646E4,-2.528153E3,-1.204985E4,1.4944833E4,-6.045E3,2.8261218E3,-2.121369E3,5.076988E3,8.4340625E2,-7.3643756E2,-6.240353E1,3.203337E3,-4.348515E1,2.0759248E3,4.7760376E3,1.8461172E2,-1.3425531E3,1.1714498E3,-5.942651E3,6.783204E3,8.7309894E2,4.0256638E2,1.6869141E3,3.97E2,-1.0706667E3],"categories":[],"categories_nodes":[],"categories_segments":[],"categories_sizes":[],"default_left":[0,0,0,0,0,0,0,0,0,0,0,0,0,0,0,0,0,0,0,0,0,0,0,0,0,0,0,0,0,0,0,0,0,0,0,0,0,0,0,0,0,0,0,0,0],"id":34,"left_children":[1,3,5,7,9,11,13,15,17,19,21,23,-1,25,27,29,31,33,35,37,39,-1,-1,41,43,-1,-1,-1,-1,-1,-1,-1,-1,-1,-1,-1,-1,-1,-1,-1,-1,-1,-1,-1,-1],"loss_changes":[3.0432268E10,2.8209707E10,2.657876E9,7.7197773E9,3.3791246E10,2.254893E9,2.1411092E9,8.0844206E9,5.332665E9,2.7896506E10,1.9823329E9,1.4801418E9,0E0,2.4312105E9,8.155064E8,5.183021E9,1.1519707E10,8.148152E8,5.029358E8,8.923113E10,4.3005256E10,0E0,0E0,1.5710147E9,2.2925184E8,0E0,0E0,0E0,0E0,0E0,0E0,0E0,0E0,0E0,0E0,0E0,0E0,0E0,0E0,0E0,0E0,0E0,0E0,0E0,0E0],"parents":[2147483647,0,0,1,1,2,2,3,3,4,4,5,5,6,6,7,7,8,8,9,9,10,10,11,11,13,13,14,14,15,15,16,16,17,17,18,18,19,19,20,20,23,23,24,24],"right_children":[2,4,6,8,10,12,14,16,18,20,22,24,-1,26,28,30,32,34,36,38,40,-1,-1,42,44,-1,-1,-1,-1,-1,-1,-1,-1,-1,-1,-1,-1,-1,-1,-1,-1,-1,-1,-1,-1],"split_conditions":[1E0,1E0,1E0,1E0,1.0029133E9,1E0,1.00207424E9,1E0,1.3098E4,1.00274605E9,1.00291616E9,1E0,3.9659812E3,1.0018578E9,1E0,1E0,5.118E3,1E0,1.4021793E9,1.00272614E9,1.063E3,-2.528153E3,-1.204985E4,1.00168115E9,1.00193056E9,2.8261218E3,-2.121369E3,5.076988E3,8.4340625E2,-7.3643756E2,-6.240353E1,3.203337E3,-4.348515E1,2.0759248E3,4.7760376E3,1.8461172E2,-1.3425531E3,1.1714498E3,-5.942651E3,6.783204E3,8.7309894E2,4.0256638E2,1.6869141E3,3.97E2,-1.0706667E3],"split_indices":[46,45,15,27,0,24,0,44,2,0,0,25,0,0,34,41,2,36,0,0,2,0,0,0,0,0,0,0,0,0,0,0,0,0,0,0,0,0,0,0,0,0,0,0,0],"split_type":[0,0,0,0,0,0,0,0,0,0,0,0,0,0,0,0,0,0,0,0,0,0,0,0,0,0,0,0,0,0,0,0,0,0,0,0,0,0,0,0,0,0,0,0,0],"sum_hessian":[1.175E3,1.085E3,9E1,8.62E2,2.23E2,8.3E1,7E0,8.43E2,1.9E1,2.21E2,2E0,8E1,3E0,2E0,5E0,7.1E2,1.33E2,1E1,9E0,1.67E2,5.4E1,1E0,1E0,7.7E1,3E0,1E0,1E0,4E0,1E0,5.67E2,1.43E2,1.1E1,1.22E2,8E0,2E0,7E0,2E0,1.48E2,1.9E1,1.8E1,3.6E1,1.2E1,6.5E1,1E0,2E0],"tree_param":{"num_deleted":"0","num_feature":"49","num_nodes":"45","size_leaf_vector":"1"}},{"base_weights":[-1.2689697E2,4.3225713E3,-4.9957515E3,6.418007E3,-1.0850137E4,-3.457932E3,-9.23509E3,-2.7325295E4,7.3662637E3,-7.2117544E3,-9.576738E4,-2.5096445E3,-1.4330289E4,-2.4092254E4,-8.221264E3,5.4531826E3,-7.370704E4,8.389492E3,-2.5837441E4,1.6486996E3,-2.9230436E4,-1.3863908E4,-5.0119922E2,-2.4026812E4,-2.1023845E3,-2.1923225E4,-8.298721E3,-2.5685305E3,-5.673922E2,-7.2841675E3,-1.9768803E4,-1.1424768E4,5.8970347E3,1.00539856E3,-1.3898076E3,-4.2774463E3,9.519997E2,8.353462E2,-4.360452E3,-4.232431E3,2.1134832E3,-2.744244E3,-1.7665312E2,-2.717491E2,1.190736E3,-2.9612856E3,-1.00031854E3,-9.218488E2,4.58843E2,-5.9413184E2,-1.3389785E3,-2.185575E3,-7.61401E2],"categories":[],"categories_nodes":[],"categories_segments":[],"categories_sizes":[],"default_left":[0,0,0,0,0,0,0,0,0,0,0,0,0,0,0,0,0,0,0,0,0,0,0,0,0,0,0,0,0,0,0,0,0,0,0,0,0,0,0,0,0,0,0,0,0,0,0,0,0,0,0,0,0],"id":35,"left_children":[1,3,5,7,9,11,13,15,17,19,21,23,25,27,29,-1,31,33,35,37,39,-1,-1,41,43,45,47,-1,-1,49,51,-1,-1,-1,-1,-1,-1,-1,-1,-1,-1,-1,-1,-1,-1,-1,-1,-1,-1,-1,-1,-1,-1],"loss_changes":[2.5498237E10,1.9622595E10,3.6319324E9,1.751184E10,2.248145E10,4.2324255E9,2.0462572E9,6.096951E10,1.812158E10,1.4290164E10,1.0977655E10,3.2969848E9,1.3293768E9,1.1833549E8,1.3817836E9,0E0,6.0525486E10,1.9133649E10,9.988808E9,1.6445088E10,1.4743525E10,0E0,0E0,4.8375168E8,3.272534E9,9.8702694E8,